float W1[DIN+1][H] = {{3.2061463543250878e-06,-5.84808504868009e-06,-3.7745433149599664e-06,-1.7072887079054874e-05,-2.4413956556924253e-06,-3.1974773625294606e-05,-1.246675370515882e-05,3.3332353049128855e-07,8.953772298095925e-06,9.089290211397254e-06,-9.120673330269449e-06,1.5042354079966774e-05,-5.163489253464206e-06,-2.9281727358689284e-06,4.709334548848335e-07,-1.3088665419270358e-05,-1.844142249437267e-05,2.8766533636589483e-08,-5.76672332774588e-07,9.32001262780863e-06,1.3936378314861714e-05,-2.771504387046772e-07,-2.0646124599298586e-07,-5.239215678673872e-06,3.6088457428479357e-06,-4.479040558513567e-06,4.3571825012382165e-06,-5.478855529705095e-07,7.905683852548244e-06,-1.3455265024852576e-06,8.0808566325598e-06,-5.51508064808853e-06,-9.018309745336966e-06,-1.8339492598071667e-06,5.007105181306041e-06,1.8397316658074027e-06,6.361596792431199e-06,8.013034861907204e-07,9.924430886722405e-07,9.293759108689076e-06,-9.387544198212882e-06,-3.379320890598112e-06,-1.2454771511504488e-05,2.122456515231652e-06,1.4234783137676346e-06,1.7891073745851824e-05,-3.791106480633435e-06,-1.8123180804816434e-05,-1.0287426045793417e-05,2.1015280136242556e-06,-1.6182875715012182e-05,-4.515757314437573e-06,2.1662480713714417e-05,-8.107189756419772e-06,1.087308689907077e-05,-4.100442679559475e-06,3.450836004186076e-06,-8.808507656068156e-06,-5.016414932831096e-06,1.979510694623502e-05,-1.7325764110717734e-05,1.0642225037688847e-06,7.768551690313807e-06,-9.863329110204494e-06,-6.5876884702506594e-06,1.2214118678899213e-05,1.3463043204090175e-05,2.43995713918935e-05,-2.7803749496338404e-06,-1.625130722328255e-05,1.5532035110957764e-05,6.3657954987276535e-06,-1.3944305589157194e-05,7.408095968046851e-08,-1.2033568242858698e-05,-9.494933317031193e-06,-1.1250100592763002e-05,-6.380471151752425e-06,1.593666086396098e-05,-1.7317498495585926e-05,6.920881751135242e-06,-9.063450997784659e-07,-1.0932282194297955e-05,-3.477773776762877e-06,1.2306516095754588e-05,-1.929785880640436e-05,-1.703201343843194e-06,-8.546832485704953e-07,1.1282450399785557e-05,-5.214227010465593e-06,-1.5559661673608701e-06,4.3194868959833505e-06,3.784903061832404e-06,3.2974383933229694e-07,-1.5650141941996325e-05,9.357304747042736e-06,-9.328102953574734e-06,-6.067093616891383e-06,2.0455730389642877e-05,1.5966396469869188e-07},{-9.52196647452166e-07,8.837001818388795e-07,-1.3113406161566505e-05,-3.3396100423609033e-06,2.3696266700518354e-05,-1.904742042139828e-05,2.9508921685562215e-06,-5.464573823106194e-07,2.0073057834193898e-05,9.412237841986978e-06,-3.686137045302106e-06,1.3818155351590906e-05,3.2756366024247727e-06,-1.033199276198772e-05,-1.2469353955001126e-05,-2.1893541286391293e-06,-5.728442719718003e-06,-6.287793292621985e-06,-3.3697504474153102e-06,-2.423325327236479e-05,9.491211320569771e-06,-1.2299390187839848e-05,9.702304770355958e-06,4.448773917921949e-06,-1.3544084925404517e-05,1.8203929966989218e-05,-2.9966383016468843e-06,-5.2365380527504756e-06,1.4132741223935655e-05,-1.26289576242502e-06,-4.636001038714744e-07,-5.586748774910632e-06,1.7520917302914476e-05,-4.263057026906757e-06,-8.762960779388861e-07,-2.0155841179019064e-06,-6.180942983430684e-07,-1.5683700470740065e-06,4.7641162623579024e-07,-1.0353758041586688e-05,-1.1712569792088565e-06,-1.320343820640939e-05,-8.683257830897452e-06,-9.818821521250316e-06,-8.825959706100984e-06,-1.3767871973208954e-05,-6.51126936136616e-06,6.473462607462057e-06,4.966832979721088e-06,-2.9563440018768682e-06,2.013481562386846e-06,-2.3468044429520133e-06,-8.726164889541041e-07,-1.000969611424965e-05,-1.0894704102764126e-05,-1.8500783508822239e-06,6.327780323636408e-06,-7.575900795251308e-06,-7.886454780359043e-06,3.0583270865048704e-06,-3.155104666920727e-06,1.4287670458905146e-05,-1.3518826090757449e-05,4.988106344597876e-06,1.8435988531581158e-06,-7.750550654284791e-06,-8.882560561159191e-08,-3.4758055169702474e-06,1.5678221506938506e-06,9.507645979994538e-06,1.3879539170319438e-05,3.653233817540158e-06,1.2688981405832406e-05,1.723935990606981e-06,5.938586730004326e-06,-6.9257773823347095e-06,-2.262684466298674e-06,-1.1336350064361114e-05,5.6535876062355875e-06,4.648283878106208e-06,3.977088506706991e-06,-5.487669641283101e-07,6.599253853981011e-06,-1.0182327750557336e-05,-5.875509503945093e-06,-5.039393393509033e-06,-4.062849648533842e-06,-3.2109907613815194e-06,-1.231991062818265e-05,5.743870183729669e-06,2.4651813551226475e-07,1.9423450945459525e-06,-2.652327376113365e-07,1.2710637437311873e-05,3.5717967509217647e-06,1.9076709928101086e-05,-1.5100840132044658e-05,-1.0432480173877628e-05,-1.9099819687864765e-05,4.0451736418568687e-07},{9.569969033911364e-06,5.767451155942846e-06,-1.6223701197571207e-06,1.428680581158478e-07,-1.5068999522324383e-07,1.5147140028998594e-05,-3.1099857137216694e-05,-9.42023892466215e-06,1.2735302446068279e-05,-1.1767134163478502e-05,1.8852574849447295e-05,1.5105584955819297e-05,3.3846676224356465e-06,9.711492627713823e-06,5.195084818383513e-06,2.6868316257904213e-07,-1.3229250367963525e-05,1.528975514019867e-05,-1.3479429455504315e-05,6.972758280806307e-06,-2.160505537207696e-06,1.0847028162982583e-05,-1.2529522135450739e-05,-1.896592765062176e-05,6.473127902721956e-06,9.798510622038498e-06,-3.6555894214416843e-06,-4.248484432813081e-06,4.389888575198562e-06,-1.4253685484781678e-05,1.0182662064029508e-05,-1.6622931251332383e-05,2.179003327120867e-06,-3.8293957779173786e-06,-1.39267817270664e-06,-9.286440501768405e-06,-1.0948054611901526e-05,-1.0394219987929375e-05,-1.4668986780994581e-06,-5.749224706750329e-06,-1.0316773474198712e-05,1.7054068523125125e-05,-5.1413746402343435e-06,1.037490224818144e-05,1.8428353034531919e-07,-1.019401238060801e-05,9.171916080936446e-06,6.214147323008455e-06,1.2411415632434103e-05,-3.96996316831345e-06,-1.9487978408804112e-06,1.1888738510198528e-05,2.0732447656126378e-05,-6.881421860016834e-06,1.3172048395607658e-05,2.1493740914421903e-05,4.96546742227175e-06,4.986073510303665e-06,1.5526345685745139e-06,-1.2642008491963177e-05,6.515067870685598e-07,-1.002426207921346e-06,-3.239149831803666e-06,-3.6118337877624183e-07,-4.445672911294497e-06,2.781322544041753e-06,-1.1065407966489648e-05,-1.3510075313583272e-05,4.518204065654614e-06,-5.11057528437653e-06,5.9497328296606674e-06,2.107098644388548e-06,1.0582171535595434e-05,1.2382469382452955e-06,-1.7068101633880949e-06,1.3771488085760207e-06,1.0155788502146008e-05,-6.975422530943693e-06,-7.5981078643834695e-06,1.74773881885768e-05,-1.0084118577275254e-05,1.7585466380057436e-05,-4.317393758825737e-06,-7.486745163164336e-06,-3.565597493268153e-06,1.8450324465353156e-06,-3.9833461836691e-06,7.469602540326265e-06,1.217348692716723e-07,3.997952414565331e-07,-1.3976868786519938e-05,-4.367506304626392e-06,-1.7010065854896062e-05,-1.398831045611243e-05,-8.261575267996387e-06,1.579413848835633e-05,-1.0350819964732667e-06,3.889995540216047e-06,-1.1662341245365047e-05,1.5248725465724993e-05},{-5.359473489047219e-07,-5.766828648741872e-06,5.461414851190238e-06,-1.2412310662736671e-05,-1.1143555166124807e-06,-5.062544522516914e-06,8.433069450493427e-06,-3.826771338258976e-07,-1.3474465354517968e-05,-1.173806366446446e-05,-9.189537178644067e-06,1.5743145427910452e-05,1.8765473184636903e-06,-1.0687546789595502e-06,-1.0368653121832717e-05,-3.7827991263857223e-06,-1.4163465721028064e-06,6.74193242416076e-06,-1.484735084368994e-05,-7.397245229490877e-06,1.001368333024714e-05,9.108752710062651e-06,1.3628210680830099e-05,-8.329241344400253e-06,1.088118254108716e-05,-6.124130708656619e-06,1.8695128949952217e-05,5.971442513966355e-06,-1.436879078197104e-05,-7.507914781498734e-06,-1.8933902976801632e-06,1.2183805116437828e-05,-1.704163060266251e-05,1.1467338244547804e-05,-1.035616018492511e-06,6.178205851124718e-06,-9.181404568689485e-06,3.4928864805471567e-06,9.433696737296367e-08,-2.225086093554391e-06,-5.408569211267214e-06,1.3447627614092257e-05,-1.0549652157510007e-05,-3.259332972353656e-06,3.6188810574797666e-06,-5.664324672763077e-06,-1.2104131591304672e-05,-2.3229704285607683e-06,-8.71142860652036e-07,-1.1770685119841096e-05,3.4649769372360206e-06,-1.887404764710321e-07,-1.6461154013011008e-06,1.3662500792882622e-05,-9.283865946907749e-07,-1.5870058074865755e-06,9.90885153294582e-06,1.0372323873867868e-05,6.125019188670584e-07,1.641560617166851e-05,-1.7117616534064882e-05,-3.8671855940239635e-06,-1.661287682874945e-05,1.5317632221111626e-06,-4.745202451142724e-06,-1.287396282914965e-05,-1.1248810731048848e-06,1.05613757663824e-05,-1.3083505767942592e-05,2.17383622425651e-06,-2.6974853743146953e-06,-8.961834443646448e-06,-2.557812061836246e-06,4.36174279641505e-06,-3.673211282402327e-06,2.1321396710342272e-06,7.576782780597235e-06,6.051024205282625e-06,1.1192708314818576e-05,-7.950229237297442e-06,-4.498960702681185e-06,3.162008535036567e-08,1.136005076418034e-06,8.782084791375359e-06,-1.635542153435296e-05,4.936213487817234e-06,-8.25810660001366e-06,2.310219541241346e-05,4.889576526479914e-06,3.5865803961655856e-07,-1.9838473939789495e-05,-7.68500650710731e-06,2.4662043898745802e-05,-3.496089785066333e-06,8.017082872022317e-06,-1.3062550324491597e-05,-1.184451593026955e-05,-1.0837881479895505e-05,1.5094213071535705e-06,-1.091350823829092e-05},{8.343293746118575e-06,8.647374387210248e-06,-1.2562250123446578e-05,1.2652039449225865e-05,-6.3962769855094165e-06,-2.0021347843719553e-06,1.0797978881601814e-05,6.012992246410897e-06,4.35362654680413e-06,5.310376571526691e-06,1.6663832389279716e-05,-1.7826503182762145e-05,5.2364601056944656e-06,-2.670361814149296e-06,7.986498809523616e-06,-5.378055142996356e-07,-1.3682363437920997e-05,2.3657528899184913e-05,-8.19852267803172e-06,5.367002572810784e-06,7.992295348034031e-06,-9.701991117387103e-06,-8.54559665265439e-06,4.0095469879127345e-06,8.24064384740942e-06,-3.7300572818458243e-06,-1.1840147738793377e-05,5.125384626379526e-06,-1.1578234446034746e-06,1.716301873886874e-05,-1.3060073632036661e-05,7.566790672573637e-07,-1.496373621306149e-05,5.90958711871223e-06,-4.478597467449102e-06,-1.1768613774691274e-06,8.383900391039981e-06,6.862422930563453e-06,-1.0175753860758577e-05,-4.961631389728663e-06,5.064166637407228e-06,-2.2873762636484523e-06,5.24588045585933e-06,2.1830401186676493e-05,9.985604947606205e-06,9.760775696264713e-06,-1.7125247195674838e-05,2.084180506021522e-05,1.3267377132728834e-05,-7.48729642501566e-06,-9.917913744275153e-06,-1.4797732050478757e-05,2.5037914049335323e-05,1.0970857811114513e-05,-1.5817242516998457e-06,1.6045741436728277e-05,-1.2819847655664873e-05,8.040337874954753e-06,1.430204290214042e-05,7.799749187964115e-07,-2.613652033325266e-06,-2.4214892435448943e-06,1.043923085981032e-05,6.643966781507254e-06,-6.88348614502643e-06,3.178234245914039e-06,8.167801110456931e-06,-1.4297386670669808e-05,4.2082512336300845e-06,-2.6868076144900322e-05,-7.234659949474149e-07,2.515856450191159e-06,1.5657442667059878e-05,1.0202135634874214e-05,7.629330342939545e-07,4.983221095189757e-06,-1.5261754536304177e-06,-8.488222705693084e-06,5.946799638502928e-07,-9.983213117619144e-06,-1.9920016626106528e-06,4.568602236602778e-06,-5.532002270295451e-07,-1.1832553675185562e-05,-7.775792624265394e-06,1.2339872780593272e-05,1.4582641271547867e-05,-2.0580464603722917e-06,-1.1190514493153782e-05,-7.1335833257536655e-06,-8.586943832120338e-06,1.399056692506487e-05,1.539713508438226e-05,-1.6036472296193217e-05,7.2689717629173376e-06,-5.052797771642906e-06,-1.7476900469934725e-05,1.0942143531605797e-05,-3.1441972453021616e-06,-3.39400302788736e-06},{9.09808934938759e-06,1.6064845102553412e-05,-1.4545386188371864e-05,-9.08266965412184e-06,-1.1617596397746807e-05,6.412653004604922e-06,2.8585418436361295e-07,2.2804452923029272e-05,8.117985602062396e-06,-1.6855557186359834e-06,6.522660113178223e-06,-8.02726784740269e-07,-1.7813026217189479e-06,8.794653022999866e-06,-8.274672975306889e-06,-3.1309626139369124e-06,1.669012163797986e-06,7.614121465365195e-06,-2.972126494884693e-06,1.2930184878292922e-05,9.53152593127461e-06,1.3224350413151064e-05,2.7082827499978776e-06,-1.7685589522630938e-06,1.2380476888567073e-05,1.3127622228743382e-06,4.890626086019106e-08,1.479852121966356e-05,-8.759549433802505e-06,-2.1122642477034874e-07,1.1259241218274418e-05,-7.80177940513712e-06,-1.698083564902884e-06,3.436701474060999e-07,4.473160924427841e-06,1.3056176205383052e-07,4.90861836794609e-06,-3.187061552530465e-06,2.8752156847174414e-07,3.017976279524843e-06,1.2331107782125253e-05,-9.478004518195754e-06,2.22080846183237e-05,-1.9409302830396342e-05,-4.1464680381827655e-06,1.9033101101375845e-06,-3.3951694539781115e-06,8.198307516863026e-06,-1.0222404729640582e-05,8.692259248845443e-07,-7.0230157644457786e-06,-5.87127349622179e-06,9.523527235477828e-07,-5.830145403361315e-06,6.68616029296375e-06,2.9529375937194224e-06,-7.377121658694331e-06,-1.0850960816681404e-05,4.8507734051669334e-06,3.963980253741014e-06,-6.180465241519992e-06,-4.977649511739204e-06,-8.177440617015433e-06,9.290161860779793e-06,9.926013281290111e-06,-1.1436426708375857e-05,2.1637251927783827e-05,8.338630898707372e-06,-4.0016792737607735e-06,1.0780964711290469e-06,-1.1649012356787688e-05,9.051068373623703e-06,3.276489930694468e-06,-1.1839879200584883e-06,4.731442692831049e-06,-2.7312918564566717e-05,2.5582046566879367e-05,-2.87496230349047e-06,-2.4872354455018883e-05,-1.1170495089909448e-05,6.471801301591693e-06,-2.3261794947322534e-06,1.1989099516051439e-05,-5.369375735527434e-06,5.883584857534513e-06,-1.209040426523219e-05,4.646612824225783e-06,-3.3455740627986364e-08,-1.1322725639054181e-05,3.838671826692151e-06,-1.1226345704091177e-05,-1.935292099660323e-05,-5.465720643503699e-06,7.84485426393504e-06,-7.490521832646276e-06,-1.006999185122277e-05,-6.762699158476271e-06,-6.306244644142382e-07,3.365266015599667e-06,1.4631212027849302e-05},{-4.288390834235038e-06,3.860780693646042e-06,1.4606168693017043e-05,-9.332176336639927e-06,-9.76795448531739e-06,-2.3203225321898853e-06,7.875494865570778e-06,-1.146000367217152e-05,1.244448280246343e-05,-2.120850699399359e-06,8.255091843905765e-06,3.825366437923353e-06,-3.357186086815743e-06,-4.0349567805577354e-06,2.4582928377604657e-05,-1.9946897400646428e-06,2.4865827135054767e-05,-2.758824492284914e-05,3.3993962017973618e-06,-8.726793556047397e-06,-4.2050258250777385e-06,-6.226731691214541e-06,-8.269641040179034e-07,-9.222435247788781e-06,3.2916832146275236e-06,-8.162761715910293e-06,2.0710627254101464e-07,-6.3569812519364146e-06,-1.2900843055029477e-05,-5.568784097132923e-06,-1.8722279444173504e-05,1.9744944443918714e-07,7.358137194586702e-06,1.2514657237366309e-05,7.0486961126959225e-06,-1.8443875639136587e-05,1.0855874579086418e-05,7.896567063035436e-07,3.6852706474311114e-06,-6.726754154536712e-06,1.5974838042960785e-06,-9.294802471219477e-06,6.744815042509973e-06,3.692807735588878e-06,1.1854539941029162e-05,7.651199232381166e-06,2.3818797033232153e-06,1.6376576600377156e-05,-8.746158108903962e-06,8.251240115457335e-07,1.7550111861368016e-06,-1.0354741519891025e-05,1.2261032924479473e-05,-9.578302519608155e-06,4.0406417752320303e-07,-5.7328809221306225e-06,-1.1928586237541013e-05,-2.0588413140116685e-05,1.4300453885195982e-05,1.1389118931633861e-05,-3.305547654069945e-06,-1.0924172430617325e-05,2.296149233352902e-06,-1.5261608117438247e-05,1.366811033150487e-05,-1.621882185556833e-05,-1.1049937536783813e-05,2.6008589920915546e-07,3.7283616279927806e-06,2.8782165082058476e-06,-5.0749523722209775e-06,-4.958579755367677e-06,-8.481039520329005e-06,-8.250677152057836e-06,2.273775799685091e-05,1.580389836404046e-05,1.2298501342804019e-05,-1.1855360875767832e-05,7.310504792519373e-07,4.356148208590547e-06,-6.850367644741246e-06,-8.407983566976396e-06,6.693433177142994e-06,-1.3492034325333532e-06,-1.9190776139800417e-05,-1.138156035142725e-06,6.33917446683604e-06,-8.7132139702877e-06,-6.034996511556075e-06,-4.076295414382083e-06,4.790310096624193e-06,-8.822436127415108e-06,-9.580213327266965e-07,-1.3601182923073368e-06,1.3706019142149068e-05,-1.3448675230067029e-05,1.7182185476573719e-06,3.3172020981593857e-06,1.1005456829442478e-05,3.343861422810849e-06},{-6.27036071472299e-06,-6.464261874986317e-06,1.3980252456389008e-06,1.370461748376631e-06,2.878766128905122e-05,8.192747212903541e-06,4.3861227273525844e-06,-2.043889966958787e-07,8.40497269132014e-06,3.653936267686789e-06,1.0505441700152924e-05,-3.966171257474358e-06,-8.517651410836118e-06,4.484784550655269e-06,-1.4619650148479456e-05,1.3271518398598315e-05,-2.2011143650563094e-05,-6.917355358017941e-06,2.4170523785527427e-05,-1.1175247555999612e-05,-5.844515298133904e-06,-1.0102287004196345e-06,2.4993849840324565e-06,-1.2376136726003745e-05,5.5767475893062965e-06,1.7136619220012673e-06,1.8290744192359222e-05,1.935169364012344e-05,8.912260025889531e-06,-1.296850713087683e-06,-4.2166393663505576e-06,-4.2050927758658755e-06,1.7326625564233617e-06,9.097989177950077e-07,1.9268001416468142e-07,1.2975001261565038e-05,-2.0352411025454308e-05,-4.247788464560332e-06,-9.30651176646051e-06,-7.030065770969165e-06,1.54115049170872e-05,-1.0152254079410669e-05,7.877018641887678e-06,8.995532553315227e-07,2.681230419936031e-06,-2.097460445728127e-06,1.2024762993828654e-05,4.996420342574859e-06,4.950916672184201e-06,-3.705392683288532e-06,7.929185076484403e-06,4.347904045483842e-06,1.473382462263843e-06,5.084843028309663e-06,9.15869556071893e-06,1.159672806970941e-05,6.5289650798870906e-06,-6.155730693846446e-06,-5.125481245409419e-06,-5.860853973402752e-06,5.248426248058905e-06,-4.9048420143623744e-06,-5.279391550365304e-07,7.880400528797187e-06,-1.2677441953254215e-05,1.2442510897232979e-05,1.2940807714734386e-05,-7.854794441502298e-06,-2.381440493103572e-06,1.0987850234638425e-05,-1.097461007744391e-05,1.0465657083221975e-06,-6.024799715283903e-06,-9.432179990591129e-06,7.740938447351872e-06,-6.1174557602897944e-06,1.1791312993463173e-05,-7.887963911137033e-06,1.0014797181919791e-05,-6.948976838121656e-06,1.187750070262285e-05,1.0244858771129008e-05,-2.4816274283905055e-06,4.189165355224386e-06,2.7784925932823693e-06,6.573975307112421e-06,2.553267670032553e-06,-8.067073070185847e-06,3.998289017582421e-07,4.994259122854595e-06,1.8945072889440102e-06,1.2036256181953331e-05,-3.776156726274334e-06,-3.895190772303374e-06,-6.025639406039264e-06,1.6305038168414088e-05,-1.0463534195490399e-05,1.8376164665022725e-06,-1.832190606485559e-05,-1.9738245745568415e-05},{1.4587350336416815e-06,-1.531745838401413e-06,-6.975513523338959e-06,1.6638094793964187e-06,8.626638835807886e-06,1.3920902322569696e-06,1.5362970623363542e-06,-3.3767939525484954e-06,-7.115032721649157e-06,-1.8538739768338872e-06,3.948655617090151e-06,-7.75329407786259e-06,-8.375284735109004e-06,2.7241168176534366e-06,-2.279435303351054e-06,9.995710723180343e-06,8.543382423451573e-07,5.702934689403281e-06,2.848233210554845e-06,1.3859852625938665e-05,1.0348246399894715e-05,2.883605162028571e-06,-2.2792780202596713e-06,7.933858815628056e-06,-1.7357318271272876e-06,2.3976820294757046e-06,1.5941998599251554e-06,1.2760342208837791e-05,1.2739000724493616e-06,-1.350677082153289e-06,1.5192438860992012e-05,-2.0773225205970516e-05,7.48227414783213e-06,-2.826779464784245e-07,9.705066709879257e-06,1.873020299788253e-06,-7.099104259132379e-06,-3.9962554122824e-06,-3.4607638434282766e-06,3.9273049146096735e-06,6.774146693053529e-08,1.0636418130373295e-05,1.708337807402032e-05,2.4853128793657e-06,6.98181932868892e-06,1.6241655833208523e-05,1.0506793463936659e-05,2.6293511850916905e-06,6.844121413072484e-06,9.235616665170571e-06,6.741965601117954e-06,-3.8013813482869454e-06,-3.911264915390149e-06,1.8673070309651915e-05,6.865592800137474e-06,-1.550530087536444e-05,5.9672426744356865e-06,-1.8751705073398264e-05,-2.07170144573014e-07,1.106417549169405e-05,2.6637405065900175e-06,-6.9011797333695115e-06,-1.7167353843453046e-05,-2.519850135040892e-05,7.350552027117954e-06,1.56485887485495e-05,8.175454280935423e-06,9.422396684248418e-07,4.727408881827114e-06,2.9144770445642247e-06,1.7180548290781028e-06,1.3456956248379149e-05,3.8983819232631405e-06,5.04184704244975e-06,-2.732158804149397e-06,6.808910905948659e-06,4.711158615372296e-06,-3.122158079988026e-06,2.454286343197385e-06,5.1326920325737715e-06,9.76385882418242e-06,-2.030156866547468e-06,-1.3496693901653282e-05,-4.181038359824922e-06,3.3886518705954993e-06,-6.219601087975946e-06,5.126053630940605e-06,-1.3765098224167228e-05,-9.699625006472085e-06,-4.231524006557366e-06,1.0672044619234662e-05,-2.242281196853678e-06,1.3915532877849952e-05,-4.8569651892805814e-06,-1.872414755542007e-05,-1.625611173417891e-05,-3.6520466822783885e-07,-1.185851218862035e-05,-9.516796069012249e-06,1.0910541659522433e-05},{1.548180625045963e-06,-6.434742996945773e-07,-9.163495079530992e-06,4.9326278716106896e-06,1.447721747248487e-05,1.367163110250069e-05,2.8880367430615737e-05,1.8636254799264064e-05,2.102144365518442e-05,2.673705927339182e-06,-9.124840866618394e-06,4.940322575105891e-06,-1.670924976102677e-05,3.88918084253502e-06,-5.26818338435215e-06,8.489141763615728e-06,-1.0145458703330804e-05,1.2676329752924736e-05,6.207560918519518e-06,9.426294209711944e-06,-4.762808874694785e-06,7.3506374149858845e-06,1.2102508017007957e-05,-4.069870367580582e-06,6.064714644657074e-06,-2.454421915731954e-06,6.828722054490104e-06,5.5299182304776195e-06,1.0946415046229483e-05,1.1481084770310622e-06,-8.038641124694082e-06,2.179459488172982e-06,7.695811488070239e-06,-3.892333018820821e-06,-3.036992200273048e-06,-1.2224180340014743e-05,-5.754555308306925e-06,-9.050625554006288e-06,1.6181010438528056e-05,2.2543908186625724e-06,7.52267712691507e-06,2.252870550861352e-06,-7.130794358867618e-07,1.21281129362205e-05,-1.7622043359171344e-06,-1.1417503555899007e-06,1.2374133895911423e-05,1.2771319676547807e-06,3.196854983344388e-06,1.2276437516992683e-05,1.287094285834225e-05,-1.547779612378161e-06,-9.543908667458188e-06,-3.0691246176818976e-05,1.2931934383504948e-05,1.5872756206982672e-06,2.6233601207885685e-06,-1.5828980271807313e-06,1.3533141488179634e-05,-9.643403966069187e-06,7.629821507404249e-06,8.686379033404881e-07,1.5216980796227436e-05,6.938072830404402e-06,5.776342916506533e-06,-5.575600537856303e-06,1.0289283756470231e-05,-1.9963739655364996e-06,-4.586544212243266e-06,-4.81028387811634e-06,-1.61818523468706e-05,-1.1448776608434809e-05,-2.314019417835731e-05,7.750929204859013e-07,3.7684173169894936e-07,-1.7759861564157122e-05,1.0650363390228681e-05,-7.454695974861666e-07,-2.0533787387882873e-06,-3.1885897407781424e-06,1.1174886088786954e-05,7.87749622452523e-06,-1.1678636757036514e-05,4.449983434179368e-06,1.4147243064587628e-05,-1.64780446975471e-05,4.918148039749878e-06,-9.337897018004706e-07,5.635225930515305e-07,5.527990789927109e-06,-7.032738738186362e-06,7.994031443544512e-06,-9.122229393706357e-06,1.4375965749799643e-05,-1.9452594805194915e-05,-3.7374396350060384e-06,-5.350339069463715e-06,1.7905127614992093e-05,-1.3459974482003354e-05,-1.9554733083676563e-05},{-4.1528736196215864e-06,1.542982533662401e-06,1.6181090389536147e-05,8.478170644453321e-06,5.736592819257096e-06,3.892266053003557e-06,5.6189089832333955e-06,5.805627969900304e-06,1.4972583883753257e-05,-5.551344213390428e-06,-6.4702660067194235e-06,-8.05804892880333e-06,-1.9220693590470045e-06,1.80262765715209e-05,-1.5629403570184474e-06,-6.824767904469497e-06,3.3929871091735343e-06,1.6527642204481637e-06,1.6924491717962585e-06,-4.585161005410209e-06,2.073958981589007e-05,6.160329439770863e-06,3.592488998507027e-07,-4.054992017931751e-06,1.9087391174068735e-05,-2.8721448283959048e-05,-1.2690672599463623e-05,-6.139429971404629e-06,-1.0851603980418498e-05,-3.7631457787140118e-06,8.927223489249796e-06,4.992787952140295e-06,8.501969323395034e-06,4.217873816786549e-06,-7.726748187443558e-06,-7.99838357707363e-07,-1.154406797317735e-05,-1.1063263159775505e-06,3.7742637565959383e-06,-6.011564379170385e-06,5.6272493858670195e-06,-4.0942286615847655e-06,2.7509480607797858e-06,1.4074331718783448e-05,-1.660098679599868e-06,-4.907454525679219e-06,-1.716513621548438e-05,6.5939408898620806e-06,4.499678627364331e-06,-1.069855216287192e-05,-1.501538814923766e-05,-2.8060395331335755e-05,-3.8948707431532715e-06,-3.998483748884188e-06,-5.144618789272529e-06,-5.038255812448734e-06,-9.863984435854749e-06,3.2351168107106076e-06,-1.2667658711330121e-05,-5.496879614258531e-06,1.6881464145545494e-05,1.8709779246141216e-05,1.1984081749241496e-06,-1.3924782378309393e-05,-1.0003874626314284e-06,5.708286511239072e-06,-2.2680517347274e-06,8.85085045330255e-07,-9.491794372050444e-07,-7.409013807463075e-07,9.104120719095923e-06,5.935076580242895e-06,-5.2186347709160755e-06,4.790677976358969e-06,-1.4865909799893837e-06,1.1069189370464717e-05,-1.0182811673395074e-05,5.4419681068582145e-06,-9.923145856906575e-06,6.040418138366415e-06,-1.2617926604517981e-05,-5.347664995692493e-06,5.454004634983171e-06,-1.0732722173744884e-05,3.119657174286651e-06,-6.505364063283435e-06,-1.0736370960145745e-07,5.729034606756838e-08,1.8176051940388507e-05,6.95362852034331e-06,-5.083258610692429e-06,1.4898226212331716e-05,-2.84082117675791e-06,-4.608256696172008e-06,-2.139220360031842e-05,1.7350240757764932e-05,-5.843268212086169e-07,-1.7854774553177786e-05,3.5683110306631673e-06,-1.1474449994927986e-06},{3.3596800514995413e-07,-4.364153296276173e-06,-3.7106178375649586e-06,-6.4170536991796885e-06,-8.91184261247472e-06,1.5688028748826273e-05,-7.715865466439566e-06,-5.284029341889512e-06,-6.524428522681118e-06,7.189430592600994e-06,-2.0352334794205398e-07,4.5409867333758617e-07,8.574565160864862e-06,-8.594146425333024e-06,1.4346972232356379e-05,5.969572764257583e-06,1.301238875201115e-05,-7.795418360202732e-06,8.654385263102494e-06,-2.245161560900743e-06,-6.8761544815902505e-06,6.787656761891336e-06,9.410931367746445e-06,-4.0667306208842195e-06,-1.3990594392879709e-06,1.9648837878070045e-06,6.22387535431536e-06,2.2403642806843545e-06,-9.021658506525122e-07,-4.882692875847229e-06,4.360593645720372e-06,8.76230265485232e-06,-9.357881596455597e-06,-1.615703102642658e-06,-1.0124905144172885e-08,8.48172580908125e-07,-6.403039247744262e-06,-7.49914546266755e-06,3.0588097567623268e-06,6.9567325453440136e-06,-3.495083623215078e-05,-6.194731294754509e-06,3.964313643507091e-07,-1.96338511695032e-06,1.2908305722763886e-05,-2.4417134977318673e-07,1.1051211187220951e-05,1.912954011129461e-05,6.371213663953138e-07,-8.345203012193291e-07,1.7198116268345216e-05,1.6054443597249386e-05,1.759057928656343e-06,1.814811631756068e-07,1.1709918171416387e-06,5.647824811568234e-06,-1.887234052320313e-06,-1.7301357133995e-05,9.595143882446026e-06,1.7786317700550065e-07,1.1381284216160364e-05,5.826939177908643e-07,-9.488587668813787e-06,-3.1253574525076027e-06,1.5502184644278142e-08,-1.6511679761421216e-06,-4.1472599317443106e-07,5.873696820632746e-06,-4.74509495174123e-06,-1.2678168440393558e-05,1.3736566062814232e-05,7.638889782548286e-06,1.8566138326236467e-05,9.305877262989702e-06,3.724258143381928e-06,1.74816885017044e-05,8.450795193572844e-07,1.4501670103603004e-05,4.802565237481623e-06,1.3400908306584633e-05,-5.542697287762015e-06,-1.713155661331243e-05,4.881706365144616e-06,6.68752032154346e-06,1.905930660360592e-05,-4.510215704225066e-06,-1.5100579271791854e-05,-4.804411612565601e-06,-1.4984041017125002e-05,-4.429557047290604e-06,1.2274982425945098e-05,-6.4210730151145446e-06,-2.4199380777432656e-05,-7.5902173416117135e-06,1.3528172318718907e-05,1.3722499158619054e-05,4.129154347538029e-06,-5.651874821219498e-06,-2.214812690380055e-05,3.7593333791255208e-06},{1.0149831075197495e-05,7.013747476796165e-06,9.665523303565076e-06,1.1768476714056329e-05,-1.8618935855058233e-05,6.309446218143209e-06,-8.075110413142726e-06,7.33196958958356e-07,-1.0088394950145966e-05,-1.7364925378222897e-05,-1.2737429601578977e-06,4.1532224668264676e-07,-3.662586197733647e-07,-2.7451424970671256e-07,-1.3451232286883242e-05,1.5340664927304211e-06,-1.6504627193479152e-05,-7.192280488742956e-06,-8.947708049342393e-06,7.045973571827234e-06,8.782766904411825e-06,-1.6918066848435628e-06,1.1037377228894316e-06,-1.3193693551135085e-06,5.599684050024634e-06,1.026656469746641e-06,-5.013520849300405e-06,1.4948502219246389e-05,-1.9350368292654226e-05,-3.719387754898527e-06,-8.677646157075296e-06,-1.7456262234618772e-05,-8.688929028131008e-06,-1.7852834220622619e-06,-8.790192221287675e-07,5.462722620702874e-06,-9.122651696483582e-06,8.227551296366438e-06,3.838612065147345e-07,-6.422776081771382e-07,-4.167260069797454e-06,-4.943201370889e-06,-5.794665258195316e-07,8.528665209464435e-06,-1.2344324348522296e-06,1.9581350672956908e-05,-2.5760615447564517e-06,-2.376411726082846e-05,3.5569318000445628e-06,3.1909338245849738e-06,8.140578917756003e-06,-6.694535905690161e-06,1.3408508738373496e-05,3.3431385957967583e-06,-5.295511080995926e-06,-1.7468677216623961e-06,1.3633285933982983e-05,5.901981783674159e-06,-1.0004820255712619e-05,5.072353548220064e-06,3.366269487648323e-06,1.0070852376387484e-06,-1.4831924849152098e-05,1.0837669106113013e-05,-8.783484575145906e-06,-1.1176821461072783e-05,-1.9246063307177017e-05,1.022740317999912e-05,3.2045657717518614e-06,1.8780638250127856e-07,4.541925206919088e-06,-1.9944446061210153e-06,1.1483604053400283e-05,1.436926098855973e-06,1.1076141394167806e-05,-1.9073503969875535e-05,2.2992686376662094e-06,1.5731642897697473e-05,5.474729295431191e-06,3.4995038967005706e-06,3.1645667772205663e-06,-1.6903547971200913e-05,-2.896961835109028e-05,3.3744880308602686e-05,-1.813393780058351e-06,-1.2546080422028979e-05,3.0332148634966788e-06,-1.3121534773197245e-05,-8.787814346175205e-06,-9.261997390439246e-06,2.697040188197015e-06,1.0652950255782328e-05,8.531107802668605e-06,4.151200683206296e-06,-2.69023023626009e-07,-2.3159261240736014e-05,8.17433568421444e-06,2.7948618337141923e-07,4.0534999299965e-06,2.595761353808894e-06},{4.443544315870793e-06,-2.9556149515690764e-06,8.3429191559279e-06,6.240055987729634e-06,-1.3440997744338484e-06,7.741135003513749e-06,-2.092869929021301e-06,-1.4356777007754697e-07,-5.400971604838356e-07,1.1033999208312058e-05,1.8618616333669794e-05,-2.9955583938335985e-06,-1.4532983100401806e-06,1.758684274984852e-05,1.4224714427479903e-05,2.1160169826819678e-05,4.33227859355168e-06,-4.675773607256329e-06,-1.6816299051495533e-06,-2.3581484428960843e-05,-1.4227290427445447e-05,-8.329651555371196e-06,-1.575173970596754e-05,-1.1717108856543393e-05,4.0295765180441745e-06,-1.5221569926811191e-05,4.893766120023667e-06,-3.858542140406331e-06,-1.9971156866192845e-05,2.9834941709311492e-05,4.884680322432585e-06,-4.358316459456415e-06,-2.303819502129041e-06,-7.66527680722608e-06,3.776008267069515e-06,3.2039023397766075e-05,-1.749141191609023e-06,-1.0167940001852355e-05,-3.854118584615108e-05,-1.0551968850007112e-06,1.0198369374252433e-05,-4.502864207486927e-06,1.1809269214845114e-05,-2.336555456664356e-05,-1.1933067053943884e-05,1.968998377012886e-05,2.0568904992980807e-06,3.6704717542066562e-06,-4.052315038762405e-06,-7.979779055684053e-06,-6.2392326468924995e-06,-1.8710424817568538e-06,-6.3452293715133475e-06,1.2961922736665633e-06,-1.0965052490569912e-05,-9.364040353960635e-06,-5.192082038712448e-06,1.3411245093100665e-05,3.8554047146435895e-06,1.8017869025856417e-05,4.942350533294746e-06,2.897230183597243e-06,1.1296390156478624e-05,1.2273607674750664e-05,-1.768561458113332e-05,-2.8169789382300134e-05,8.511733574822706e-06,-2.153556895633895e-06,-6.907908018532259e-06,2.886767543539995e-05,2.5339717598676986e-05,-3.774588114516248e-06,-2.075647672210617e-05,-3.896417606792414e-06,2.7009649621208133e-05,-8.788414996010871e-06,8.168646538925188e-06,1.2479436134501718e-05,4.93757958171548e-06,8.132385255981283e-07,1.8200157593310795e-05,-8.571937018408238e-06,-2.103195449148649e-05,1.941844532070598e-05,9.47212923839574e-06,1.0767701425382463e-05,-3.374552282225619e-06,1.1660850149714868e-05,-2.711190489077783e-05,-6.785854530444164e-06,1.256544973647237e-06,-8.390497502271693e-06,5.061836346073517e-06,-2.1986409431038104e-05,-1.1506710568248536e-05,-4.0191466449159093e-07,8.197609604465814e-06,-7.562726487517381e-06,-5.677518464163756e-06,3.863648034612376e-06},{1.4352816708185024e-05,6.329895372200319e-06,-1.2335221254459025e-05,1.8880397802727217e-05,-7.829644890724576e-06,-1.290877338536541e-05,5.9512491144749804e-06,-5.674933521740268e-07,2.6969770394013064e-06,1.3870568151701932e-05,1.4434988973661786e-05,4.971373419357658e-06,-1.3024101787506445e-06,-8.456784769706464e-06,-1.1151692899537179e-05,-2.081006209530275e-06,-6.220176999407157e-06,-1.2150644538535512e-06,-5.34638134446726e-06,-3.526080135643336e-06,3.6835206759695183e-06,-1.033916054087543e-05,-1.2553726097814712e-05,-1.0483689226333493e-05,2.3926181571601424e-05,3.879921460392831e-06,8.038428425150013e-07,3.3773606962210305e-06,-5.579038233471797e-06,1.8582562023747978e-05,7.2582255040939965e-06,1.2350041929602393e-06,-3.6604182206617925e-06,-7.674177755780704e-06,1.0482201395861939e-06,-1.5532655205805257e-05,-1.5275719817391367e-05,7.714980666999496e-06,7.084858451050844e-06,5.96494248328191e-06,-5.9737141845071405e-06,-7.009501263913002e-06,-4.7257323951766735e-06,1.0313842382146549e-05,5.5322388055773065e-06,-1.0932200795468922e-05,1.4390208652889701e-05,3.066621583921683e-06,1.4466060494784299e-05,2.3671592314108274e-05,1.4212992444578975e-05,-1.8523705647473503e-05,-1.5548941578983301e-06,-6.651354408594773e-06,-1.1083316071935596e-05,1.2915775562137175e-05,7.288677286141914e-06,-1.0991266971847162e-05,8.376814754590708e-06,-9.446242852306852e-06,5.723465922739781e-06,-5.053302111882785e-06,-5.842805341611055e-06,-1.2168791761685316e-05,-1.1005531669855443e-05,-6.565361448621431e-06,9.247027792301444e-06,-4.627388839728965e-07,7.545838788411585e-06,9.550715609261498e-06,-5.6441542497517736e-06,6.714320634654399e-06,-1.33886331695703e-05,-1.662051890283246e-05,-2.0693850298405013e-06,-1.640939356946402e-05,-2.8082915013304322e-05,6.804136189729787e-07,-3.6412663492968897e-06,-1.998187944173986e-05,-1.1001734784016664e-05,-4.29502282398023e-06,5.9502098406032386e-06,1.564663366432702e-08,1.9615886764041484e-05,2.8907941575318835e-07,-1.1744722121333094e-05,2.2613995239928494e-06,-3.6606648262109337e-06,1.2184147891970975e-05,-1.045539590444214e-06,2.274273915980789e-06,-1.743988424837053e-06,-4.5612212130824775e-06,5.108128926363817e-06,-7.562820525560116e-06,4.780556523009274e-06,-2.0319538171492812e-07,3.7404680646322557e-06,3.2235851755810676e-06},{4.647026358301839e-06,-8.394946149166485e-06,1.4433303791542028e-06,-5.933583259847216e-06,-4.749039331215687e-06,8.222925613555434e-07,7.913597128850843e-06,-7.759166119479971e-06,6.006916573127816e-06,-4.429117669235962e-06,1.334148871831458e-05,-1.6144167307063518e-05,-1.68200227281291e-05,-1.6246337211632478e-05,5.932926107474184e-06,-1.0162781260035744e-05,-1.2477229038441383e-06,-4.45272654424892e-06,-8.322285807679396e-06,2.7312206985708876e-06,6.752630729644573e-06,2.560964958319159e-06,-4.2069977396232046e-06,8.82258274316637e-06,1.4779194525642936e-05,5.235155246047593e-06,1.5833749910665214e-05,4.20371548149085e-06,7.259435701224686e-06,-1.183909971063937e-05,-9.41855688361578e-07,5.369330601114461e-06,-9.32870495172181e-06,1.7773787443694245e-05,-6.884555955109379e-06,1.2327797866160524e-05,2.48838257733672e-06,3.12693916486054e-06,-1.1814923930536805e-05,-1.4181466066495005e-05,1.6869345921416275e-05,7.436508561887117e-06,5.168272634405536e-06,-2.3612091692534294e-06,1.4443318801391047e-06,3.899863218820323e-07,-2.280311434596899e-05,2.291299315149714e-05,-3.6507862277678197e-06,4.027346594005371e-07,-3.915862885012803e-06,-6.835686569313575e-06,9.496546332996308e-06,-1.938128975208672e-05,8.888508019711697e-06,-3.6056842123292798e-06,8.800648954414676e-06,1.4512186029957205e-05,-7.70372185925394e-06,-8.87031710544326e-06,7.804468075060921e-06,-5.805290134243755e-06,-8.209285298850475e-06,-7.034039724552689e-06,-7.385752799525139e-06,-7.311198381706857e-06,9.47755008557971e-06,6.053002462649003e-07,-1.7992831228174057e-06,-8.358958155737156e-06,5.975348144724531e-06,-1.159139052430783e-05,-5.387820342655311e-06,7.846059976329696e-06,6.903439169417856e-06,7.226854570990118e-06,-7.156578788083413e-06,6.360623774325568e-06,8.586275663049052e-06,-1.4396700439196514e-06,-1.2373842896031189e-06,1.074389568476397e-05,2.0057161659432082e-06,-2.504028313762279e-06,5.4794954529477314e-06,-4.7137209576278115e-06,-9.133831600328832e-06,-4.965497273951918e-07,-3.907128654407822e-06,1.157891980457689e-05,1.9053775435355113e-05,-2.413847514668986e-05,-2.107719724597368e-06,-1.3286778376744804e-05,-1.7737377467058722e-05,3.2615532078191757e-06,-5.080509240725867e-06,-2.1233719277862924e-06,1.2539254532288775e-05,-1.4785322064747504e-06},{5.584196808624634e-07,2.483392649516971e-06,-6.543790713999788e-06,-2.91048751272598e-07,-5.995594788074735e-06,-5.8142280416099354e-06,-2.276193474152065e-06,9.477482085155681e-06,7.492535938429439e-06,-1.5603947645278573e-05,2.3791421814799943e-06,9.772205630394106e-07,3.201453914602126e-06,-3.4687508426746083e-06,1.0128693482123904e-05,4.2776771641512666e-07,-2.695112534739475e-05,5.5319187654917345e-06,9.668144473902666e-06,1.1309948181532462e-05,-1.3274422048045754e-06,1.382566771836655e-05,1.563563575295472e-05,1.7597048895490566e-05,1.2176571259544368e-05,-2.154963460959874e-06,-4.7385044489757604e-06,5.824514999823255e-06,2.3607443255008932e-06,7.943236458723573e-06,-7.29731318554193e-06,1.0034654386133511e-05,-2.4148361229307964e-07,-1.3272050841050128e-05,-2.0758687385344496e-05,8.418120585343925e-06,1.1783305051364162e-05,-1.3341815488606393e-06,1.439170337429275e-05,-2.9344173946724014e-05,5.352458819459605e-06,-1.8926536912619176e-06,6.925430147413455e-06,-1.120327125311699e-05,-6.827978029925674e-06,-9.876583938691282e-06,-5.750230743915895e-06,1.9257447950401414e-05,-2.216633601684053e-06,7.619549540256449e-06,2.6326297881809814e-06,2.4554557387108375e-05,-6.322249508397637e-06,-7.2480132137654945e-06,8.732197776712354e-06,-3.863282583429534e-06,-1.6725909419253513e-06,1.162414039421429e-06,2.9774200647134952e-06,5.449539091216445e-06,-1.1883139142709447e-06,-1.669453122629105e-05,-1.5048119357992213e-05,8.691834966082632e-06,2.206718504719136e-05,-1.2933094979443506e-05,-1.881941980416098e-05,-1.994554473661236e-06,-1.1503416263594977e-05,-5.029092818572471e-06,-1.540256889513469e-05,-4.246506378098322e-06,-1.6091182086426085e-05,-2.537625184481997e-06,1.4178123635562229e-06,-5.013724682503548e-06,-1.3772077729977666e-05,-3.6322518104049773e-06,9.062676227161912e-06,1.9955278147212895e-05,-4.669359030449018e-06,2.34411243754402e-06,2.9889992598478025e-06,1.5891639163965892e-05,1.1158917412574923e-05,-3.2239612041728615e-06,-1.2198857625960294e-05,1.0550458699519536e-05,-1.2605665771592042e-05,6.802885321128058e-06,6.069448109211974e-06,4.941656267211197e-08,4.354092989644121e-06,-9.784085656450213e-06,6.94369815418108e-06,-5.386167605914228e-06,-7.87073250122971e-06,-3.615214036843191e-06,7.375118585152203e-08,2.0062220031359535e-05},{-1.3073098492259612e-05,-2.123143053047933e-05,2.0757839474722108e-07,2.9033602568431263e-06,-3.204967074601877e-06,1.3217197342085156e-06,4.8033257145352335e-06,8.617740139848482e-06,8.776351963397667e-06,-1.0462248987963694e-05,3.287397317128472e-06,2.8155905618840726e-05,-4.051059940638025e-06,-6.717569243935052e-06,-6.031997787493198e-06,-1.5250575510670912e-05,2.9881829477096375e-06,3.0590723624238858e-06,1.2584099092325383e-05,4.1214159400519475e-06,6.359432992558324e-06,-1.8276566944818867e-05,8.626811067550403e-06,2.5993086434158974e-06,-5.7905697908559395e-06,-2.294548566132362e-05,9.848006327751423e-06,-4.2280191836335474e-06,-6.335036913950765e-06,7.361250600404507e-06,-4.119765245238627e-06,-1.1767397849145514e-05,3.26294383514955e-06,-2.493724638321354e-06,1.1228915714017843e-06,-4.899795612041765e-06,-8.292107910050585e-06,-2.425012870671695e-07,-1.3934402021576843e-05,2.3504930453823116e-06,-7.65622732463296e-06,-1.1601439659909954e-05,3.140721806934486e-07,-3.4711150498562702e-06,2.54510348930061e-07,-1.5446177691243763e-05,-9.145581397604955e-06,-6.4879962036668795e-06,5.583747526671776e-06,1.156440841312283e-05,-2.781493998329042e-06,-1.2835993201249458e-06,3.1581583876555747e-06,-6.019422251331659e-06,1.0342952371190052e-05,-1.0632696091444252e-05,2.2482152135746123e-06,1.8781419271643014e-05,8.481520752511822e-06,8.138702975850472e-07,-1.7414426716185755e-06,-4.225540170756134e-06,-8.989202451512772e-08,1.4907539225658297e-05,4.827491892367676e-06,-1.1863198219723944e-05,4.5960614628250585e-06,-5.3016606514453285e-06,-4.855279515578665e-07,1.3948889866399588e-05,-1.5515485182168753e-05,-2.7849740657073863e-06,7.365335128315286e-06,4.609010953847413e-06,-9.794274228573145e-07,-9.643929645165579e-06,-4.8348247256062025e-06,-1.2930499005482624e-05,9.983950491911256e-06,7.971675035100338e-07,1.111124972226344e-05,9.87314826653351e-06,-3.0432872636803434e-06,1.0853175653074262e-05,3.45358666163753e-06,-1.063854849976802e-05,2.140441612382246e-06,4.6591292793841184e-06,-2.8751974163892366e-06,1.2672997005872533e-05,1.9311389263480626e-05,-8.977054161300913e-06,6.570398641143951e-06,1.8774938383495395e-06,-6.552734993283052e-06,-1.0523119342889057e-05,-1.675958919669467e-05,-8.088332033788552e-06,1.6498611465248172e-05,2.683759723036202e-06},{1.6408364710222655e-08,1.7298841356436428e-05,-1.2187717771939211e-05,-5.621449311611653e-06,1.8368190552299507e-06,1.3089961849549138e-05,-1.3884197781351585e-05,-1.050759053594204e-06,1.0500235670168965e-05,1.2116485556968642e-06,1.120787595190656e-07,5.036000400611972e-06,-1.780481473690191e-06,-4.596964532341026e-06,1.2208516782610727e-05,-3.8936011932773944e-07,-1.8386605691133523e-05,9.962254875780522e-06,5.913853871269207e-06,-1.4779155282374675e-05,-5.488012467122261e-06,-7.209393149125281e-06,6.482500475581776e-07,-5.793574445498592e-06,-4.030744310219731e-06,1.8416010485320682e-05,1.5065831759720105e-06,2.8265062066225555e-06,7.988278393973854e-06,-2.678277636225781e-06,1.0070563184170203e-05,2.6261092642054418e-06,-8.961438478536167e-06,9.385741585083324e-06,1.1461324614802059e-06,-7.440547220700062e-06,4.232541146681083e-06,-2.430333620760027e-06,6.813293081495548e-06,-1.6796182562016471e-06,5.169260971693375e-07,1.4322726115446442e-06,-2.0362941352865096e-05,-3.97018039071431e-06,3.133504606814182e-06,8.030719224723553e-06,-8.256710270263557e-06,9.277115647211782e-07,-1.7316870841790471e-06,-1.6222833450949517e-06,9.842520284089396e-06,-1.9735605016069192e-05,2.2993434982357796e-05,1.360809186892473e-05,3.6313533329488965e-06,1.5819542759832379e-06,1.8658237905831645e-05,8.453616188571464e-06,-1.2444657949981076e-05,6.9825355675155445e-06,1.1465814658033345e-05,3.733428411585041e-09,-1.9457749579504065e-05,-1.26144853605943e-05,-9.328741856212897e-06,7.710458865914098e-06,3.640595861686805e-07,-1.0003743576864458e-05,7.637316731941122e-06,-4.568465294445483e-06,-8.06593210387656e-06,-7.237937963531786e-06,3.00368379433312e-08,5.191343532561211e-07,-5.338905063230518e-06,1.2321909331843188e-05,-2.119835059424871e-05,-6.809844119570815e-07,-3.1971233817917707e-06,1.2140859105714847e-06,-1.6652301032049652e-05,9.777430224140462e-06,1.9780592320225706e-06,-5.979387540476463e-06,9.123321508841984e-06,3.5728610325562384e-07,-7.04675241857308e-06,-8.732655488372928e-06,-3.960985981060289e-06,4.367547296779894e-06,-1.7562301502515824e-05,-3.891948487369737e-07,2.644104100426742e-05,-1.2117963859454557e-05,6.890523178754353e-06,-1.234891123144386e-05,-2.8428506991926857e-07,-8.132998731795398e-06,-4.186340541805209e-06,-8.58172028148214e-06},{-5.1062177716458555e-06,-4.016596492678646e-06,-5.493645868177593e-07,3.1156318732401947e-07,-8.308347281136327e-07,-3.5651831330392776e-06,-2.9445425557444783e-06,-1.649463477758282e-06,-6.814623198630067e-06,5.66461070912899e-06,3.12337860546817e-06,-4.8117170499784174e-06,7.73639228316765e-06,7.253063942989916e-06,1.43595596474757e-05,6.700010803431409e-06,1.8373168698988494e-06,-4.361831156442816e-06,-1.4588727102542912e-05,-8.705018591229227e-06,-8.923606319089797e-06,4.183484146286847e-07,-5.477140281066006e-06,1.669778497450958e-05,2.269350467126174e-06,-3.804469258169498e-06,1.1924562078791368e-05,1.7435167220476234e-05,7.919264960974996e-06,1.4484347101370282e-05,1.0986874272150516e-05,1.0886120828463548e-05,-6.598968891595276e-06,1.6217223591252647e-07,6.078395044479284e-06,-1.954885084238275e-05,1.9064935743622862e-05,-9.894942744083613e-06,1.1534522993334106e-05,2.4906395832022262e-05,-9.214566031009868e-06,-1.8454339879105322e-05,2.431720707800779e-06,-9.082114855851454e-06,9.572496325976163e-06,2.2709131803821276e-06,-3.294070587489022e-06,3.893945881382522e-06,1.38497230171976e-05,1.3456188843650381e-08,-8.029730455157875e-06,4.419372916691452e-06,-1.2302347437912828e-05,1.2716610839802842e-06,-6.024355934740816e-06,-9.886867736405315e-07,-1.819318329789124e-05,7.42692695228866e-06,-1.015426975621984e-05,-1.3708317344078241e-05,-1.5113670853812826e-05,1.3654997969204135e-06,1.0796877368036131e-05,3.0543292108875244e-05,4.803996853580381e-07,4.3706978201480585e-06,-1.0462526276097985e-06,1.548675705505028e-06,-7.359495139290357e-07,-1.0353534306838359e-05,1.1475592595571335e-06,-1.6942723456953247e-05,4.491759932202268e-06,-1.63420927403875e-05,-2.1326817447549858e-05,1.4680033854377872e-05,2.169386488277414e-06,7.386454935965881e-06,1.2634803235382133e-05,-8.300218422308711e-06,-1.2505394354005347e-06,5.677745589208583e-06,1.344910906030943e-06,-1.2639728234662007e-06,-9.223723714091811e-06,-1.0310211521870279e-05,-3.763569696813848e-06,-9.411317821400835e-06,-3.2672461822334493e-06,4.937217311738347e-06,1.3397785336147275e-07,7.820293735634888e-07,6.320167266953158e-06,-6.731306076220059e-07,-1.6588974610103485e-05,1.2333810876903237e-05,2.96768436893256e-06,-2.031547434615519e-05,-7.438910580966854e-06,-1.217780328988651e-05},{1.5179180641277481e-05,-4.646632662480196e-07,-1.1464521668670717e-05,6.789316339672858e-06,-8.436880278617872e-06,-1.4072960477067002e-05,-2.8679361584285226e-06,9.788424511882804e-07,-4.969693993707782e-06,6.669562216677521e-06,1.0367353391916476e-05,-1.6245031364524062e-06,-2.0587084606712627e-06,-6.672013483256556e-06,1.0486435259175498e-05,-5.525140082209441e-06,1.011760290060427e-05,-1.3526487130486004e-05,-3.9587562097718825e-06,7.117720748640329e-06,-1.4379103002142378e-05,-2.353012987843947e-05,-3.3463084903646893e-06,-5.218266299604924e-06,-1.5251047635347337e-05,-6.640062572628713e-06,-2.630711114212134e-06,4.615939928372793e-06,7.034982373833307e-06,-2.924163345888793e-06,-8.737099740372358e-06,8.825865460583507e-06,-3.147926177902598e-06,-1.5776793028824835e-05,-7.687765180410976e-07,-8.78143971090889e-07,-8.790819964159297e-06,-7.77241078835259e-07,-1.0019385760361473e-05,-1.035209120873152e-05,-2.7292289759676642e-06,1.1316200840240057e-06,-2.959124439223161e-06,4.710873797994238e-06,4.0581025589557525e-06,-3.816125200858514e-06,3.649443101735414e-06,-9.907556498189863e-06,-9.2840838125527e-06,-3.310908304563235e-06,1.3803320030671265e-05,1.041471331105922e-06,-4.29361567697069e-06,-9.678050855098835e-06,-1.716015263335626e-06,-9.612984685187811e-06,1.115095511341859e-05,1.4750774978512144e-06,-1.9235049247042508e-05,6.421610436692147e-06,1.3701967778820869e-06,-5.169419120325023e-06,-5.747293993060189e-07,4.790912814353752e-06,-1.6793507337346724e-06,-5.827180689069777e-07,5.489514522168033e-07,-2.9771956280661154e-06,1.1620623497441028e-05,-5.57209543473851e-07,-9.101285176511552e-06,-2.170787369405368e-06,-4.078578090961181e-06,-4.394657043817261e-06,-1.0185174961438986e-06,-6.006098055680311e-06,-2.2968060345880227e-05,-5.8122488827847134e-06,-7.489319219596162e-06,-1.5552439470099678e-05,7.607674824429675e-06,-3.85612576223344e-06,8.984155988156122e-06,1.7297732211091347e-05,1.1280131017275171e-05,-3.267844946127867e-06,1.9067081471009073e-05,-8.927230970903339e-06,-9.179224702367762e-07,1.71164460661455e-05,-1.6897814169469632e-06,-7.300491101537358e-06,5.9081673827244225e-06,-9.038029436083734e-06,-9.08564960824552e-06,1.0445741740161451e-05,1.9877407998893866e-06,-7.062539492143403e-06,-6.313135174746271e-06,-7.972099596732047e-06},{-7.031060474526845e-06,-8.026520284284716e-06,9.320883733032012e-06,6.667139809877738e-06,1.121806136749971e-05,-5.416226979998864e-06,2.144716657862775e-05,9.434536949479296e-06,1.1366908643385398e-05,-6.506438482141386e-06,-4.408306826129318e-06,7.101595603953012e-08,2.2045800942301885e-05,7.473490227292674e-06,-9.373713125713867e-06,-6.452698558878831e-06,-1.0467482281620483e-05,-1.1098467834875587e-06,-4.090888745235273e-06,1.1106667355236073e-05,-7.304566514017835e-07,-1.9873931261155316e-05,9.714752295598975e-06,1.1441217378285185e-05,-1.8472575002020877e-06,-4.521406977749742e-06,-1.9367697456991144e-06,1.1649609586748317e-05,1.2003417916168748e-05,-8.588730995354667e-06,-1.0230266176339376e-05,7.94768414176273e-06,2.294040632599078e-06,-3.3259196333427614e-06,4.794209649705748e-06,-1.680748809367295e-05,9.163098608822268e-06,6.154007584600128e-06,6.388124852720492e-06,-7.03195858804076e-06,4.7720628818061525e-06,-8.323362594245915e-06,4.254782837519727e-06,-8.578211302666897e-06,4.761857719812343e-06,-8.5370220752167e-06,-4.948951312235315e-07,1.4588987337057153e-06,-7.626338344604617e-06,-4.843197334111193e-07,-4.222863927290898e-06,1.7802404840388405e-06,1.665219089083542e-05,8.651067672563881e-06,3.446988928041416e-06,5.0741738034080425e-06,-9.522366164356395e-07,-2.430499640609108e-06,-3.2048628230246223e-06,-3.777336645655554e-07,-9.75158256262954e-06,6.98823328829066e-06,-6.649382969111574e-06,6.939988585278411e-06,-2.1393648358890977e-06,6.367921278863921e-06,5.991213882656083e-07,8.102171324716303e-06,-1.787900593757476e-05,1.5084490147418964e-06,2.5120079939161253e-06,1.2232674274264596e-06,2.546024939976343e-06,-7.153340148819456e-06,1.9437784625815554e-06,1.2311182270661142e-05,-8.432472915473864e-06,1.1524887433445743e-05,2.62035980119238e-06,-1.0519434145725895e-05,-3.457218131639523e-07,3.5367841875332713e-07,1.1711235465631214e-05,7.5101998210891475e-06,2.973265180258653e-07,1.0306175869214817e-05,-1.2947907649126444e-05,1.1178212966314573e-05,-8.661928708848149e-06,7.719112581118668e-06,-3.235302194925613e-06,8.906676183555602e-06,2.2756680923811307e-05,5.610668701276646e-06,-9.808678312284508e-06,-1.0978406705331966e-05,-8.599692167653651e-06,2.8716655943286936e-06,5.457025196027786e-06,-1.8555718481263301e-06},{-6.823934165552368e-06,-2.4419346254302178e-06,-1.2214291897741267e-05,-2.9797528302370476e-07,1.0644351410603121e-05,-1.950548482431148e-05,-8.533336189535338e-06,7.435840675910272e-06,5.1953851094489354e-06,5.046399756654046e-06,1.2164624843260023e-05,1.5566614310173768e-05,-4.8807194176620724e-06,1.8082290694306423e-05,-1.0147352298081664e-05,-1.2087363479740438e-05,-2.894505802020093e-06,-5.735440145413806e-06,1.0592776481109443e-05,-1.9732912222745953e-05,3.328623741661681e-06,1.2433032202592638e-05,-2.512787974763451e-06,1.3772477243704126e-06,-1.1929268100911736e-05,1.0865244906901193e-05,-2.5479273888219196e-07,-1.4828860021075347e-05,1.3325190823208175e-07,1.0104870304255864e-05,-6.8692079039874615e-06,-1.7785236213442527e-05,1.4895177984147012e-05,8.242161536778855e-06,-2.7693276792592552e-06,1.7087883321789045e-06,1.4259839354289835e-05,5.462814260399936e-06,-1.0548307743774886e-06,9.63164482712962e-06,5.433463446494644e-06,1.5778063283606745e-05,2.918912411826284e-07,-5.256212354185731e-06,-1.040984655824786e-05,-3.5163040544962933e-06,3.6849260118983234e-06,-1.1522095312388162e-05,-8.499979291958924e-07,-6.517021395825097e-06,-5.414799107385249e-06,-9.235115252289714e-06,7.448927742141031e-06,5.565767519504992e-07,7.213808524609437e-06,1.0492266596029785e-05,6.947214634929719e-06,-2.398478534639827e-06,-1.7068898309293762e-05,-2.1898155335201825e-06,1.2612882227724423e-05,5.124465458975074e-06,-1.5576764416627708e-06,-6.542441586578129e-06,-7.300241431546237e-06,-1.6733518784740734e-06,1.5895471991808684e-05,3.6303551476463887e-06,-5.399300766784286e-06,-2.0204956242793287e-05,-1.1922886855889515e-06,6.200572972526055e-06,4.675657466220762e-06,1.892357697417361e-06,1.543698664610917e-05,-9.804405042487333e-07,2.465612383012526e-06,-1.0302378230294163e-05,-2.2968208374682045e-06,-4.854282157228072e-06,-1.695816166921548e-05,6.885717858314389e-06,-1.2091982964334913e-05,-5.522788285902477e-06,-5.244502868940614e-06,6.5041398258716884e-06,1.8346779198706491e-06,2.128409812533179e-06,-7.937891468107406e-06,-4.545274386854212e-06,-2.8792886284510043e-06,3.713596615600956e-06,-3.2147213539436584e-06,-1.752542833206691e-05,-7.923866717157442e-06,8.651705708333783e-06,6.810394080718514e-06,-3.063395341966608e-06,1.5353542855380734e-05,2.756049257403531e-06},{1.3786231046109924e-06,-9.21119911145009e-06,-3.4729410083819622e-06,1.8402203346434916e-06,-3.895169950221036e-06,9.491850952613039e-06,8.434692315536565e-06,-2.1055727148899962e-05,2.0394780313499503e-05,5.993084002312155e-06,-2.391017878161747e-06,8.621608939502053e-07,1.3882400875552048e-06,1.1591073945730732e-05,-1.9382024681921947e-06,3.6648331462010172e-06,-7.106547433154052e-06,-5.877634358448044e-07,5.833926720335006e-08,-4.337012438248222e-06,1.183198758949081e-06,-7.718079506077768e-07,-3.5737377428735384e-06,2.9816347094180265e-05,-8.857311644146672e-06,4.407584383366015e-06,2.5393307102545027e-06,5.12313837685913e-06,3.293384627813693e-07,-1.7023872614213937e-06,9.875422676337689e-07,-9.025196033316137e-07,5.659663686027461e-06,6.919913890382647e-06,-1.0306283692007915e-06,-8.72709984894504e-06,1.4026430991785583e-05,-5.953813061182362e-06,-1.3976533102780578e-05,8.231398995536512e-06,1.0265240631090395e-05,-1.709012835051541e-06,1.3643782182924724e-05,2.9208388095522156e-06,-2.7113584559136277e-06,5.604862202276566e-06,3.825833987315741e-06,2.2328245394238716e-06,6.624612912809005e-07,-2.186776146192561e-05,7.704360513841219e-06,-2.3947784618848085e-06,1.361108664828194e-05,-6.501750299184706e-07,-5.820436309450069e-07,1.7568108076798773e-06,2.7448003033247998e-06,-4.1641105788865205e-06,-8.72942815369819e-06,3.464699973008666e-06,4.6667050721026734e-06,1.0140162108036516e-05,-1.6818634932758565e-05,-8.896046117689599e-06,1.0459768619675103e-05,-1.3632641278541936e-05,3.890498398624017e-06,-1.6482551980781535e-06,-3.2815446209661024e-06,1.5988812173780156e-06,6.854626477158643e-06,6.394648166228148e-06,1.0418597294732816e-05,-1.1122177593993944e-05,-1.2358976024931826e-05,7.786096285371504e-06,-6.034939044951312e-07,-2.454308108468246e-06,-3.2619902204181255e-06,5.259222599843593e-06,-7.82642692383539e-06,8.22756686165891e-07,-1.870214665287689e-05,5.447945027377705e-06,-1.3590213080998313e-05,-4.2349446346068643e-07,3.792753858747579e-07,-2.6683802595451716e-05,-6.595743474662969e-06,-1.581091751256708e-05,-6.515424066047378e-06,-1.2806450920204661e-05,2.5358079144273277e-06,-1.2793476772931354e-05,-9.059025275401988e-06,1.0950012013829878e-05,2.238806651001237e-06,5.437953875829022e-06,-1.1722242597468468e-05,-1.1779894959380162e-06},{-8.435602607144328e-06,-1.6246084782273256e-05,2.229164034510931e-05,-5.566371785207906e-06,1.6535386072375177e-05,-1.0158620015451757e-05,1.763207301957516e-05,1.62256463342919e-05,7.742269703033908e-06,1.6141102350971177e-05,2.830854676213962e-06,-2.620878878767069e-06,1.4297074929698168e-05,-3.0364254811146957e-06,5.77959654426016e-06,1.074540297449167e-05,-3.99553386905036e-06,8.098768810302963e-06,-4.894412197008044e-06,-2.2791924719597604e-06,-3.332481094741546e-05,5.005383957498237e-06,2.947546318285724e-06,4.236468966207886e-06,-7.377997743932357e-06,-6.23393513878055e-06,2.8139262107916517e-06,4.0478889132660706e-06,-4.5716684450980165e-06,-1.097106674339426e-06,-1.0355355218886664e-05,-6.229182812010784e-06,-1.345367185783012e-05,-9.1117201313227e-06,-1.3176314850984786e-05,-1.9014602108619899e-06,9.41312414766152e-06,7.552635701787221e-06,4.236711708020984e-06,-6.640436215607984e-06,-1.4521482821181436e-06,-1.2590370268013306e-06,-1.15187325993606e-05,2.2219916233879008e-05,-2.19178478421348e-06,7.474456067542641e-06,-9.251648922478302e-06,7.667279274358088e-06,-1.0820461668007346e-05,-8.69544016394234e-06,1.1649023157047202e-05,3.883883682199711e-06,-2.5333984427089427e-06,-5.217618131373239e-06,1.1608201827478947e-05,1.9351861839566814e-06,-1.4024415492160712e-05,-8.802977666560486e-06,-1.2719970633107327e-05,-3.456031910292368e-06,1.4100331526730358e-05,2.9971667883961e-06,1.3859635755913514e-06,-2.0592486182233102e-05,5.460586505229921e-06,1.0560454668086979e-05,1.543310056584937e-05,-3.782455345164963e-06,-5.0209767012173825e-06,-7.812716211264889e-06,-6.861425715902822e-06,-1.6613102305900766e-05,4.640171436026693e-06,-9.121871954085927e-06,4.4003875060247304e-06,-5.52499747682821e-06,-3.4143034639670563e-06,4.737367709073639e-06,6.117693853101531e-06,-4.441738932229879e-06,-8.757425145066324e-06,3.0516250584790253e-06,-6.999363920346249e-06,-2.8016747012025738e-05,3.0652010534760166e-06,-2.4278630754542608e-05,3.862915287327873e-06,5.022155103540667e-06,-4.256666966238279e-06,-5.099135951945006e-06,1.3378456062223642e-05,4.6463565535892775e-07,5.607317307864169e-06,1.3779681726100928e-06,-1.6439021460844376e-05,-5.101643456750295e-07,-1.0669749668966311e-05,-1.1599732672487691e-05,6.913402414022013e-06,-5.336242715642693e-06},{-1.3789709924151416e-07,-2.9535794972636013e-06,1.4734475044388017e-05,1.0708083186365426e-06,2.283821095910292e-06,5.649049001758579e-06,-2.3375398272688955e-06,-4.318609016916197e-06,5.562440862850228e-06,1.0683523726125989e-05,-1.478728889893982e-05,-5.3831149784650195e-06,1.2646246216411767e-05,-8.495507859627996e-06,-1.2546472983594993e-05,-1.2194116388582705e-05,-2.0802401287044418e-05,-2.105087454634517e-05,-6.7182636491077895e-06,9.501433855021063e-06,1.3760715507497562e-05,-9.186915193556738e-06,9.63142912961492e-06,4.476322133341497e-06,1.1302252162234871e-07,-7.200491807236928e-06,1.2165672637428884e-05,4.050192549783997e-06,3.298413014187025e-06,-1.664754096406293e-05,-5.760157518434962e-06,9.527584542742581e-06,1.1026141991653133e-05,1.9388318269288123e-06,7.010484230847683e-06,-3.460268082432104e-06,-1.4423671074595758e-05,-3.796016104187556e-06,-6.495482701563102e-06,-1.785232897833777e-06,1.1616442174210321e-06,6.488070039527231e-07,1.6327076665424627e-05,6.542641998445317e-09,-5.194550114390693e-06,-7.449744471241224e-06,-7.90077295357684e-06,8.67880629590747e-06,4.032730679099198e-06,-4.820415921956882e-06,-9.737230506637842e-06,-1.2100874597624298e-05,-1.1279391999090211e-05,6.088505531434782e-06,-7.004795736035089e-06,5.310164833745872e-06,1.5603634887640314e-06,-7.93492877895698e-06,-9.617868178889104e-06,1.4077134705310955e-05,9.109275897918381e-06,-3.1620182464878997e-06,-3.5901754709215525e-06,5.132912671261021e-06,3.0772050756052574e-06,1.8319912810867185e-05,-5.357791688387893e-06,5.282581732997601e-06,3.7872579591858418e-06,1.1168177734938914e-06,-1.2989172591804466e-05,4.840601511934914e-07,2.4682169301025377e-06,-7.024279797281658e-06,4.08262495701032e-06,6.267653637011548e-06,-1.5279585916703153e-05,-4.197845904883774e-06,-1.602292326323496e-06,2.315332368059316e-05,-6.609076575938864e-06,-1.5166077546808806e-06,3.8678875527858895e-06,-7.331574329612431e-06,5.647436599465493e-06,-1.1002074956466661e-05,-1.719006689251449e-05,1.318240981846474e-06,-8.011496679800102e-06,-1.302331045968405e-05,3.6518835717300598e-06,-1.3468339741781895e-05,9.6794408092036e-06,-3.615894284452537e-06,6.400393307690234e-06,-4.280604577918222e-06,-1.5603299036314367e-05,-9.796117319631455e-06,-5.0305018013425905e-06,9.72297742611985e-07},{1.4665454353249112e-05,-2.0394729182915656e-06,-4.479086250365663e-06,-1.5905018922693948e-07,-1.4386292291990264e-05,-6.270492326671806e-06,4.27081823840684e-06,1.297998680834927e-07,3.468996831694353e-05,3.8078615731266385e-06,1.0150137319405676e-05,4.874898922251827e-07,1.2172249792329485e-05,4.232206841053958e-06,-9.170135311605989e-06,7.337337454534726e-06,-1.9133505767778798e-05,-1.0150547466998118e-05,5.947431221755212e-06,6.112666122694441e-06,3.30428883598433e-06,1.6392483864865451e-06,2.2183009506170553e-07,-1.0171385143508338e-06,-1.2617448470913808e-05,-4.069456960842789e-06,-8.083585471387099e-06,8.111337006720738e-06,-8.113057362750433e-07,-9.690576792354574e-06,9.525488838318599e-07,-1.2916126515704076e-05,4.363911447530005e-06,-1.0106820460709627e-05,1.7864587630182822e-05,9.91551257371475e-06,2.031652552548967e-07,-1.1495697266876987e-05,-1.08903250758986e-05,1.6625940385988912e-07,-1.3225509318402136e-05,-1.3038355147753475e-05,2.116275208356472e-05,1.2008024373483108e-05,7.770730793855055e-06,5.62654450327736e-06,5.871787642602796e-06,-1.48335797177619e-07,-2.3263316640416877e-06,3.199427085909068e-06,8.095863857640384e-06,1.1974456210654477e-06,4.627090123902442e-06,6.545565334805119e-07,-1.0922556532510619e-05,-1.3317069091178564e-05,7.615964513598549e-07,-1.230812295227949e-05,1.5336903016708498e-05,-3.4987118418716042e-06,-5.370428860365568e-06,1.5119164296193374e-06,-7.537262636455788e-06,-3.6741154792659874e-06,4.301978183867285e-06,-1.725403639245117e-06,-4.996921062817898e-07,6.904516650505822e-06,-4.901679576774365e-07,-1.6659660120607137e-05,-2.113456929914593e-05,-1.3801540461704213e-05,-6.4893378843183316e-06,-1.7347564776552204e-05,-6.088670924804169e-06,1.5038014073481505e-06,-8.302748859302359e-06,-5.357329488896248e-06,-1.2971851944598852e-05,-4.419152109732435e-06,8.389120503801184e-06,3.611198196433006e-06,-1.9949335867334236e-06,-5.406404945170798e-06,1.421365035610046e-05,8.938872887604819e-07,3.367588181363811e-06,1.3161162966483832e-06,1.5132815231862738e-05,-1.0065885434525678e-05,-1.4279364019876784e-05,-7.658173040449057e-06,3.0481267336732116e-06,-3.2678742047858845e-06,-2.103767576287571e-06,-1.0475097898903255e-05,-4.718313808545466e-06,-1.578320476959686e-06,7.672800940688637e-06,-1.0365582645151113e-05},{2.5629535154892495e-06,5.28583995947253e-06,-9.651272582864352e-06,-7.973434648011075e-07,1.3310403043207322e-05,1.951380371636191e-05,3.0621556194392757e-06,-8.760530244869792e-06,9.59456854034742e-06,3.394303725801649e-06,-1.4653618358324008e-05,-2.0091860690908396e-06,1.5924967350901095e-07,4.893742270958125e-06,-1.4432807426541438e-05,1.4091592432042547e-05,-5.345132962989498e-06,-1.74955309375139e-05,3.3799612932116574e-06,-5.371203979020873e-07,6.978153712749707e-06,-3.726827770665752e-06,7.41178695516909e-07,2.7465240654362955e-06,-4.8482870437373264e-06,-1.1063504012370409e-05,1.5333455540739594e-05,7.854815290008715e-06,2.98706614830364e-06,-1.3769416913875301e-05,2.5051326195400485e-05,-1.4116875641753961e-06,4.081166133878161e-06,-5.4672821160529955e-06,-1.1443705159107427e-05,2.9436300599671633e-06,8.286990242270847e-06,1.1221881060999718e-05,-9.276496484849737e-06,7.1815204808833075e-06,-1.1623074611062417e-05,6.841734316908322e-06,-1.8032150774453785e-08,-1.4873286176545141e-05,-8.927869717849628e-06,9.600565705827212e-06,6.343191979933311e-06,7.941575602049042e-06,2.5183289484040644e-06,-1.1592248881226436e-05,1.0828275107610321e-05,1.4061396533628971e-05,-2.327235668823619e-06,-3.815572628573294e-06,-4.0730597996711216e-06,9.747454126105044e-06,2.0732646184795146e-06,1.9075813171898737e-05,-1.2970189723111312e-05,-1.931444983594754e-05,8.150408291159201e-06,1.8005715765576598e-06,9.2525583221867e-06,1.1285068084750424e-05,4.307756475147777e-06,-6.21080777852461e-06,-1.1127066307778994e-05,2.4393454548233177e-06,1.6635731187729948e-06,6.5723056527237705e-06,2.256231834052692e-06,-1.098968266651298e-07,7.746504830081411e-06,-3.9662057552110984e-06,-1.2134942648336996e-05,-1.4867562049027227e-06,-4.992022558720507e-06,1.0173235309235831e-07,2.0630829350690898e-06,5.944965672692072e-06,1.0513682887671679e-05,-6.531940218935489e-06,1.2562434520620888e-05,2.2264289895183202e-05,-2.420342516617869e-06,4.917843531542564e-06,-2.9962986325692404e-05,4.436127183283257e-06,2.7281061128951045e-06,8.451760715866538e-06,1.1178879134090811e-05,6.45035193317996e-06,-1.2619385682472225e-05,5.1907289348481945e-06,-1.2258485683620803e-05,4.11983286801575e-06,5.831955353309765e-07,1.1833872821618676e-05,-4.515455801616649e-06,2.949016010204483e-06},{7.545120435508883e-06,-2.1553818061215653e-06,-2.5945988203896533e-05,1.929987703809277e-05,-2.612253072746098e-06,-6.650848542212896e-07,-1.1232049408945016e-05,2.5183912747195218e-05,8.517261422952218e-06,-1.1125999783451936e-05,6.118342832567999e-06,-1.764598681864101e-05,1.1172209964551554e-05,-3.922801808614833e-06,-2.548698366938632e-06,8.381369555480682e-06,-1.846667098814656e-05,-3.0016175523276695e-06,7.576604184013624e-06,-5.462796842475279e-06,-1.1084717305066816e-05,-6.241911866960611e-06,6.436604136077622e-06,-7.382751643573568e-06,-1.8916118538883043e-06,1.8841947845209653e-06,-2.3161013890106942e-06,1.313440063915005e-05,3.211844856188354e-06,1.073185079369715e-05,1.0581101324328626e-05,-3.723019757672121e-06,-9.43038418157653e-06,3.289103602790146e-06,2.3040581862679427e-05,-1.2671597772597092e-05,1.5946913733551075e-05,-8.784523636914688e-06,8.421753451492424e-07,9.819945104341655e-08,-2.589434392784368e-05,2.4175710101677798e-05,-5.370340449805741e-06,-9.53388512079507e-06,-2.4821079996850106e-06,4.873919821115878e-06,-9.3540139468812e-06,1.892900318714552e-05,1.470594892264475e-05,5.491067009660786e-07,2.3365583891635465e-05,-1.1356084021075473e-06,-1.4948777358123116e-05,1.6738679576781653e-05,3.1702687549110965e-06,-8.185250740109137e-06,-2.6248280701706613e-06,-2.3301720077025936e-05,5.710074559975481e-06,-1.6469542191498534e-05,-2.7614314344912137e-06,8.095708543869386e-06,6.323360766772669e-06,-7.977752178007903e-06,-1.858635874251341e-05,-9.04843386875376e-06,1.16008110361093e-06,-2.238313620746054e-06,-9.905946131684797e-06,7.783047136566788e-06,8.190921388203083e-06,1.2573589652630628e-07,-1.009403785159826e-06,2.3637991837916137e-05,-2.2159090001661856e-06,2.4642952961644385e-06,-8.580534496736626e-06,3.829533484036702e-06,-3.847428101014834e-06,-2.3962317616485117e-05,-9.0246098222072e-06,7.058947147490083e-06,-2.025349229810507e-05,-7.563572475038401e-06,-4.72500354790628e-06,-8.257631351790327e-06,-1.3077921418457362e-05,-1.116600245957225e-05,-9.148275315104715e-06,2.067544862587956e-05,-5.562175326683459e-06,1.786921701932472e-05,-1.2781600429555725e-05,-4.692366154308761e-06,-4.403624239982934e-06,4.7706914680453585e-06,8.749870380220854e-06,5.2029488372430855e-06,-3.816978087891534e-06,7.18942118614728e-06},{8.920289140567098e-06,9.914601958137437e-06,2.4690042764659154e-06,-1.433068688563755e-05,5.8438450511283356e-06,-1.4380541084937124e-06,-9.900212740721347e-06,-1.143402902822652e-05,1.581388612908463e-05,-4.699747999340163e-06,-6.68748257593694e-07,6.0840376607203705e-06,6.259734681403822e-06,-3.4864937633515703e-06,-3.9799375407755994e-07,8.690760162356343e-06,-9.101837029475195e-08,-1.1591264229083103e-05,-9.927554009216273e-06,2.4042234611736304e-06,-4.930072295711135e-06,-1.1859821450195283e-05,-7.285879677218147e-06,2.5978797455301518e-05,-6.837273112319262e-06,4.097867788354709e-06,-8.63452415742802e-06,-6.13326614146971e-06,8.44419101122796e-06,-1.718674537821976e-05,-5.857758034163994e-06,1.0872875773148032e-05,1.141093851689977e-05,1.0159228736003873e-06,-1.4715322622885496e-06,-1.4157064671769954e-05,-4.6326442314694845e-06,-3.4872592046857073e-06,-8.870437246630366e-07,2.239825687592928e-06,7.045803165550965e-06,-6.431508407234428e-06,-3.6193795304763507e-06,6.336745828242665e-06,-1.9142084883999027e-05,-2.5721615581757697e-06,7.6236990822190955e-06,-1.450006890774399e-05,-1.230058673402531e-05,5.310274007453544e-06,-2.7062716754758152e-05,-1.131329199017782e-05,-5.55503218447624e-07,1.7445508851462455e-05,-6.519808197027638e-06,-6.561577681975004e-06,1.061381568768577e-05,1.2780720605650649e-05,9.458117790468448e-06,1.9267810765123993e-06,7.573808311014327e-06,4.0373572780097315e-06,6.783475532280349e-06,7.430508456813161e-06,1.4085364158257526e-05,7.20948844202745e-06,9.842949131552309e-06,7.224367224553971e-06,8.429909976969587e-06,3.4382449350098404e-06,-1.0082992663640927e-05,1.850280636017778e-05,1.3891870479785536e-05,-4.998057076439635e-06,6.0014226291976285e-06,2.341079699866863e-06,1.7098764167176943e-06,-1.2371657253818057e-05,1.2339767241226692e-05,-1.8105413315346035e-06,-1.1244218672224823e-05,2.0782592424954938e-06,-1.2444409127949426e-06,-7.668036822937955e-06,2.2838040176344502e-06,4.355884123566438e-06,7.304628052258379e-06,1.123559354522922e-05,5.184025063593565e-06,2.9470704505761915e-06,1.0985766366537055e-05,1.5498860489299196e-05,8.507165014903698e-07,-4.408121040495257e-06,1.5195318123539546e-05,-7.081908192039568e-06,-2.807347494582773e-06,8.487083301801038e-06,4.039904628812466e-06,1.581178768943129e-05},{4.244510824230408e-06,8.715611587174869e-06,-1.5103845386205913e-05,-2.973200661199208e-06,4.371904331959459e-06,7.458574722217399e-06,-4.6670642406671075e-06,1.0321852211909296e-05,6.791779610270701e-06,-8.264974625104084e-06,-1.5663070898623102e-05,-6.161321284800039e-06,6.178969445430271e-06,3.0441100609346143e-06,-4.6425184124771535e-06,7.003620831538275e-06,-2.8910442436295615e-06,-3.1450021878014583e-06,-2.3617840036980056e-06,-1.1682365817635362e-05,-5.373988581267063e-06,1.3972851207847942e-05,2.266914827551688e-07,-1.4322962869302959e-05,-8.967164514308625e-06,1.3896103337748108e-05,-7.817397310604824e-06,-6.188522354523511e-06,-9.124614552946409e-06,1.7139150687128039e-06,-3.7711661557889597e-06,3.621131020898562e-06,3.3058158703689806e-06,7.124567103606234e-06,-6.633515210370033e-06,1.0537681687472827e-05,-9.279824478350103e-07,-2.114029143133414e-08,7.140664752119837e-06,-7.41509445027131e-06,-1.951263481185386e-05,9.695407596456071e-06,9.91358027518192e-07,2.0717443204307288e-05,-7.592736308109466e-06,-6.883057620367213e-06,1.7804574949686755e-05,-1.9268309132760113e-05,-1.4466810772454511e-05,5.8717806762025815e-06,9.267763956062623e-06,5.058470464423757e-06,5.266994372836964e-06,3.48336885904154e-06,2.0602893774053246e-06,-9.872042032753127e-06,1.1774856681254636e-05,-1.0629182941819904e-05,-2.339663358459946e-05,1.5851038480570372e-05,-8.177644819697373e-06,1.5507179993484744e-06,1.393284078439204e-05,9.512259718151653e-06,8.090804817502336e-06,2.8882854415725553e-06,9.547338043889608e-06,7.44198543511921e-06,-2.5230644609377174e-06,5.442157538094089e-06,-1.7383630264720115e-06,5.975018243367969e-06,2.9138905644481e-06,1.7128406593908054e-05,-1.0815244470779851e-05,5.840726580232052e-06,3.551913415730363e-06,-2.6243725549857553e-06,-7.124168001617737e-06,-1.5684943628350813e-05,-1.8234030476191624e-05,-3.450552489200117e-06,5.713669968823879e-06,-6.295459713698157e-06,1.8626972763640664e-06,-7.322683356000854e-07,-7.1821619646126286e-06,-1.5673573755882715e-06,3.789664290485136e-06,-8.763264970883751e-06,1.6434933213065135e-05,7.416583385438986e-06,-1.4444956022555982e-05,-1.0869544932169168e-05,6.280684476322569e-06,1.1305169239195429e-06,-5.5339332178663065e-06,7.346842151221442e-06,-9.491010390256251e-06,-1.3277452234737017e-05},{-1.3630730343130176e-06,4.6600765901140255e-06,1.5576193831765737e-05,-1.2563270367618411e-05,3.1316096562167266e-06,2.138075342771621e-06,-4.873221630535746e-06,7.2847909770912186e-06,1.0063946079040842e-05,-1.5994719659675369e-06,-2.6941263015922977e-06,-2.580458808740748e-05,-1.6087608504652604e-06,-9.722328479806836e-06,9.584845417928016e-06,-1.0659342671295816e-05,-2.469768716234725e-06,-2.063569450435375e-05,1.5723557622309267e-05,1.0613161848564654e-05,-8.27125379238284e-06,-7.086437754078956e-06,-1.7942267025532374e-05,8.777296434947535e-07,-7.867306875567436e-06,1.3197753160108869e-05,2.4987117935073353e-06,-1.9231317508752064e-05,-9.689563750969387e-06,-3.7988468969523194e-06,-7.1418264247554535e-06,2.379809871592035e-06,1.4367692652699091e-06,-1.8878389484307446e-06,-1.2605425987067673e-05,1.042178972374998e-05,1.5841781470838703e-05,2.103274834761238e-06,-1.2717097108597407e-05,-8.267464627290349e-06,-5.378627562086871e-06,1.047546458229995e-06,3.0667664707111144e-06,-6.406809819220467e-06,-6.3983836715880155e-06,-8.225901026991016e-06,6.4671725408617396e-06,-1.3707677902497625e-05,3.8808518846378284e-06,1.812488428190326e-05,-1.7841273731432804e-06,-5.347638222099812e-07,1.6569339311854618e-05,-2.967864467620951e-05,-9.297005339584646e-06,4.1870681356520835e-06,2.054159866539205e-06,-8.361326432515447e-06,6.593413623810275e-06,2.2968572941725927e-05,2.0221699461108372e-05,6.705228264996364e-06,-9.073101753054858e-06,1.6935775485102413e-06,-7.50141850645848e-07,2.9644113736365864e-06,-1.4230107038886103e-06,1.4258048064162267e-05,1.5304597245568002e-05,3.0863435818708397e-07,-1.4481099457745282e-05,-1.499504294393538e-05,4.957385705361129e-06,5.450966440179903e-06,1.7901032078065868e-05,-1.421046294830457e-05,2.0296360780079348e-05,-9.513771028660055e-06,2.8810271038644293e-07,-4.676419958787066e-06,2.662562979351889e-06,-1.9957596209036987e-06,-1.185824431153963e-05,-3.086404375699181e-06,4.733439270315251e-07,1.9201866687581692e-05,-1.757209043261002e-05,-2.948686798813573e-07,-3.28629437267747e-06,1.4999266082701586e-05,-1.5608180197958155e-05,5.74351622535773e-06,9.97342433237746e-06,-1.1525945709428658e-05,-6.437964806929199e-06,-2.0439227323986026e-06,1.1192777090679696e-05,7.453626250800757e-06,1.844189729438953e-05,-5.553731595182708e-06},{-4.613125037282199e-06,-1.401628026980496e-05,-3.6670801695204763e-06,-1.1169038354309393e-06,-2.5351993468996096e-05,-1.9936488076229118e-05,-3.8659543447546465e-06,1.0123373353605601e-05,3.331720670203043e-05,8.536573730439192e-06,-1.1579673969088611e-05,-2.5075166131798316e-06,-1.5924669107204043e-06,-1.0292785755956885e-05,-1.0133837342192955e-06,4.9624984779340315e-06,-7.318320079179682e-07,-1.0791747473908192e-05,-9.724355777445652e-06,7.556191832505239e-06,1.1437646274204664e-07,7.262713805625516e-06,2.062493473926325e-06,-2.4578806737183158e-05,1.0806421121081162e-05,-9.204165765615054e-07,6.662046349126208e-06,1.3751323782514854e-05,-1.766493903093509e-05,1.593869079418241e-05,1.7372791499219348e-05,-9.008442094114195e-06,4.222336746506276e-06,-1.9799071391971063e-06,-2.5318837267394436e-06,-3.771904492070846e-06,1.1595892982299764e-05,2.3301664214233815e-05,3.5512613065402366e-06,-3.294694529954221e-06,5.655329583789663e-06,4.7017963015009284e-07,6.880169891871442e-07,1.765156488731338e-05,5.327062991316208e-06,1.0824846531559545e-05,-1.7640253370456892e-05,2.1765881320410652e-05,-7.834567052772266e-06,-6.879298587438991e-06,-1.802131077313239e-05,-2.9856181413306807e-06,4.0187370533997485e-06,-5.912220565491025e-06,1.8735726185070992e-05,-2.1179084912075642e-06,-8.872482393953363e-06,1.326606833502534e-05,-4.703849713084156e-06,-1.5219203252760459e-05,-4.029428503666661e-06,-2.192134650718198e-05,-9.72603607692982e-06,1.1015666696312009e-05,-1.492069581115876e-06,9.823958756970642e-07,8.451637938790041e-06,1.4246898178181602e-05,-2.0242361280351487e-06,8.925777300296125e-06,-8.640539909222895e-07,-1.230833744983651e-05,-1.209315776709506e-05,-4.3780140569593635e-06,2.6630381328310753e-06,-4.909656164276262e-06,6.884991862181031e-06,1.1785194659293616e-05,-3.826368545841048e-06,2.287998902107913e-06,-8.002854875226981e-06,-4.198491946151215e-06,-4.97217692129921e-06,-6.919755431050336e-06,-6.866404415858306e-06,-1.553994662851872e-05,-2.5978058426415708e-05,-5.46829616982114e-06,9.025920964012494e-06,-3.4777921287792646e-06,-6.528626761048673e-06,-4.7293981053105773e-07,8.701958970025778e-06,-7.382220375431281e-06,-4.883471344121116e-06,-8.164969623622653e-06,3.167655402901663e-06,3.753788521038425e-06,1.1455460459099626e-06,-4.9122627837444816e-06},{2.5471400438111495e-06,1.5672334345743286e-05,-3.297864789048824e-06,-7.328153150881619e-06,5.739027846605091e-06,-1.4512230627112566e-05,1.1566982718268913e-05,6.26191541892761e-06,-4.615810096984995e-06,7.43254105499982e-06,-9.050100983110083e-06,-2.3728215407424738e-07,2.4709480418284986e-06,1.38069207660999e-05,-1.1473209924396637e-05,-8.982383072955194e-06,6.303339419018001e-06,-1.6299400884727413e-05,-3.1002488591392364e-06,-9.826940562949647e-06,5.489881338299287e-06,-3.474953706812622e-06,-2.9722838651106136e-05,-1.8022963849951117e-05,-4.734482382326989e-06,-5.583363679516767e-06,2.5609231251195925e-05,-1.2257255538093515e-05,-7.077385411693486e-06,-1.2036209471625458e-05,-6.735739935246085e-06,-1.237907436750353e-05,-6.888483298513434e-07,-1.7772550576805288e-06,2.298610676678781e-06,1.792897464974197e-05,1.707328696215633e-05,-1.0565205047140379e-05,-7.897449939280421e-06,5.21959517720052e-06,4.340049050992999e-06,-7.57613208402494e-06,-6.972678895854107e-06,-6.3742391314565834e-06,-1.3644565558457186e-05,-3.5111962235908363e-06,4.093134306418486e-06,1.2915324311118312e-05,3.472560088320449e-06,1.2517695604115057e-05,-1.2942074758360132e-05,2.9770580258981115e-06,2.8985165465017814e-06,3.974722243683035e-06,7.724222176803413e-06,3.1604457680684295e-06,-6.483744767635518e-06,1.617427993456037e-06,3.6399793353726314e-06,7.601759137113107e-06,-8.680684547882277e-06,2.116077041001831e-05,-2.5650895702988106e-06,1.092814933715594e-06,2.6104894082030023e-05,-2.006655641104462e-05,2.2564407008076425e-05,7.681134085308269e-06,3.966552361220639e-06,9.705352639994506e-07,2.0956509201359525e-05,1.1879938169447391e-05,1.2067984000278265e-05,1.165179271415364e-05,-1.3458870689171756e-05,2.90262672715495e-06,1.1491118759708223e-05,4.4383889189250036e-06,-3.4508512015939037e-06,3.947936521318428e-06,2.651533027722186e-06,-2.42070491825039e-06,2.5268466942115794e-06,5.106754210136935e-06,1.1685349792103547e-07,-6.187222428137312e-06,4.5442073581252654e-06,-2.444196366897344e-06,-1.1714343215478312e-05,2.4077026333052597e-05,1.2273138320881576e-05,-4.966559231017506e-06,5.194442666083682e-06,-1.1583473224486097e-05,8.048929747706494e-06,-1.960697973155751e-06,5.331626789898334e-06,-4.648149022376273e-06,3.830508824714507e-06,1.129766699402277e-05},{1.5952795153994155e-05,-1.0526240294762245e-05,7.685483842807786e-06,-4.723005885208726e-06,-3.931067400780403e-07,-3.4169061780740777e-06,1.4236482393887798e-06,1.4804438876591736e-05,4.326064850432351e-06,1.6683118464477121e-06,-2.2746438643888138e-05,5.106852714147305e-06,-1.1509772261758098e-05,1.0681717150107658e-06,2.9070445628875514e-05,-6.934261507261139e-06,-1.7526544654424742e-05,2.9380881097732338e-06,-4.218797468987987e-06,-6.670689234779949e-06,1.8871689744510792e-06,1.0635079429147305e-05,-4.055448933365091e-06,-1.877012527127672e-05,9.422649906425506e-06,1.4767459069000534e-05,5.135951653607048e-06,-2.0483821614872217e-05,4.3976110005593095e-06,-4.257535137857619e-06,4.085418839530471e-05,-6.5112476337292385e-06,-2.5036976882174588e-05,9.828079009009187e-06,8.95842010127235e-06,8.421963180715655e-06,1.0170397545381692e-05,-1.1843316597681815e-05,-1.0838922196291377e-05,-1.3296581784892908e-05,-9.314384700013994e-06,-1.0153379142885621e-05,6.915541092155471e-06,-6.45140705126725e-07,6.76227054224187e-06,-1.2929073249644243e-05,-2.669550153671134e-06,7.151651185092061e-06,-8.642233260523394e-06,-8.858807284665962e-06,9.275624111030932e-06,-7.905712805381656e-06,2.0783813277091174e-05,-5.638903942015342e-06,7.584071151354117e-06,-9.244968239318705e-06,1.5260547642319496e-05,2.2888882980378445e-05,2.1006558755919864e-06,-1.8243343401998412e-06,1.65250022783683e-05,-1.2543222977712054e-05,5.317548228317813e-06,1.669664358912204e-05,3.343637863236922e-05,-7.394663230802487e-06,-2.9276657370137576e-06,1.1939177874016604e-05,-5.4234484116380445e-06,1.964143167864131e-06,6.695839852843291e-06,4.99279662927188e-07,-3.3499279326690086e-05,-4.279812648059403e-06,2.318156378090726e-06,-3.900796148388872e-06,9.673182177805307e-06,-7.081356950175041e-06,4.070811231516688e-06,-9.676294192608824e-06,9.233567129622523e-06,-1.7100667925907693e-05,2.092862711099543e-06,4.4840910063258965e-06,-6.038566492437739e-06,-1.4825300011853923e-06,-6.328847120710422e-06,6.615185264980991e-06,-1.5121056763234817e-05,5.089057220495557e-06,1.586794081631283e-05,-5.187652345809024e-06,-5.4056421261016966e-06,-8.091033258231145e-06,-1.3903435601738556e-05,1.3043483628688931e-05,-3.569571946731089e-05,4.556167147990452e-06,3.26586215526073e-06,-4.978586473670942e-06},{4.1548761093732555e-05,-1.0414696848145284e-05,-1.0191980161052932e-05,2.754220747492399e-07,-6.500183828743533e-06,1.4951066820312197e-05,2.3366541154982075e-06,8.18339971123291e-06,-1.7930470171288363e-05,-2.372295069475523e-06,-3.002523895014378e-05,3.4396593687819273e-06,1.3080049139834339e-05,1.579251578878572e-05,6.23019689467496e-05,-4.838518680669843e-06,-5.6144282390810505e-06,6.5675138477350875e-06,-1.423768100863292e-05,-2.04562937225692e-05,-2.0789837183731014e-05,-6.318236979347084e-06,-1.866266876463419e-05,-1.0624010194658013e-05,3.609609846570756e-06,2.4800417407456293e-06,7.603416732960991e-06,-4.40235794133267e-05,-1.0363385443277986e-05,1.9568548177688046e-05,6.421941177576524e-05,9.61518609098577e-07,-3.183486303169111e-05,-1.0829827198849615e-05,1.957605594668754e-05,3.1704528648218964e-05,1.9109227757179642e-05,-7.127870663626665e-06,-1.6165340802461306e-05,1.393726293378504e-05,-2.9594902349381544e-05,6.951895951834491e-06,-1.0606041949052201e-05,-1.2573608262960624e-05,-7.908140837321126e-06,-1.0697023053552088e-05,5.340819433138499e-06,8.201358800302456e-06,1.763806230719498e-05,1.5064514061905646e-05,-1.2324292931672304e-05,-1.4028094486538678e-05,-2.6799572520033825e-05,-1.3728487506018214e-06,9.743927803431254e-06,-3.334970429146328e-06,7.94058247445693e-06,3.959314319854833e-05,-2.3503294488226527e-05,4.831817219482998e-05,4.4923508568298534e-05,-2.6830175732257775e-05,6.4030108439883434e-06,-1.2464608725906254e-05,4.958270511523421e-05,-2.2051510758174107e-05,1.3456378414312658e-05,4.3957540295502057e-05,-2.3181664891567223e-06,4.990912927804915e-05,7.946142120057554e-06,1.0077762153982422e-05,-5.17028723096187e-05,-4.198063697322221e-06,-5.210836774117851e-06,-2.4248525883420387e-05,-1.0442106127381225e-05,-2.1986082957629253e-05,1.7435421619979545e-05,-6.438435610001156e-06,1.4300789946182108e-05,-4.543538617410811e-05,-1.6029664157348786e-05,2.7591880082427088e-05,-1.0362404198947357e-05,-9.994345267760474e-07,1.7896919372551656e-06,7.484518334109422e-05,-4.801007013933476e-05,5.9849775541672144e-06,2.846950840474678e-06,-2.642997045788519e-05,9.728936339518298e-06,-1.2201073908783418e-05,-4.231259529583431e-05,8.730097251627474e-06,-3.5663398051690724e-05,-1.2832630658724584e-05,-9.945274478494787e-06,-2.795454482638939e-06},{6.957381259381726e-05,-2.6678545383361798e-05,-4.0990143165396835e-06,-9.111041473185583e-06,1.2797023745511403e-05,4.022375637958494e-05,1.0605014178336239e-05,2.836718216192469e-07,-1.4747050103620227e-06,-2.1692460544549523e-05,-4.79880993061581e-05,-1.7983641158193348e-05,3.7196969819130313e-06,1.814957521203917e-05,7.006378986356368e-05,-1.4489484236798352e-05,-3.885818704860401e-05,1.823272381940121e-05,-1.4495801367587217e-07,-4.113307643101983e-05,-4.6656774549007216e-05,-2.3757516994191077e-06,9.337096870346208e-06,-1.6462977488154962e-05,-2.6810152507944088e-05,5.898527588776096e-06,-5.313343726322231e-06,-2.0597334247479798e-05,1.5055102131957445e-05,8.662761976162696e-06,7.733107361590865e-05,-2.78735612132274e-05,-3.423277999771416e-05,-2.592938934492585e-05,2.7926422311363607e-05,5.027409953584107e-05,2.417259988827364e-05,-1.734100326329057e-05,-3.2705896002939066e-05,-1.4598546835309805e-05,-3.4222357109987704e-05,2.2202348522936597e-05,1.272097813378366e-05,-4.0835145159996725e-05,3.859670950851166e-06,-1.9496500380620197e-06,-5.1588315090995885e-06,1.0500260400712276e-05,3.373103197593209e-05,-7.289352530231731e-07,-7.069516175550926e-06,-3.2892321110679194e-05,-2.3754505455388214e-05,1.2310202331283695e-05,-1.875118410514518e-05,-1.2055046553533862e-05,4.934452049114426e-06,2.984485667534983e-06,-1.8387233200316264e-05,5.365360704745831e-05,5.110345380822667e-05,-1.7790609291731056e-05,-1.2919115129509732e-05,-1.3112243430439081e-05,7.808845199745077e-05,-1.9385010640108543e-05,3.5966463203870335e-05,9.553501232980153e-05,4.551338422522672e-06,0.00010190630835341612,1.9150675363054877e-05,6.2108285051044335e-06,-3.893599485611572e-05,-2.72432072820181e-06,2.8864076996039187e-05,-3.1577345056210275e-05,-5.206519331917892e-06,-1.3431033433928014e-05,3.482026571973916e-05,2.3630191381232214e-05,1.1529798510032248e-05,-4.6998115128339045e-05,-3.2106168099040534e-05,4.271473798601698e-05,-1.623160879551693e-05,1.731907058898429e-05,1.4692888920854655e-05,5.158040330392486e-05,-8.005515698214474e-05,1.0881033235991685e-05,-1.4033547845043117e-05,-6.585395496209156e-05,7.888423382742464e-06,-1.1510186690294764e-05,-5.9996825708874606e-05,-2.1136396284860296e-05,-4.3878263708207895e-05,-2.1684584432530668e-05,8.215375762032e-06,3.534163623283988e-06},{8.461163097647908e-05,-3.576372144999853e-05,-1.3611008576556563e-05,-1.663530721484455e-05,-1.3945053204626224e-05,5.08362064656006e-05,1.2737852137240487e-05,-1.003753298111958e-06,-2.4195563656106708e-05,-3.636701966149199e-05,-3.636196522485985e-05,-2.822295435278635e-05,1.3032597569349375e-05,1.4608566455683593e-05,3.119768878661806e-05,-4.7391221225923364e-05,-2.903396973158276e-05,2.6452033130048208e-05,-2.9341041316438734e-05,-1.8495233361292934e-05,-4.808690121626615e-05,-2.564488594308406e-05,-1.5261371781880238e-06,-3.145645151783892e-05,-1.0913117739966835e-05,2.4344994536069085e-05,-1.0372415511091298e-05,-3.448263230218761e-05,9.011091122391476e-07,1.625705733940879e-05,9.256800829620232e-05,-3.22196556692977e-05,-3.452910355453869e-05,-3.109624024172173e-05,2.964332284976559e-05,4.063303602509089e-05,2.822678981280873e-05,-9.34778235761001e-06,-4.082478623789056e-05,4.59677466798283e-06,-6.16626909975349e-05,4.848844356986118e-05,1.4013888230540835e-05,-5.8842193148814146e-05,1.253903610811442e-05,-1.1437087768301364e-05,-4.66119698344111e-06,1.480972633660191e-05,2.8159431581046745e-05,-4.931388440024491e-06,-1.921680261563939e-05,-5.157937616273499e-05,-2.8899010007522482e-05,8.583545737259873e-06,-2.7978272562710265e-05,-1.6997058824313784e-05,2.0632545435378366e-05,2.1495353499769428e-05,-1.4005313884731006e-05,2.3508916560488347e-05,8.956762639753885e-05,-4.1207832298437114e-05,-2.536858458796136e-06,-6.900044566312882e-06,6.46157466815352e-05,-3.800889945529642e-05,4.1456507990864804e-05,4.619442372243041e-05,-3.556181091877117e-06,0.0001476199810928319,1.3606441966647026e-05,2.7255351394827263e-06,-5.007426465347678e-05,2.9037784812215574e-06,8.769976959802448e-06,-5.249946359115719e-06,4.193029943814807e-06,-2.9182646710584383e-05,6.589755352745352e-05,-2.068532689452541e-06,2.3210931121353868e-05,-3.0396177946590475e-05,-2.8042950058195797e-05,5.8161468905881565e-05,-8.930380923247803e-06,2.5980745898218424e-06,3.5458108241356725e-06,0.0001019511710784928,-6.471775201791231e-05,-6.92207728555358e-07,-5.995031715899555e-06,-2.8317300709321674e-05,-9.520550194108607e-07,-2.896770995019732e-05,-8.77707059353616e-05,-4.8085332293389444e-05,-7.156483434903333e-05,-1.6391049352122587e-05,1.0691408567103187e-05,7.497316877794456e-07},{9.172870592430291e-05,-7.066884141363534e-05,3.769283193371908e-06,3.217510999231518e-05,-7.077333039371797e-06,6.0693526873079836e-05,-1.3027503050447671e-05,-4.19543192188443e-06,-3.0295500991650926e-05,-3.110684454766218e-05,-6.027420642608468e-05,-4.9856319389257e-06,-1.980705228465938e-05,3.329743455289159e-05,3.836993010073571e-05,-4.3273254728461195e-05,-4.3850665333731816e-05,4.6086232520117546e-05,-7.882253524018029e-05,-7.870708061449943e-05,-8.118477876639135e-05,-4.708047634968185e-05,2.8087367423108433e-06,-9.414867790004935e-05,-2.0743644612014413e-05,1.4913499665935644e-05,-1.9632445655276613e-05,-7.72783305150932e-05,-1.0685267968711043e-05,2.122691509373579e-05,0.00016026877762188407,-3.908099681769949e-05,-6.521810662570781e-05,-1.2454583772734439e-05,4.9398374987504735e-05,7.474969314047958e-05,4.8584644250056495e-05,9.863959968425929e-07,-3.1814165670720493e-05,-1.2206295899999794e-05,-8.656200256722812e-05,5.67193501779807e-05,1.8444871774247065e-05,-4.9600131004982076e-05,2.1048737782886568e-05,2.839629986340076e-05,-1.2832922908194735e-05,5.670914243025754e-05,3.353311056531965e-05,-3.034824060371634e-06,-1.3263121164986606e-05,-5.126429923422211e-05,-1.867119559319886e-05,-4.0296993141093795e-06,-5.559255655184848e-05,1.5074922135451386e-07,6.880928422721937e-05,3.779721074182e-05,-3.670717311838042e-05,6.426057736651881e-05,8.366795037982135e-05,-5.4811939882179295e-05,-1.5609072840958674e-05,6.272606178339794e-06,0.00011348799958885505,-9.392355257458953e-05,3.539574380996621e-05,7.63719088802897e-05,-3.548606798541776e-06,0.00020001371482599817,4.259593130860026e-06,1.3576694701118432e-05,-5.6963459990463495e-05,-3.4353884502611475e-05,5.218131560221951e-05,-4.043054975943285e-05,1.544634652704092e-05,-4.924630695877606e-05,0.00010543481019036694,-4.5917881343011975e-06,7.903609887367016e-06,-4.0510092209321115e-05,-6.690731559353559e-05,8.602366104804307e-05,-2.1076213324137895e-05,-2.5967886694491157e-05,-9.747695002848729e-06,0.0001269968635138877,-0.00012767391037276312,1.8578066389534655e-05,-1.4630998826957193e-05,-3.529153954321123e-05,1.4875607175584199e-06,-3.296347990231552e-05,-0.00013198762864678922,-5.0058166680467884e-05,-0.00013671008535061932,-2.4493770286796805e-05,1.551248210814551e-05,9.232086903190311e-06},{0.000151810201022181,-4.762318724901944e-05,1.5204095220013461e-05,-2.0709828863716846e-05,-7.974665947441325e-06,4.893116212687987e-05,7.302970520475007e-07,4.517112629327963e-06,-6.0103285784049166e-05,-5.357352707052369e-05,-7.910636836566939e-05,-1.8288759948600067e-06,-2.537167677189694e-05,4.2119984421914185e-05,4.1027716000690864e-05,-5.9098897839690353e-05,-7.924657712607537e-05,2.2996169436117878e-05,-0.00010823530113635376,-8.894705281576721e-05,-0.00011896585821326334,-7.835281618318337e-05,1.921943831685392e-05,-6.456354751736043e-05,-3.81518075272434e-05,1.5429327381228203e-05,-1.4826133268149048e-05,-8.930157267091201e-05,-8.824522758491479e-06,3.3968369107211483e-06,0.00022887746101616868,-4.1874524309334426e-05,-8.602331926304948e-05,-9.709616988122881e-06,7.178768056612573e-05,0.0001229608999343403,7.139231132461937e-05,-3.074700827663108e-05,-7.279285128352501e-05,-2.1001246482981447e-05,-8.202788068230374e-05,0.0001233861601042164,1.806461080487041e-05,-7.977269671829185e-05,2.1460341741913174e-05,2.791205327728136e-05,-2.5995465737522717e-05,3.969874484568451e-05,3.722572142283245e-05,4.531475196107282e-06,-4.204141532161206e-06,-8.931636838655144e-05,-4.937518032182515e-05,-8.084853127628285e-07,-9.891166702161355e-05,-6.043232639184377e-06,0.00010857678070943267,3.724531872092976e-05,-7.815965821132516e-05,7.850656333934926e-05,0.0001423074850992964,-7.030677371948288e-05,1.7151873269284747e-05,-1.6576767343704845e-05,0.0001288631911463481,-9.62407943218221e-05,6.344798093556152e-05,0.00010001585905249924,-1.897175507984504e-05,0.00020676546961317645,2.2057926852122845e-05,2.8189848056977403e-05,-0.00010982508383101095,-4.82556920805295e-05,5.3737019054224064e-05,-3.680404605830252e-05,4.201745132496993e-05,-7.655745815583545e-05,0.00013738913790119895,1.3663304680925544e-05,1.9984240360233917e-05,-0.00010091123773137633,-7.871854339588412e-05,9.94830088920644e-05,-1.8669741944247407e-05,-2.8768305209932583e-05,-8.664504585153137e-06,0.0001871166745112175,-0.00014349669863226706,-6.563985386225924e-06,1.367368981124744e-06,-5.369559584268182e-05,-2.1046251622304883e-07,-5.064789516187558e-05,-0.00017795508505450843,-5.2652212277752156e-05,-0.00017031047686904288,-3.589725715547045e-05,5.788387251441312e-06,-1.5197158177157273e-06},{0.00017111560114328227,-5.978998700150732e-05,2.95584537404906e-05,-1.1776594229452322e-05,-1.2284183667856616e-05,2.9201311998402388e-05,-2.1757589156506853e-06,-1.7626375437031307e-05,-4.4188387208159055e-05,-7.112712813018223e-05,-0.00011091528864345926,-5.608468333562209e-06,-2.221334757734862e-05,4.247233395837761e-05,6.796059342734156e-05,-8.19218243861801e-05,-0.00010739379996643281,5.5555316795986964e-05,-0.00012964488011614245,-0.00010674817703773132,-0.0001204264867818181,-6.298995609479192e-05,2.9513178119693847e-05,-0.00010301507455178577,-4.5788096337589514e-07,1.900785405948539e-05,2.560099586087714e-05,-0.00011693774713257844,-1.5496672948799863e-05,3.7622390645951e-05,0.000246002613858333,-7.352084307295689e-05,-0.00010399482393132147,-2.566284282845654e-05,0.0001000127243763956,0.0001328411684533742,5.857859752502271e-05,-1.189598412899187e-05,-7.450280464327097e-05,-1.4693331342364507e-05,-8.506874071256203e-05,0.00010256452216894299,2.7261095020267803e-05,-9.828758076920489e-05,1.6474023305974557e-05,2.6245938736331368e-05,-1.4865165114873233e-05,6.772974978359863e-05,4.961783500277941e-05,6.758262403135313e-06,-1.3437303422411647e-05,-8.484299922175357e-05,-1.5235824868242401e-05,9.414258223804226e-07,-8.511262871860029e-05,-6.232413975412462e-06,0.0001231793936408722,6.591581293201203e-05,-6.834995848249679e-05,6.32510681093445e-05,0.0001709316340482909,-9.449526721542376e-05,-3.658819590779149e-06,-2.6845547565136186e-06,0.0001874476312099553,-0.00010464687112383898,4.5207904359574474e-05,0.00015035486501024207,-2.9843695954318635e-05,0.0002281574469794226,1.644273482366883e-05,3.1605630890676974e-05,-0.0001269097532073777,-8.57784745618428e-05,1.075074152168609e-05,-5.1792504783204603e-05,7.001665814769186e-05,-0.00010160534900509945,0.00013795817769088618,7.790131609719218e-06,2.207607564870094e-05,-0.00010116896021784078,-9.76076661228162e-05,0.00010819519500051535,-3.0294293017437908e-05,-5.2149708986572255e-05,-2.608252719666588e-05,0.00023773528813136036,-0.0002022060685524849,3.5000626153718248e-06,-2.9223488826735437e-06,-5.008629153776306e-05,3.497770506578358e-06,-7.025643953215432e-05,-0.00016276106104787247,-5.083345233967171e-05,-0.00014321557862061705,-4.078017652883597e-05,6.068867881527926e-06,-8.401062120471232e-06},{0.00012901008846276753,-5.869303292769843e-05,6.30825317949223e-06,1.3293885514430104e-05,-1.1268128672571566e-06,6.794139276144883e-05,-2.2788470418802497e-06,-8.252829249052214e-06,-5.091429560001074e-05,-4.059788160524074e-05,-8.370178065086626e-05,-1.981748694319243e-06,-2.0129725404615984e-05,4.300296247001622e-05,7.747265231901394e-05,-3.191447448034196e-05,-8.303414501142319e-05,3.9950530658614986e-05,-5.3358609347901875e-05,-0.00010350894972362281,-9.906430401155155e-05,-9.42036695194206e-05,1.1275900954836262e-05,-0.00010029305902935375,-1.475454014099276e-05,7.914788894028947e-06,-4.688622325641833e-06,-0.0001373055568215231,-1.675452542258481e-05,3.270037235728339e-05,0.00021443183324873174,-0.00011272843177537227,-5.616639099856518e-05,-2.2065724137871634e-05,6.796231153765945e-05,0.00012332385559981127,4.0545511273786815e-05,-3.329912004238896e-06,-2.9793808044848376e-05,-2.5891834044904674e-05,-6.29013494688207e-05,7.003336945079996e-05,4.457034295885316e-05,-4.946489893938785e-05,4.1060945868785494e-05,6.516377171656789e-05,-1.6064013083087037e-05,5.853996181851836e-05,2.325508984122576e-06,2.846971888478121e-06,8.913332601430363e-06,-0.00010100345909077903,-7.483310484259205e-05,-2.3575408394133615e-05,-3.628975946002685e-05,-1.0138066522858084e-05,7.934205750831811e-05,6.768229241414502e-05,-7.062813889102597e-05,7.588669051606707e-05,0.00013130783748056834,-7.594286004933015e-05,1.3630360681787196e-07,-5.586270295762925e-06,0.00011671893745461688,-8.912333168012124e-05,2.3115244871405394e-05,8.979617147940642e-05,-2.7478383201567842e-05,0.00019141577360739007,2.3036600827147235e-05,2.158598804175112e-05,-8.066705024824714e-05,-0.00011879585068004648,5.9174369306299334e-05,-5.7567649224391186e-05,8.977299426737791e-05,-4.8404449420541024e-05,7.646711090547867e-05,2.0128278738596702e-05,4.236751879444437e-05,-7.718985484436874e-05,-0.00010533030822186612,0.00011569545408251899,-2.700789502698282e-05,6.7217716305603576e-06,-2.6078716942091733e-05,0.00020199983578698122,-0.00011509990220075688,1.1976389081758032e-05,-7.271386999780411e-06,-5.397626675220952e-05,-6.2235765285669645e-06,-0.0001116620101401239,-0.00021333634385631273,-5.583280925780972e-05,-0.00018872039678751107,-5.755162365821384e-05,4.979458336830361e-06,1.1951568649710312e-05},{7.435220922856654e-05,-2.7839808959168938e-05,1.874945026579225e-05,-1.1389414225338528e-05,1.4819495713411425e-05,5.740919525089574e-05,8.654317834155296e-06,-1.0049052943233822e-05,-9.594493142696417e-06,-8.469067209075797e-06,-7.486117228705298e-05,1.49100718479189e-05,9.326017510952717e-07,4.305745124845877e-05,7.653829546799108e-05,-6.900378651243108e-06,-4.036487029728468e-05,3.3437886045916716e-05,-4.618123323855263e-05,-8.450397284226054e-05,-6.387761604855817e-05,-3.555191341115296e-05,1.4228866653796108e-05,-6.110254417910969e-05,-1.6670695798200677e-05,2.7132912140026515e-05,-2.7114649627853072e-05,-9.629331539962284e-05,-9.56467972206182e-06,1.7036280684947142e-05,0.00013941024726161894,-5.7198202782680306e-05,-8.273406258645567e-05,-3.4755759252134764e-05,6.307329463984015e-05,7.444973136217714e-05,3.1604385935875866e-05,-8.91272059063456e-06,-2.1634197109354764e-05,-2.5744288048243436e-05,-5.5274721105612566e-05,5.020394835022447e-05,2.7710806767518135e-05,-3.48861118485199e-05,2.911975715875819e-05,3.144438216295094e-05,-1.790488007180732e-05,3.601384102397031e-05,4.05472603623271e-06,3.37718193160106e-05,1.3775685492565708e-05,-6.334872875213702e-05,-3.210853994365501e-05,-7.217613360526575e-06,-2.3471722496061316e-05,1.9883678276724902e-05,4.4725418103420466e-05,3.1531621770574094e-05,-8.311761664802192e-05,5.1598994473971653e-05,0.00013102012450848333,-4.856409758676957e-05,5.62802535829237e-06,-4.420358450694891e-06,0.00011492295389797594,-4.241648135194189e-05,-9.435922603340236e-06,8.074721371889353e-05,-1.4708558380252004e-06,0.00013629606827244244,-3.7042995740769735e-06,4.617629487627303e-05,-6.471779560972742e-05,-0.0001117294349898291,4.443517838521699e-05,-5.358357067198326e-05,8.218883776611145e-05,-3.790886024529335e-05,4.2968016093560145e-05,4.283531669565303e-06,5.5923526124032185e-05,-3.187338291901182e-05,-5.810259371002579e-05,4.2973422371084204e-05,-3.7442145765730905e-05,8.748316679982996e-06,-2.828443340635771e-05,8.453010559577123e-05,-7.898877685555305e-05,1.6539925041690212e-05,9.923166857190203e-06,-5.277706421264512e-05,3.5392429858881335e-05,-2.7578549836890505e-05,-0.00012502942766842208,-4.041765115806453e-05,-9.049103021383966e-05,-3.668970546449715e-05,1.8323928034357475e-05,-2.605992720976636e-05},{7.887940690327097e-05,-4.2922877874840774e-05,4.0305072866186576e-05,-2.163268449360128e-06,1.585168895760061e-05,4.65320366525352e-05,4.8075435795471044e-06,-4.35765611551432e-05,-1.2883217601772349e-05,6.828187877978487e-06,-0.00010647715808668304,2.057190205322686e-05,8.110482665189148e-06,5.140603770824738e-05,5.868887124180747e-05,1.8235952786746534e-05,-4.333773135820181e-05,4.485376430221948e-05,-6.257367228841508e-05,-9.24280360661252e-05,-5.989816457138934e-05,-3.962472897423933e-06,1.70796351603643e-05,-4.3894612849090334e-05,7.0165539048047376e-06,2.836112934681086e-05,-2.3169895468857395e-05,-4.863930594933766e-05,9.019935045259556e-06,1.638950162554026e-05,8.77818727386004e-05,-3.3304710754260977e-06,-6.893555638235028e-05,-3.585168522161142e-05,6.25674916754503e-05,5.754087363831632e-05,3.926979127255041e-05,1.0446390773895503e-05,-4.1443544363385175e-05,-1.0099214621368131e-07,-7.981167137935868e-05,6.582864691258598e-05,1.653539863878315e-05,-4.086044064595669e-05,1.1035342477729693e-05,4.3105597427520676e-06,8.249312062450789e-06,2.3893833988740673e-05,5.4368277752704786e-05,2.7297018502385828e-05,3.4522402147582886e-05,-9.654750896074091e-05,-1.718304541918254e-05,-3.703538656597146e-05,-5.26704581583509e-05,3.039838393850416e-05,4.316998039572479e-05,5.103927431680685e-05,-8.455538808447361e-05,5.320512820461794e-05,0.0001195988033091736,-6.174808734595641e-05,9.857999996875373e-06,2.093543505233283e-05,0.00012913888328335642,