
float W1[DIN+1][H] = {{-3.7179504562980494e-06,-1.4383238569666468e-05,-1.0196984666291577e-05,-3.698432735015243e-06,5.525291004522963e-06,-1.5373778309352304e-05,7.852439776281935e-06,2.2367156806608227e-06,2.3326652132224804e-05,7.128865761743156e-06,-6.197058849785772e-06,-5.598219332032448e-06,7.137715966711221e-07,3.656808765906421e-06,-2.1881679147361636e-07,1.924367821173752e-05,-1.9277351552784743e-06,1.2307266642494511e-05,1.7107708759900974e-06,-1.2460138589720825e-05,-2.596748675411709e-06,1.3971105656461137e-05,-6.511370389870052e-06,1.1675571699597328e-05,-8.069689342667399e-06,8.877633836547262e-06,9.490639955143288e-06,-1.3900045480942027e-05,1.4976059331543373e-06,3.077898857956539e-06,-1.0603607289457113e-06,8.270413672009374e-06,1.3044412727419572e-05,1.647890187796929e-05,-1.8380108494837516e-06,3.12262610778996e-06,-1.0656457580544028e-05,1.2470380283455953e-05,2.356005896812067e-05,-1.3168043579948396e-05,2.2096825556538038e-05,-2.760180570862524e-06,-6.835144372320099e-06,2.7448569982378404e-07,6.849393294038477e-06,7.736157967108263e-06,-4.012261223619413e-06,-1.4020054604378544e-06,-3.716858906445173e-06,2.8170657312753996e-06,6.1296849818807216e-06,1.3164270341380215e-06,1.8063933354213354e-06,7.565356934771614e-06,1.19894126415044e-07,1.9860118286715336e-07,-3.74650026628582e-06,8.396177308289122e-06,9.164877056795647e-07,4.464417107515716e-06,-7.084760140734796e-06,1.61568370630613e-05,4.974514894250416e-06,1.1441756639900052e-06,2.6822699678836304e-06,2.6745258251504673e-05,-1.0715187881183315e-05,3.084628691874139e-07,2.543957554871826e-05,1.275160676004059e-05,6.936740992638925e-06,1.7025728148360315e-06,2.1466438913998673e-05,1.9020975515631244e-05,-1.3836138677057221e-05,-1.8857620368088564e-05,-1.3263667700983933e-05,-1.826934152398078e-06,-6.7560744872907024e-06,-9.864894043887855e-06,1.3359101180595818e-05,-3.17006954116711e-05,-5.700396024957408e-07,-1.6905587641004838e-05,1.3700493372437049e-05,-8.856149959563275e-07,-4.222230179749522e-06,2.2670826279347516e-05,2.8256303203508804e-05,1.7939310127060567e-05,-3.198871571284553e-06,-4.902627034247436e-06,1.0313769385969929e-05,-1.7961023733583027e-05,-9.132592918121642e-06,-3.5051672500582046e-06,4.5512437887417407e-07,-6.997638957028927e-06,9.447843352032375e-06,-8.354770726791307e-06,5.977672393482872e-06,-4.840686774002373e-06,8.286483870367795e-06,3.7410122996525018e-06,-9.62952563230922e-06,1.2020601199258828e-06,5.730590960114378e-06,8.603638437218992e-06,6.223579343927392e-07,-3.944471229636484e-06,1.6429142267937392e-05,6.659701304860409e-06,-9.152277961859096e-06,1.944366506543138e-05,6.925182890977658e-06,-1.1910041657548894e-05,5.381937786935319e-06,5.574376586542539e-06,4.270254253130029e-06,1.5682216548604835e-06,2.3762625475568587e-06,-1.9120241089048796e-05,-1.5072015885412066e-06,-5.776753779509739e-06,-1.2728162213551418e-05,4.79512536722493e-07,-2.277811043243152e-07,-1.0706614135689784e-05,2.452840185212557e-05,-1.2730726442034267e-05,1.6993200214766642e-05,-2.28127820679345e-05,-9.751654924228195e-06,3.7131151331309494e-06,-3.4921308791510834e-06,8.795168473321571e-06,4.259409769065323e-06,-1.0521035547542928e-05,-6.408941994689395e-06,1.1195183361740663e-05,-1.2413787091634903e-05,8.926027783459126e-06,8.447185012427757e-06,-8.501527303956623e-06,-1.5414256297091106e-05,-5.263883160818624e-06,-8.451527033117702e-06,-1.0277272208321025e-05,-2.971527900750996e-06,1.1087439964703598e-05,-1.3695293597349298e-05,-9.527990189018613e-07,-1.1086788639723469e-05,-1.6089091499171427e-05,-1.014263564076294e-05,1.0866305738496263e-05,6.73669332174008e-06,1.8188946669056553e-05,-9.474089551564436e-06,-5.238735561801702e-06,1.5492368300376494e-05,4.4216367633859436e-07,1.5510485305334113e-06,8.296235711055653e-07,-7.972326324834736e-06,-7.279180798326843e-06,4.911095906573233e-06,6.4169556088762256e-06,-9.353036974203198e-06,7.326463509597128e-06,-5.329023634131358e-06,-4.501309292144643e-06,2.07636673478434e-06,-3.2084224337158064e-06,9.273860083808538e-06,3.591114391022784e-06,-7.729691989979154e-06,3.958345007830491e-06,-3.968189982863246e-06,-2.757945326119778e-06,-6.77958794438315e-06,-5.415971949529688e-06,2.048071199053633e-06,-1.1388379997269975e-07,3.459000629395013e-06,2.2582570201249204e-06,1.3420599514626225e-05,4.670179753673213e-06,-8.795383293102947e-06,-1.5003049995381331e-05,8.441759691063184e-06,-1.3573153912986318e-06,4.453680091877471e-06,2.5591886405920014e-06,-2.4311090613263055e-07,1.8367283108868382e-07,-2.5563004836827028e-06,-6.377285751832182e-06,1.871200792030435e-05,-5.155399918486519e-06},{-7.950654353886883e-06,-3.86122344680315e-06,8.172744516137511e-06,7.252176555398566e-07,5.6444543728829505e-06,-2.698247333297018e-06,-1.2136531347562242e-06,1.773305090452408e-05,2.21095328565935e-05,-9.150180085687098e-06,-1.8831427804884965e-05,4.030904522981004e-06,-8.174904639549728e-06,2.4523224890150877e-06,-7.376718341406063e-06,1.4643767522085239e-05,6.992938810161388e-06,1.3146520054052645e-05,-1.4931495395405116e-05,1.3341659118541152e-06,1.1817992661930825e-05,-1.4674637286035758e-06,-2.8947012231242616e-05,1.7855035809358579e-06,1.4681009298581097e-06,9.923261461625765e-06,5.522297946434813e-06,4.817157560709608e-06,1.1980973506028544e-05,-1.2805541156281346e-05,8.04974799024073e-06,8.475500157789962e-06,1.2504534981614775e-05,-7.353138231134029e-07,-1.0043967908196108e-06,2.552329243676722e-06,8.675312667921104e-06,-5.8579682747634236e-06,-1.0547860343132161e-05,-8.014739030782085e-06,5.984179154620043e-06,-3.6037327114061223e-07,-9.20880856023973e-06,1.7557965463476975e-05,8.891443321014269e-06,1.3199471150703364e-05,-1.0632828548257927e-05,-9.255665905391115e-06,2.7796690413189397e-06,2.979777065315068e-06,5.321534626306279e-08,2.3484361037978482e-05,-9.279416502444762e-06,6.370626760857284e-06,-9.112931930444151e-06,3.245106786911055e-05,3.016777591426116e-06,-4.7010918367968134e-06,-1.7086647565951843e-06,-1.4493320902915494e-05,-2.290822558025415e-06,-1.0623690307322307e-05,-1.5609999595909964e-05,-8.988331299058983e-07,-1.2611946470133252e-05,-2.042179757721956e-06,1.6673392266790777e-05,-1.1489844663849043e-05,1.3967716702482705e-05,-3.7878975886703477e-06,-4.285885360384395e-06,5.57159450048539e-06,2.5781541386680663e-06,-2.224612460033653e-06,3.0320512927057907e-06,-1.9149135711531188e-05,1.807198848129069e-06,-1.002168379059938e-05,-1.6415931476990214e-05,1.8939970531670797e-05,-5.2394545607598435e-06,3.7519737651409576e-06,7.496030324675794e-06,-1.8390633730355534e-07,-1.7905307286432633e-05,-3.4135315540855096e-06,-1.1102954723544222e-06,-7.0166776446825865e-06,-2.8302921932950068e-05,1.7653248757655166e-05,-1.6300569517910645e-05,-1.1012620143440698e-07,-1.5950671296497101e-06,-7.683803287442966e-06,-8.72559808827639e-06,2.3436103991363566e-05,1.018419273576201e-05,-2.2951570593527852e-06,-2.018156879470169e-05,1.8854417637448318e-06,3.564092660562512e-06,-3.731015135813194e-06,-7.86521113336945e-06,-7.202453173671583e-06,-1.4890831110373871e-05,-4.602914205650921e-06,-7.26250412698742e-07,-3.7587551570980747e-06,-3.0098188708298086e-06,1.425465471591027e-05,-9.576731741462763e-07,1.1456639044563394e-05,4.686949521884171e-07,4.897140318196339e-06,9.035664819558731e-06,1.3379337299137517e-05,-5.2509915325253565e-06,-2.7937806220059738e-05,-2.9521675445787445e-06,-3.019178799897644e-06,-1.714988549493641e-05,1.124955811716472e-05,1.1051762745265096e-05,3.991673075752089e-07,-6.031582422018065e-07,-4.61746031212002e-07,-1.4177223972792304e-06,6.8986122951551075e-06,4.987160211854436e-06,1.354164070345157e-06,2.6792073737851657e-06,-2.0817145170640117e-05,-1.981995955950018e-05,-1.2480044212367447e-06,1.0654062982970981e-05,-1.711248306880617e-05,-1.2529865895456041e-05,3.4306432071428266e-06,-1.4673786390520822e-06,-7.101678028183537e-06,-3.0915146516791344e-06,-8.877394365968988e-06,5.591735981693599e-06,-1.1734870797693559e-05,-1.0572688383650526e-05,-7.899057513331158e-06,1.7032173486282173e-05,-1.2302440389393388e-05,6.61001940859159e-06,8.414759724312187e-06,1.7781265963083962e-05,1.6135752317599938e-05,9.457763424689264e-06,-1.3794974946689121e-05,-3.496478139563059e-06,5.947029274922278e-06,-1.8435783451306043e-05,-6.36835731935408e-06,1.7810079480931599e-06,-1.1739637707607336e-06,6.5979203953331494e-06,-2.2312899949125197e-06,-8.069461511023331e-07,1.288573779768682e-06,4.017226099168569e-06,7.970781854022522e-07,-1.5909544231135723e-05,4.227902557034795e-06,-2.2657835286287516e-06,6.947617785595139e-06,3.3298336542320923e-06,-1.1128520274608524e-05,-1.3834762219129261e-05,-7.658310402854777e-06,5.4682662379520075e-06,1.029060153332932e-05,-1.7025650430642442e-05,-3.5157350538180514e-06,-1.6281179517194152e-05,-6.129508371178261e-06,6.099840893959379e-06,-6.492041808874232e-06,-1.3403176328475401e-05,3.7581464584438104e-06,1.613928353791553e-05,3.7828931269595486e-06,-1.628729073806435e-06,1.617474427844777e-06,-2.1203697948714465e-06,-3.0038665805255205e-06,-7.829012596518234e-07,-6.532002832420222e-06,1.1917841363695571e-05,1.1145416392505849e-05,7.318445689322873e-06,8.759844265702088e-06,1.2190381762364771e-05,-6.1604530964801676e-06,1.438437882690076e-05,4.869474342040037e-06},{-3.828792436810162e-06,-5.606134084192755e-06,1.5679814262524923e-05,1.8463647215487627e-05,-1.5002965978599637e-05,9.877521555619597e-06,-5.251081088594051e-06,2.2097391745914467e-05,2.734932823264898e-06,1.1330892759599975e-06,1.1112233121436778e-05,-1.040050788537658e-05,6.890601521752421e-07,-1.1013776172918287e-05,-6.257285912724073e-06,6.652884543094957e-07,6.041428761818388e-06,-5.387304698834184e-06,2.6849060588480386e-07,6.555301918756939e-06,-1.562407360207253e-05,1.0677844279641934e-06,-4.072323870236771e-07,-2.735200820586731e-06,7.818745058027274e-06,9.339449336888439e-06,-1.612211172991445e-05,-2.176830188940802e-06,-9.557019418322797e-06,-2.0339655853912953e-06,1.476821868210915e-05,3.90324739659985e-06,-7.872405156741807e-06,-1.0758164846236026e-06,9.807443048626303e-06,5.481936972063569e-06,-8.47675399367664e-06,-1.6625268733798975e-05,-2.3920030296046926e-06,-2.7516556790999076e-06,1.173236007772457e-05,1.1694764895584954e-05,1.4194087854420894e-05,-3.358940797241121e-06,-3.944563625514407e-07,6.346999951600148e-06,-1.2672916769199623e-06,3.8075166127291396e-06,-1.1013097338781916e-05,7.29896896845961e-07,1.9283726170492978e-05,-6.467097291090809e-07,3.302769348292948e-06,-2.736741082777208e-06,-1.590158174546269e-05,-7.456345009214102e-06,4.935361463865726e-06,-7.4972186953886e-06,-1.2280928885653246e-05,3.483754779954845e-06,7.4903198220194845e-06,8.996991284665045e-06,-1.0530662465135026e-05,-8.303742140658573e-07,-1.1479190572369308e-05,-9.337496067917413e-06,-1.4308369617467797e-06,-2.974822730030828e-06,3.927971469352298e-06,6.686249520047861e-06,-7.964871441011956e-06,1.1161838156802486e-05,-8.335376706076518e-06,-1.3761561805140474e-05,7.094240248358872e-06,-7.482624414018953e-07,2.4012545223331493e-06,6.241987907834468e-06,-4.630114464742022e-06,-4.00381079421495e-06,4.133206534791875e-06,8.059243993234225e-06,1.0082197861567684e-06,-2.699014688543221e-06,-7.47089371072148e-06,-1.216679956476633e-05,2.0098886554069507e-06,-1.8056049493702514e-06,2.0111670072269343e-05,-6.87193422694118e-07,2.8293798080303816e-07,1.3307182118814182e-05,1.4432424081644879e-05,-3.1222276289271477e-06,-7.6113461492144085e-06,3.085810840975281e-06,1.2727029910618631e-05,-1.740463775196384e-05,1.0115943020162474e-05,-2.9887628808579317e-05,-8.860751464014595e-06,2.106779211370965e-05,1.6644331097247775e-06,1.2572161002944342e-05,-7.938333525086861e-06,-2.1941713159413785e-05,-5.792560302650951e-06,-1.5276216188758321e-06,6.345830613790131e-06,8.991978166811014e-06,5.047743927665334e-06,1.2168783204006954e-06,1.3770719302461075e-05,-6.095328338384471e-06,3.5263957696855123e-06,1.6218478206801235e-06,1.4243738518028306e-05,1.8837877441524283e-06,-8.68865093642897e-06,1.543706884284308e-05,2.539984175008734e-06,1.3418973708483896e-05,-1.1909189251852176e-05,-5.482475070252524e-06,7.659669215110338e-06,1.2184881766247845e-05,3.369250404593557e-06,1.7962967641487403e-05,-3.619413795821724e-06,1.199723436236049e-05,-4.6254605636165055e-06,1.7034816980504827e-05,-8.905141753797631e-06,-1.138867789305097e-05,-6.2924102811155595e-06,-2.2312360146768652e-05,-5.698408530256298e-06,-1.8393417768857382e-05,1.3498567163105482e-05,8.28030825570995e-06,1.4353446875813192e-05,2.565998483334957e-05,-4.50646164396229e-06,-1.757152258846572e-06,5.662967507560195e-06,-1.1744338463279034e-05,-7.87653516174476e-06,8.882128624241892e-06,4.984988080891128e-06,2.8580476634495354e-06,6.075915087145875e-06,8.15046247670794e-06,-8.599561059315044e-06,-6.643889760266759e-07,5.634036098195947e-06,9.103077343857738e-06,-6.548383049336774e-06,-2.6833967421448776e-07,1.8662733762228938e-06,5.743341187328722e-06,-4.425289483428869e-06,5.189663245361756e-06,-1.0799221172779411e-05,1.6525606670205099e-07,-8.003809907948882e-07,1.8953574125172293e-05,-4.721015159629579e-06,-2.0127928689444383e-05,1.3739995961681888e-05,5.460660244755392e-06,1.4841278782087471e-05,2.200075408538497e-05,-7.990574645729338e-06,-1.1882111022440523e-05,-4.353837564806464e-07,-2.6827931231345166e-06,3.386048778344135e-06,1.9200716329449814e-06,-1.4704572475812281e-05,-1.3274044226203036e-05,-1.4591007178855415e-05,1.1493612956721768e-05,6.743904207773906e-06,1.5331276766683644e-05,2.0378886832257793e-06,-2.8136097235422606e-07,2.4291978435531518e-06,-1.6419623079684707e-05,-6.4116537782406884e-06,-2.2915670479970376e-06,1.218502102974987e-05,1.3723113526783745e-05,2.616409788393258e-06,-1.0093820577721798e-05,7.233082121812898e-07,-2.020460657064424e-05,7.430654922498209e-06,1.56641984664551e-06,3.102780278778592e-06,-1.4986643639466501e-05},{8.710251936295105e-06,7.589025870311818e-06,-1.8185479711071755e-05,8.405840353698937e-06,-1.7827876906279398e-06,-5.237207662013933e-06,-2.091338271626345e-05,-3.070838918885218e-06,-1.4369162789627489e-05,8.014816217665377e-06,-1.035603378449441e-06,-3.6887598999914305e-06,-1.1714940140396461e-05,1.5229768875259628e-06,1.3657632353676946e-05,5.7053345032976784e-06,-2.1092724345318596e-05,1.753853195505391e-05,9.253325821809324e-06,-6.365110332898345e-06,-1.5512602786389987e-06,-2.5897283599157024e-06,4.5882797675057335e-06,-6.825344270812408e-07,-8.582094658114705e-06,-6.670140851219742e-06,-9.549638849740959e-06,-4.240303126233416e-06,-3.902746766849343e-06,3.99821824815372e-06,1.0892554915574315e-05,1.066789746269245e-05,-2.4014488538733465e-06,1.7569833904433384e-05,7.462095967408984e-06,4.992300946179291e-06,-1.958016866528552e-05,-3.055654924231896e-06,-1.527114252988682e-05,-1.3576410319334577e-05,-6.129791926120106e-06,-6.084470661253066e-07,3.877093056304173e-06,1.5407161709400817e-05,-8.062552153411924e-06,2.3077907130488423e-06,2.1849341803264515e-06,-4.122062492263046e-06,-2.832376860136263e-06,-6.353898995446161e-06,9.533595527185994e-06,5.05043267389507e-06,-1.4837961664535686e-05,5.3060950970338375e-06,-1.1410325507311344e-05,-6.750689184326993e-06,-2.670362751136124e-07,-1.7938929966549338e-05,-9.474760544590875e-06,1.9966544743138924e-07,-6.790958838682893e-06,-1.5016820058187985e-07,-1.1434530422067388e-06,-1.804186883348223e-05,6.431048849156391e-06,-2.28936173683532e-07,6.7832152730022924e-06,1.2692782411897797e-06,1.1363113218797543e-05,7.112571252417297e-06,-2.425189759593037e-07,6.585814468710674e-06,-5.888944029939247e-07,3.034594052268443e-06,-8.71959027523269e-06,2.1437056104294835e-06,-1.1304305602856295e-05,1.400620557867811e-06,9.376141058854052e-06,-1.0086056888657737e-05,-2.634255842010681e-06,-2.3944151623242715e-05,-9.821064467884855e-06,9.814507062125726e-06,5.737540984085152e-06,1.2095801647243765e-05,-2.312249364624935e-05,-6.640192744385748e-07,-3.828189560701789e-06,-3.6626393052838637e-06,2.4700494769811923e-06,1.3727654220844227e-05,-1.7108665439044839e-06,2.046583817211537e-06,3.288651662284352e-06,-5.717036356543576e-06,-4.59826969199806e-06,-1.3252518346649809e-05,-1.3275704804973463e-05,4.490156330887824e-06,4.357494532203509e-06,5.802329704487065e-07,-9.352212983056341e-06,-1.5180622065451925e-05,3.2751923139640014e-06,-2.5410442120969986e-06,-5.309297831772369e-06,-8.845121890097254e-06,2.1481580878302994e-05,3.471708485709162e-06,-1.8350653575647828e-05,4.09528682797273e-06,2.3880331831690615e-06,-7.807309321241547e-06,8.629217448236197e-06,-6.858173605417398e-06,-1.125099035417298e-06,-5.712479691094679e-06,1.969750689079109e-06,-1.965967960495135e-05,-1.8841305646293178e-05,-2.906372958231201e-06,4.552160869700666e-06,7.206358118569662e-06,1.162055461857054e-06,-2.5319869012365004e-06,-1.212682593080312e-05,-2.079944364319114e-06,1.4215831388452828e-05,1.0345215975482581e-05,-1.655128059441181e-05,9.412456070002948e-06,1.0189018028472412e-06,-1.1890087519232982e-06,2.8554145848638516e-07,-3.95429498153837e-06,-5.094136597742088e-06,2.5176853077352955e-06,5.601597596111072e-06,7.015308530936936e-06,-6.236544491693134e-07,-9.191778284315423e-06,-2.9294108720847096e-06,1.3593762579988929e-05,-4.146627590198861e-06,-1.001819545223426e-05,2.106516295483415e-05,-5.450091679057011e-06,-1.5349371368607583e-05,8.27221934196766e-06,2.135351918490831e-06,1.7494965492098135e-05,2.461265644247979e-06,-4.428308759932788e-06,1.5672412684124932e-05,1.326509953531544e-06,-2.011269392301836e-06,-1.4723442825352709e-05,7.846035102332063e-06,-3.4111210673242913e-06,-4.57119400721039e-06,8.161715455560663e-06,6.640453254117702e-06,-1.3057103497303449e-05,5.422312246810318e-07,9.366193347766986e-06,-2.739065954551324e-07,-1.1301215994326195e-05,7.401435120455054e-06,7.926732722164952e-06,2.1728533815563043e-06,6.911866821509121e-06,-9.599785175088232e-06,1.3462791961308037e-05,-2.0484338316747666e-05,5.75589196024698e-07,5.922266074412294e-06,6.819786861134236e-06,-3.986697240802216e-07,-2.0484279095970177e-06,-1.53367643114588e-06,1.4609623063011463e-05,-8.98751985434444e-06,6.682329443631353e-06,-1.851056046333017e-06,4.929207656611374e-06,-5.939407027981417e-06,3.2082022790081327e-06,-9.432091992963174e-06,1.2265989585023923e-05,-9.2673550790193e-06,2.3848741382831845e-06,-9.429677133989485e-06,7.331601014518841e-06,1.281771586225306e-05,7.12163432642358e-06,-1.6936737644701673e-05,-1.1582958200776225e-05,1.1818087625625337e-05,-5.511350238524757e-06},{2.111126860015521e-05,5.45068604178329e-06,4.9393714049643814e-06,5.948530638760977e-06,-8.729466635251341e-06,-2.1516728432350156e-06,-6.870488078690218e-06,-1.3861583090895485e-05,-4.920331648740389e-06,1.1477944731263826e-05,3.39685471095275e-06,-6.0561135505517765e-06,1.2974428282750998e-06,3.882122425211172e-06,8.453367966426628e-06,1.7715363743635081e-06,-6.780703478053706e-06,6.698255912062951e-06,1.0658059208503064e-05,-2.647736179993395e-06,-1.1463991873850925e-05,2.703017069475393e-06,-1.8126891727080542e-06,-4.925146814294351e-06,-1.519863761502948e-05,1.630280621336143e-05,1.2338829927893e-05,-1.2943951611033447e-05,2.50647699845176e-06,-8.200298106089497e-06,-4.698243120739653e-07,6.792072852831469e-06,2.487895475659164e-06,1.652487490266389e-05,6.8313805753505885e-06,-1.033981669666343e-05,-6.776447727313157e-06,1.0079865206646038e-05,-1.2030059931522071e-05,1.384708482256686e-05,-1.0236045563507052e-05,8.525838688491893e-07,1.5306150810945938e-05,2.5332490510714903e-06,-4.0056560930378604e-07,-2.9907718873806613e-06,-2.166020244422968e-06,-5.0767206476232495e-06,-2.09549641217701e-05,-9.28329563347361e-06,-5.098502059563002e-06,-6.493952002687477e-07,5.210665610358299e-06,-3.2390652658045134e-07,-3.7985137502844424e-06,-7.956274663213628e-07,6.7390665722745105e-06,5.123684035862415e-06,2.181430310899666e-05,2.466636925179302e-06,-7.2642308054943815e-06,1.3609843747765589e-05,7.06183066685559e-06,9.103534569310054e-06,-1.1839312179512217e-05,8.708604976866762e-07,-9.342180873045814e-06,-8.515062916932083e-06,-2.817092094528334e-06,-8.465758823487877e-06,-7.890232643394745e-06,3.5884788631360315e-06,-6.360697319789823e-06,7.475596985226888e-06,1.2390914145588977e-05,2.8206596565994907e-06,-1.1595604877819655e-07,-8.961883500993839e-06,-1.0346891978522711e-06,-4.9882639070114246e-06,9.916865208425878e-06,1.4244186341203907e-05,-2.1116698717037223e-06,-1.0412746519767467e-06,2.403738689837682e-05,1.0653188962332778e-05,-1.156422746275836e-05,-9.677018674692742e-06,1.1710547807283686e-05,4.597141257997911e-06,9.692091859249636e-06,-1.371282124374898e-05,1.1071954882363534e-05,-7.800503290771814e-06,1.9505189180793783e-05,-3.4047219766456745e-06,1.1714246529267378e-05,1.5588344952551967e-06,-3.143187286878717e-05,1.2370996540583828e-05,8.132134678372768e-06,-1.914556792395663e-06,-2.15074739433768e-05,1.2950492116765547e-05,6.976807508430929e-07,-2.4956281753828205e-06,3.10344788905318e-06,-1.1713055216918073e-05,-7.520478985167529e-06,-7.765120461229709e-06,1.2703989964192785e-05,-1.0586445333084542e-06,2.445381462342666e-06,5.046638801938395e-06,-7.81747232991833e-06,1.5717145671572988e-05,2.785968737814954e-06,7.671795504908022e-06,1.5004469371179855e-05,1.5076893373762767e-05,-2.0891456239978404e-06,8.043354000935013e-06,2.6684387119239724e-06,1.1794006973433418e-05,1.4402209631948096e-05,6.387057768976609e-06,-8.639824618064785e-06,-1.0415183455642997e-05,1.4488178193587055e-05,-6.22013542182441e-06,-1.1798187656571885e-05,-1.0146448878031322e-05,8.274101032656047e-07,-2.2448616442240983e-06,-8.319479681365039e-06,-5.703670786126796e-07,1.2396963220117851e-05,-2.411138820641547e-06,6.28535769803476e-06,1.0058061516720636e-05,1.5872237281241005e-05,1.2453097327542295e-05,-1.4756173010818576e-05,6.434517034084031e-06,-8.294507157028462e-06,-2.0268047527842887e-05,3.6440660844453748e-06,-6.032777585864016e-06,-7.654280749604381e-06,4.502627477063128e-06,1.7196688233589862e-05,-5.725599629411926e-06,-1.1946105600034107e-06,1.1457294360560035e-05,-5.0174152245042546e-06,-1.794105117363474e-06,7.102903072118189e-06,-6.51597335356051e-06,1.2759111846564904e-05,5.939896547986043e-06,8.10618744668612e-06,5.950823989220836e-06,-7.675812540851042e-06,1.1391351459781242e-05,-4.936525606522726e-07,7.44457585811287e-07,-1.3585694771591876e-05,-2.2775653217419262e-06,7.183244904138427e-06,-9.382814339181405e-06,8.274156057240526e-06,-1.950042065689129e-05,-1.0271854660609132e-06,-5.565020101127106e-06,6.002175482700501e-06,1.4871411394228774e-05,8.62127416855721e-06,6.886875809349863e-06,3.523401456271428e-06,-8.320097191114069e-06,-2.4154211879800884e-05,3.620857539484854e-06,-1.5648882820077526e-06,-1.395074326283325e-05,5.528921632371757e-06,1.1547585293102799e-05,-5.848208200115986e-06,1.6710910858357726e-06,1.7260723683142587e-05,-4.760678041850942e-06,1.0739893782828986e-05,1.3338987499803454e-06,-4.044425621103385e-06,8.812716705757182e-07,3.889359456360629e-06,2.071041635901409e-06,-1.1886799445210211e-07,-1.541885023992089e-05,-8.040162210766775e-06,-1.0234347323508007e-05},{-4.031428908955364e-06,2.0417204821079186e-05,7.990556633299115e-06,5.4706790820940276e-06,-1.2724176271998624e-05,3.488816341857604e-06,1.107608587783527e-05,-1.748455728440296e-05,-1.0036899668933358e-05,1.1318777611477094e-05,-4.3042990653946055e-06,1.5923454821030453e-07,-1.08395130433204e-05,-5.1230846983655924e-06,-1.5995042391423226e-06,-5.5177427522659664e-06,-6.2945120167846354e-06,-8.499256401527947e-06,-6.558861639122097e-06,-1.4312797118821961e-05,1.139847786166102e-05,-1.2081259499453687e-05,-3.988635451016859e-06,-1.3259264534407935e-05,1.3931619021733779e-05,-1.9816991001756498e-06,-3.2117161100738057e-06,4.803729365568736e-06,1.802228794021645e-06,-5.072534760900209e-06,2.7470890097090045e-06,-9.109740225579302e-06,-1.430293485357941e-06,-3.5490272167641214e-06,1.1376839599706887e-05,-7.674122747541325e-06,-1.4436428082556584e-05,1.369645435574605e-06,-8.1959927644111e-06,5.7565184972707316e-06,-5.190447326416907e-06,-6.0183224616222445e-06,-1.0657955378241215e-05,4.015701929570606e-06,-5.154601498594336e-07,-1.4577048264914487e-06,5.512715603678746e-06,4.072533409103217e-06,-1.963207519801309e-05,-1.814155414303675e-05,1.116280377199275e-05,1.0348374926702421e-05,-3.3336974134532835e-06,1.7080732680671814e-06,1.0320616705089412e-05,3.002874161181254e-06,6.178694664627078e-06,-1.0598619366667057e-05,9.250848216030242e-06,1.2921848005837113e-05,1.1246037050520098e-05,6.834277346200243e-06,-7.027972774524237e-06,9.014199289769044e-06,-1.139370204132117e-06,-5.779365659792459e-06,1.4151832904690097e-07,-1.2723573020830315e-05,-6.246724358045987e-06,-3.94440423443468e-06,2.0290041173435904e-06,1.4496301697295513e-05,1.256773467790176e-05,5.132918448680104e-06,2.4946666509233014e-06,-5.419998186646399e-06,1.8130175729111747e-05,1.9375773163148976e-05,-8.939748251857222e-06,-7.255533858378528e-06,-2.634886513565822e-06,-1.965387748604921e-06,6.428268999698415e-06,1.5880279834581648e-05,-1.998916004619029e-05,1.356908234910522e-05,2.5782116169472326e-06,4.785648913151839e-06,-7.58147325427607e-06,1.3453456880668153e-05,-1.1422520719793366e-05,-6.805868917834628e-06,-1.5091742876713668e-05,-1.5831132103699567e-06,2.237744526426785e-06,5.696057961639677e-06,-2.0302591055069713e-06,-1.9311279217495555e-05,7.239778409294888e-06,-3.1189281003997064e-07,-1.2815752268936912e-05,-5.754085030091595e-06,-7.5934640150955206e-06,-1.8532892042977917e-06,-1.0305350939801867e-05,1.3643285918484767e-05,-1.7819221121408815e-05,-1.2697515402357859e-06,5.111892627930906e-06,-4.202269878695194e-06,1.6583753295699212e-05,-1.9557989369543172e-06,-4.95274843494453e-06,8.610932955176105e-06,-6.4069692569073935e-06,8.209515877629139e-06,9.446195386139365e-06,1.806907710107667e-05,4.832405673072912e-06,-8.687599073037081e-07,9.113292094680194e-06,2.0896714624945937e-06,1.0049756121173338e-05,-2.9807012756785656e-07,-2.838188541839324e-06,-7.988491017484696e-08,-4.016310135176679e-07,6.947868061411303e-06,-2.426517013645857e-06,-2.888120195949623e-06,-2.120282996932481e-05,-2.3418378084411607e-06,-8.597024890465339e-06,-2.8355512699101832e-06,6.857324938020481e-06,5.549334281296716e-06,-7.227454844052933e-06,-1.2017586863032987e-06,-5.884912984033993e-06,2.573842646565326e-06,3.167347785387301e-06,9.985360383747863e-06,4.7132522084984845e-06,9.368941981864302e-06,5.126777253012493e-06,-7.157031642547138e-06,7.314788782999119e-06,1.139467043560344e-05,7.162148269911419e-06,1.4563299964751504e-06,-1.7343524665875222e-05,1.1942569995227479e-05,1.0646871503917278e-05,8.6864361384232e-06,1.4274700944279212e-05,-9.268869762215492e-06,-9.340781297918274e-06,3.2398690566771585e-06,-2.9438215754978467e-06,1.2732776231389866e-05,-1.2320849697071866e-05,1.2283841999976934e-05,1.9042278660770015e-05,-1.6457727326157674e-05,-2.371397342348737e-06,1.845204101436079e-05,3.940308661918764e-06,7.109991834866234e-06,4.447530310223018e-06,-5.122042582906423e-06,1.0793922533244517e-05,-4.310705380207926e-06,-1.3317795049302428e-06,-3.0128521078151557e-06,8.061764935399828e-06,-2.338756579434026e-06,2.2095514645964947e-06,-1.0042755451630747e-05,4.580244500766518e-06,7.290228038981803e-06,2.6776328084553786e-05,1.5744740511512668e-05,-2.0612621886297282e-05,-1.6201279786557423e-05,-1.0887194813536343e-05,-5.102240531551719e-06,-1.8191915398874684e-06,5.278631565973055e-06,3.1550191460498065e-06,-6.6410180159540745e-06,-1.251128873113857e-05,-7.550643896204659e-06,-8.052663087585445e-06,3.655539455483112e-06,-1.3561287822184563e-05,-1.416293760187578e-05,-4.256056730692927e-07,-2.6899953754867296e-06,4.5708277540698065e-06,6.723805122691463e-06},{1.3696261093810132e-05,5.7985502069370385e-06,-3.6998590220347565e-06,9.456390308572396e-06,-3.805345413987688e-06,1.0666213940268483e-05,3.1133726745533946e-05,-9.170869607069422e-06,-1.4146134162517704e-05,-3.208737249636735e-06,-2.7288556202000546e-06,-7.133631059478785e-06,6.173197669542331e-06,8.017358636525782e-06,1.0510021347696696e-05,-1.5989070151279156e-05,4.236440775906477e-06,1.6163343947832252e-05,-1.3206789133622297e-05,1.3313903067448168e-05,-9.698910272836307e-06,-2.4957247924534034e-06,1.4092611362524128e-05,-1.1099902481251114e-05,7.035008662038293e-06,9.704718224313508e-06,6.0987024889919885e-06,-3.0781920526481564e-06,-1.3864035371052705e-05,1.146615530456334e-05,1.743767364985206e-05,8.71363578619327e-06,-1.8773380145503856e-05,6.461181591067459e-07,1.168883370767911e-06,2.1414431484975478e-05,1.300997857080987e-05,-1.6925827768300265e-06,-2.490182259670549e-07,-1.4328502800806455e-06,5.352316469890658e-07,8.153439332908103e-06,-3.7686195019172055e-06,-6.2939433107192485e-06,-7.028313243516177e-06,-1.1347182515860334e-05,-2.1675525031970728e-05,-6.433817403700603e-06,7.431899464513851e-06,1.2014699058565175e-05,-8.61699177948979e-06,-3.295719920409937e-06,3.263117197264289e-06,-9.801187744270732e-06,2.046763932121736e-06,-1.249383122323582e-05,5.027314996173444e-06,-2.112240824999276e-06,-1.7952988508359816e-05,6.573377960528186e-06,-9.81500342240693e-06,-4.092014564264462e-06,-2.4914348443708134e-06,-9.271932796174066e-06,8.112173523574685e-06,7.698343069563915e-06,8.7480963213003e-06,8.782212168405422e-06,-7.0844218121194e-06,1.6692479406810937e-05,3.949236812740783e-06,4.37915677709112e-06,-5.785368228156446e-06,-1.9857176100619516e-06,-2.474367908773168e-06,-1.9785207090674148e-06,-3.6377982727566996e-06,-7.72386079677435e-07,-3.5488920175961555e-06,-1.2462593835668636e-05,1.4256859730278085e-06,-7.765712248584594e-07,1.686051082894233e-05,-1.5068923229290836e-07,2.006557041895909e-06,2.8808557938284945e-07,1.215600965261426e-05,-6.359820059202758e-06,-7.003851805784188e-07,-4.887728385569161e-06,1.9138531086499643e-05,3.228659742531125e-06,3.5432027049783018e-06,-1.6765149284569083e-06,-1.2120989017486695e-05,-1.3258071401996199e-05,5.895549956911065e-06,-1.4030564934472844e-06,1.4273672926499903e-05,1.2132869079848877e-05,-9.88954800816381e-08,7.11944352937433e-06,-9.525106925994418e-06,-4.855906438093356e-06,1.5673979922308516e-05,-5.9802284709256834e-06,1.638874072502813e-05,-2.2518076788761886e-05,-7.874740206292417e-06,2.1104349048270427e-06,-1.1373455703014868e-06,2.8472917350616847e-07,1.3201962062992225e-05,1.2267030860211528e-05,-1.081276428558331e-05,4.827016529738953e-06,3.6000390793285724e-06,2.8332218980489037e-06,-2.5799282432277417e-08,-9.155156803259218e-06,-1.1802250552871014e-05,-1.7464668157398242e-07,7.259435899947729e-06,-1.0883994920760314e-05,1.0204135484176178e-06,3.3061754178619453e-06,-8.582398950423644e-06,-1.9171240128225225e-06,-2.920508535404546e-06,1.4256080021276334e-05,-6.916486050260671e-07,-6.94394448628793e-06,-1.095901906880991e-05,7.225434016420861e-07,5.84827931339137e-06,5.254723042134348e-06,-7.303629936710425e-07,-6.438990189872843e-06,3.4509485437923255e-06,4.529850412617805e-07,-8.251630718025936e-06,-8.937500856252695e-06,8.250725640254282e-06,-8.868405163384622e-06,2.0792098378634873e-06,-4.096429202219912e-06,1.0119120129310068e-05,6.471246593848151e-06,-1.001493458977183e-05,-1.286931043303617e-05,1.0532647088324217e-05,1.4581922220073558e-05,-1.0237949028896576e-05,5.52551644067142e-06,-5.167122735720037e-07,-2.6206983168854764e-06,3.3247863120605347e-06,5.900635611801367e-06,2.3026523669657474e-06,1.506580445775325e-06,-1.0438348041744128e-05,-4.559415009863531e-06,-4.677234301005777e-06,3.2234444096062066e-06,4.437897111397012e-06,-3.815462057826454e-06,8.222524055349663e-06,-3.2612587231481714e-07,5.537470345849507e-06,-3.341822286182554e-07,2.8536329376876663e-06,-4.942151449062557e-07,-3.637747462143165e-06,1.644311489680892e-06,1.631097015572097e-06,-1.3628855007118004e-05,-9.293386440815726e-08,1.8879671418965874e-08,1.8387841826423002e-05,1.3265386114731207e-06,3.654671986598233e-06,1.3462400359318662e-06,5.0502786625054555e-06,-3.374905700862141e-06,6.701977068932473e-06,2.77576312746277e-06,2.2267383970166947e-05,1.2418402273908532e-05,-8.881780566289053e-06,5.355706324152829e-06,8.926675390265667e-06,1.3270755747722195e-05,1.7771049617500568e-06,2.5119576934263046e-05,2.7346497791632115e-05,-4.2119793264687856e-06,1.0481543692275883e-05,2.02191247570997e-06,1.5431195377558436e-05,1.4093813761211023e-05},{8.508213042094115e-06,-1.3051032109079763e-05,2.1438437788944938e-05,6.955952116915226e-06,-1.3838239828283147e-06,7.617183987573484e-08,-1.4923048388641727e-05,1.4311370288818553e-05,-5.237794763400934e-06,-4.311642754111771e-06,1.142527936997869e-05,-1.2182205957742827e-05,7.197041874738887e-06,-4.477128241064299e-06,1.2953784854310896e-05,1.0348842987695973e-05,5.4896294175681366e-06,-1.1556200457487133e-05,1.404718127909973e-06,6.7768313808823855e-06,2.270803320666943e-05,-1.221988708005055e-06,9.420607018192148e-06,-7.1079004550629886e-06,1.2068087504695635e-05,1.06742268652129e-05,2.3262239692344086e-06,-9.663437549514092e-06,7.726305959663268e-06,1.831807125825577e-06,-1.1604583605552412e-06,-5.450256206609469e-06,-8.327387025842179e-07,5.637862845215445e-06,2.0844058140682128e-05,-2.9277645789390823e-06,4.9442734538656765e-06,-1.5866564507887433e-05,8.188559568493275e-06,4.9978774415669825e-06,2.4649324259759015e-05,-5.840246125711942e-06,4.830614712406391e-07,5.178428082773714e-06,-1.635986245666766e-05,5.018926762635291e-06,-4.7288587179094364e-07,9.660243343461925e-06,9.886616023863778e-06,-4.937323984982497e-06,1.398132986437432e-07,-1.2470934057270619e-05,-1.8235470810922733e-05,9.250717349207524e-06,3.9550725721635795e-06,5.048261025820284e-06,-1.4577761962619281e-05,6.993761587395548e-06,-2.0790707067236757e-05,-4.0547053252589905e-07,1.1240424370434558e-06,-2.922023841303311e-06,6.227986257805429e-06,-1.369094345161358e-05,-6.779609310145398e-06,5.729568648580044e-06,1.7025215292928702e-06,-6.176576971282912e-06,5.763765323525274e-06,1.2568466926778387e-05,-1.378758189103208e-05,-6.040618301981011e-06,-8.93007788921252e-06,3.4786561921163698e-06,-1.5890234173056148e-05,5.771258892662761e-06,9.773209210173761e-06,-5.975260785304588e-07,-2.7749720493137506e-06,-5.949813481758564e-07,1.3824022925542475e-05,-1.6844156705899222e-06,9.411899606245198e-06,-1.0145499527866335e-05,1.9091109262191195e-06,1.2052803082727901e-05,-2.911376900750984e-06,-6.348270805886638e-06,1.9067080722254726e-05,1.5421983422396493e-06,1.211988356101132e-06,1.8413111384002134e-05,1.1385930457433604e-06,1.66343957146135e-06,6.68525212049173e-06,-1.3585420743055321e-06,2.2298762190723657e-06,-1.8268409330437191e-06,8.154378873510935e-06,1.7207962811680944e-05,-5.430604218803383e-07,-2.1416731777309604e-06,-2.0603644923889577e-05,3.840061378025182e-06,2.1625785998408956e-06,-1.5098229487328065e-05,-6.4034248842020695e-06,-8.187541700508947e-06,-1.8156812386310984e-06,1.6343695346413433e-05,1.0567036839818469e-05,-3.993795635879731e-06,-1.939001714838955e-07,-8.367292008210282e-06,9.091556465074765e-06,1.2092144963799873e-06,3.2290205465480804e-06,-1.4946019902517336e-06,8.018531066666376e-06,3.9116025596026695e-07,1.4837201182609592e-05,8.204623377916162e-06,1.4804029729975901e-05,4.296201240714315e-07,1.6370023132244222e-05,-1.8117487831336033e-07,5.202039785899336e-06,7.007478185135172e-06,4.5872849256984316e-06,-1.732639783693454e-05,1.389307841588196e-06,4.210399692746384e-06,-1.2600982900863542e-05,-5.291416594805331e-06,-2.94587233849075e-06,-3.942086959035102e-06,1.1813200242440492e-05,-6.401911947280436e-07,4.101211935335882e-07,6.0925390974077375e-06,-1.2546902965404527e-05,-6.149578673254864e-06,-8.207468160834672e-06,6.239707286418448e-06,4.03290241755991e-06,3.6305810373630868e-06,2.2468308896031188e-06,-1.970306241633616e-06,5.006882674682483e-06,3.902576694721027e-06,2.6715681461854608e-05,-3.1488088591041934e-06,-3.0681032215135904e-06,6.0274718654238835e-06,9.157057627005775e-06,1.1842085305931768e-05,5.400512686366199e-06,2.335182535695151e-06,-1.990768026952767e-05,-8.946248238285412e-06,7.138493208459665e-07,1.6430059911448195e-05,-2.0972367303835196e-06,1.7222253333827042e-05,5.185657084707318e-06,9.545005180025433e-06,1.2883316717776683e-05,6.817538529660468e-06,8.344494383355253e-06,3.599861104974711e-06,-2.188449841916171e-05,9.19354544922435e-07,5.284163634143902e-06,-1.1051702711701557e-05,-1.3360289336703172e-05,6.099267534565141e-06,-1.1854583146233247e-05,3.462844910963557e-06,6.1660870210250006e-06,1.4788379112243927e-06,1.0441530601114062e-05,-2.055269532404992e-06,5.809138324806053e-06,7.677720545088965e-06,-1.8812746704653333e-06,-1.1191197165380983e-05,1.1823054915540826e-05,-1.3764022881719649e-05,-2.2588359636011114e-05,1.9843222808512816e-05,-6.4673700619415625e-06,8.710853691126724e-06,-2.1934385192550193e-05,-1.776083362647233e-06,-9.399743174091946e-06,-7.747039720333297e-06,-6.169222247778058e-06,-1.072336774712799e-05,-7.075381129531842e-06,-1.7881040938228375e-06},{1.6122047427329773e-05,-2.2822681418961887e-07,-4.826986435614133e-06,-1.2134950042703828e-05,1.7683565212285402e-05,-6.3789683219503125e-06,-1.1781601226789787e-05,-1.533252025432026e-05,6.004219597197059e-07,2.6856498223146387e-06,-3.290628719330163e-06,-6.273093211494289e-06,-5.891004065498702e-06,-4.486773466932539e-06,-9.633417211920562e-06,-1.8518651575197688e-05,2.6197482647131563e-06,1.0277654077804412e-05,3.977584882572418e-06,8.041277030503702e-07,-5.237702829283445e-07,6.342227330145961e-06,1.4209302334116812e-05,-2.199580135141052e-06,7.518496069806999e-06,-2.647797554384927e-07,4.777591914892601e-06,-1.3466771406427482e-05,-1.2250047314485813e-06,1.103373809318401e-05,6.440476475519918e-06,1.0252816008089597e-05,-2.794239432814243e-06,6.965377144317601e-06,8.575003066177857e-06,-4.019925196114832e-06,4.301904829654635e-06,7.43366469357307e-07,-4.1373549644885086e-06,-7.68260642858359e-06,-1.472538985486938e-05,4.415175485717747e-07,2.4182709612502883e-05,1.9352693025306982e-05,-3.9646330310021237e-07,4.245833532876995e-06,-1.7811053858783345e-05,-1.3863017091713191e-05,9.340440561651088e-06,-1.1492971062552096e-05,1.0290399995327282e-05,3.455798483058997e-06,-1.2558045929778394e-06,-2.5612504109905308e-06,4.794288494144451e-06,8.41064032866745e-06,8.362890417951403e-06,-1.6303360478147477e-05,6.607265446914138e-06,-8.106183106067586e-06,-9.038708952626867e-06,3.0473465389857482e-06,8.420737753937684e-06,-1.768193006622961e-05,7.164340900636735e-06,-1.1871378280511214e-05,4.3558070230778165e-06,-1.034926457378578e-05,-5.4122434228440054e-06,1.1987744765893777e-05,-1.8121345066529852e-05,-1.0814847710727647e-05,1.4700025874952995e-05,-3.2052497589307165e-06,6.471791196925108e-07,2.1007598004169064e-06,-1.1305632519934283e-05,-7.408877416128823e-06,2.8814915640011507e-05,-5.110395402369492e-06,5.115107407180349e-08,-9.976392300091823e-06,3.1061156111831554e-06,2.7235003881444826e-06,-1.0004254203368412e-05,-3.954460575725163e-06,1.6868728892021384e-05,-4.548044411579759e-06,3.0467758720466733e-07,1.4721549635317759e-05,1.5389271097092435e-05,-2.817322442915145e-06,-9.290369441352377e-06,-1.7633693627197246e-05,-1.1910705943537518e-05,1.1282458419902088e-05,-5.291422486055667e-06,-2.1233549772449416e-05,-1.1387163531284832e-05,1.4129600932193583e-06,6.2018843493684065e-06,1.2784126636915636e-05,5.2783079225823805e-06,4.067144891639203e-06,-1.789309239738441e-06,1.2573399970820308e-06,3.6558204134896156e-06,-3.1860571650378037e-06,-2.231890530153539e-06,2.037453355374621e-06,-2.0711995059410085e-05,-2.106819939436832e-05,-1.8658229831647705e-05,-3.1452044814806552e-06,2.590452906290077e-06,6.060200233447293e-07,-7.153835210861394e-06,-9.094681396205518e-07,9.814208763168122e-06,2.132357918606041e-06,3.6721385903275806e-06,-6.718958914665542e-06,1.2042647904995892e-05,-1.3317272597536017e-05,1.1950037123018388e-05,-8.203601577958064e-06,3.103783516463313e-06,-2.6750264381505235e-06,1.7535808173857253e-06,5.527588695285582e-06,1.1891922889990029e-05,1.3282902636299786e-05,1.4570681737025638e-05,-7.979335270029847e-06,1.1067605676354283e-05,-1.399866056483584e-06,5.7454598819587896e-06,8.611681460357224e-06,-3.2279547516749293e-07,3.6233562084868274e-06,-9.434601826029276e-07,6.389028714756804e-06,1.648440135202508e-05,-4.45507725876375e-06,5.202934151567239e-06,4.136628970725942e-06,1.9441135352967454e-05,-6.28660655847052e-06,9.804470617800147e-06,-1.0501288494301886e-05,-3.313006266435554e-06,-1.571174404149371e-05,-1.0113634884410272e-05,-8.80625426775163e-06,5.4731264743185e-06,3.7923673894184056e-06,-8.49733304122754e-06,6.193165889801503e-06,7.330386729556172e-06,-1.6950918834671782e-05,1.8349782405185987e-06,-4.2191880420617544e-06,-2.4366216982980856e-07,7.839196269149264e-06,-2.1832298294586447e-05,7.596478063748216e-07,-4.3781738086215133e-07,-5.675062939845443e-06,-9.17927010563157e-06,-8.561317829154234e-06,6.4068503077259494e-06,9.639137879111226e-07,-7.735182458064896e-07,7.165822088308847e-06,5.445042250173393e-06,6.108076175114957e-06,-8.818692723612065e-06,-1.0688840939680455e-05,-4.833628809267109e-06,2.0291089330168492e-05,-1.4524573148895423e-05,-5.66516856739753e-06,-2.9691830072045497e-06,-6.970503135939971e-06,-1.6482993288353416e-05,-1.9660072794124993e-06,1.8638273164432075e-06,1.499909525698739e-05,-1.8628987278187875e-05,-1.959223688718381e-06,1.0117211040289299e-05,4.724866161108287e-06,-6.636867532245378e-06,7.038685943558462e-06,-1.4513323420881718e-05,-1.9482437100820227e-05,3.647772421389959e-06,-8.430631963652947e-06,3.016517651065129e-06,2.4337445808208584e-06},{9.462495132265907e-06,5.311427245348446e-06,1.3026440108027287e-06,-9.925501196216798e-06,-1.2814582715125338e-05,2.4210551481712043e-06,1.2693134411097902e-07,1.535238033225658e-05,2.464248709189872e-06,-1.61578028738647e-05,-1.2029852561014907e-05,2.674275432098276e-06,-1.3362624874013614e-05,-1.4445737525144863e-06,4.878793155151418e-06,1.9523085478444546e-05,-3.356521239047597e-06,1.4258679009513387e-05,5.730381787323121e-06,-5.558551450406629e-06,-1.019502093647615e-05,1.0414739736709478e-05,-2.1411037161667186e-06,2.104049443899824e-05,-6.103837815748329e-06,2.770966825274987e-06,9.652313889518505e-06,-2.035667920024066e-05,8.748114727364598e-06,-2.157298050818727e-05,8.537109448361356e-06,5.196930398257223e-06,-3.0701758488674637e-06,3.693565577947828e-07,-2.509612999131522e-06,-3.694551429180663e-06,-1.3082208074256361e-05,-3.2563214145647707e-06,5.59670413252146e-06,-7.845695219852632e-08,-1.912267582654475e-06,3.905402582256847e-06,3.795428240471209e-06,1.2893190609038788e-06,-5.938949391270778e-06,8.41024013847225e-06,-6.729849368417235e-06,1.895840033680588e-06,2.278916465342566e-05,-7.295599044909407e-08,9.035078089929465e-06,3.476538584640166e-06,-4.668457812793119e-06,1.386855559218531e-05,-1.1091634320607314e-05,-5.484818236110581e-06,-1.2012460459705675e-05,-4.09477809475339e-06,-1.5684061500234793e-05,1.2655770495063149e-05,-6.556107288087446e-06,-1.6849407667721687e-05,-6.331602995624781e-06,1.871708390903886e-06,-6.991022341813055e-07,1.0859432764743631e-05,-9.245430826608606e-08,-1.126933525037356e-05,-1.4990655577086648e-05,-1.348183582955426e-05,-4.7715509786651996e-06,1.4795650778445513e-05,-5.554164847391449e-06,6.825368619700174e-06,-1.4700558106744474e-06,-4.415592033364412e-06,2.227560651608897e-05,-5.744403812194947e-07,-3.6804095825874125e-06,-2.2393365253435916e-07,-1.0094164288932753e-05,1.2669378325348929e-05,-1.4525229250829489e-05,1.3196098338115663e-05,-4.6754913936661135e-07,-4.547681658597719e-07,3.2125207248319595e-06,-1.941292177934369e-05,-1.6590593770239813e-05,-8.073773909755805e-07,-6.217245131179204e-07,6.754856801616909e-06,1.0805137899164054e-06,1.278260585513857e-05,-5.389650685609463e-07,-2.0975532074114895e-05,9.915000176113316e-06,-1.714015656471328e-05,-1.1978604851475126e-06,-2.887974608769531e-06,-6.1742485243739705e-06,-6.014586491033631e-06,-4.576703238212415e-06,-4.4459850806598086e-06,-1.0255882594758106e-05,3.0033845611679553e-06,1.0510665295041506e-05,1.9425009856204246e-06,5.310495480829381e-06,2.886405978547728e-06,-6.015828086898598e-06,-4.770335083430841e-06,-1.0834865027550491e-05,2.925490896457025e-06,1.3769425544275053e-05,-7.071243406638865e-06,-9.780476425146656e-06,1.0282413336331918e-05,-2.705444938600335e-06,-1.8159458136942364e-06,1.0336680576880068e-05,-1.0954173450537967e-07,2.224339000206522e-05,9.192364266640481e-06,-1.2120040677951968e-05,1.443547421525025e-05,2.7436262261132906e-06,5.974063463383812e-06,-1.1269113601930197e-05,3.089781640910435e-06,-4.7227359222988113e-07,1.4868137129551416e-05,8.999140473704148e-06,1.1289346589262506e-05,-8.32386809946353e-06,-8.216952109035773e-06,1.3026436209220299e-05,-2.077474030916738e-05,3.951471768111133e-06,1.6041370183107483e-05,-3.516939975713001e-06,6.390138323288927e-06,-1.3828872630450139e-05,1.694758998429163e-05,-1.5805884216899987e-06,1.0193757459999234e-05,9.033904728525688e-06,-7.509268655282259e-06,-2.6428206460240633e-05,7.997509127290614e-06,9.944833275942723e-06,1.6769086903231488e-07,3.6440668855306755e-06,-9.132140334743172e-06,-4.8537387383922e-06,1.3564256240392188e-05,-2.5595308794451003e-06,1.9373096663835426e-06,-6.62052970367877e-06,-9.896131882033407e-06,-3.401715831933684e-06,1.064020058506332e-05,1.8739155564014446e-06,1.746120579490978e-05,4.7077629552707046e-06,-4.037027555696422e-06,-2.3461124446942342e-06,-1.959389465842028e-06,6.120639083641e-06,7.115145427210799e-07,-3.6408791463938103e-06,-1.4994742349259076e-05,-3.387739171177887e-06,-8.376354236042564e-06,4.386538201032618e-06,1.6957837177933345e-05,-9.446087249176026e-06,6.123974895067292e-06,8.798647082801205e-06,5.335929543735768e-06,-2.1767041446400344e-07,1.2295106833730495e-05,-5.747769260474058e-06,6.219699721863295e-06,9.043327447015952e-06,1.3224434676674562e-05,-1.3209011910225191e-06,1.0934056472291108e-05,-7.4718940138790065e-06,1.0151141501308598e-05,-3.4718758466580596e-07,4.441645753555297e-06,1.7014796699893605e-06,2.5680182320103765e-06,2.316803510928255e-06,-3.9946383670324445e-06,-1.1018956603005958e-06,1.2690237297209996e-05,-3.4081563163666503e-06,3.7602229615290715e-07},{1.2086971344215052e-05,3.75054168153222e-07,-5.46207986094704e-06,1.0873801873950353e-05,-2.0045327369771803e-05,-3.386339911925046e-06,-9.642357888473528e-06,4.378174991677018e-07,1.4638436281308412e-05,6.540333914795483e-06,4.665107448392352e-06,-1.7423394798224747e-06,6.468858484965227e-06,3.335385860190656e-06,1.4219970176471406e-05,-1.241364335110846e-06,-1.849446151956331e-05,2.007193751262081e-06,-8.827195602625546e-08,6.975263644373434e-07,3.696567648356898e-06,-6.789871209748523e-07,-1.476938481469053e-05,1.305960345785609e-05,-1.2462875999139533e-06,2.455801596076367e-06,5.128026295390874e-06,9.499019831137258e-06,-9.244516808107165e-06,-8.49861768523249e-06,-5.322653887321453e-06,-2.7826163652842035e-06,6.837656463511782e-06,-1.3044895731369068e-05,-5.368191542404925e-06,2.9853176641053228e-06,1.0759996974698276e-05,-7.405923085991604e-06,-1.2571221357889442e-05,8.30653844290526e-06,7.540609170055293e-06,-7.428723495089734e-06,-5.227317286574785e-06,8.873949453312491e-06,-8.240680468757282e-06,9.333801126755644e-06,9.40951397820539e-06,3.592887047472363e-06,3.1627131290520602e-06,-2.6099085614104457e-06,5.6031076724719884e-06,6.1506742908065295e-06,-4.194287140616055e-06,8.813713580060751e-06,2.9262036779604597e-06,5.9230771619890166e-06,2.8306049808381432e-06,2.6293490812109028e-06,-9.265676710320858e-06,-2.4789942137439545e-06,7.92910463108611e-06,-2.286730895836156e-06,-2.180020276394204e-05,3.322272520777194e-06,8.957178253101498e-08,4.553354452387136e-06,1.600094032511745e-05,-2.880097120117251e-06,-9.359317662736818e-06,-9.321958194067329e-06,-1.1153726872202402e-05,2.635711299235284e-05,-1.444401560525619e-05,7.3073223239975245e-06,-1.0981865380370492e-05,3.4085170340615194e-06,6.045238096347019e-06,5.7787528050702074e-06,4.086005934046039e-06,1.030828084216841e-05,8.446551771433845e-06,-1.1160332482485069e-05,-3.6415002002525434e-06,-1.1843801383529154e-05,-1.043308854985205e-05,-1.1520996974784799e-05,-1.538502131163555e-05,7.20524382194436e-06,1.2311006994840689e-05,7.10312807049234e-06,-1.0891205136989533e-05,7.265954244552406e-06,1.0145038087482946e-05,-8.383476240788656e-06,-9.318742527204946e-06,-4.021028798462797e-06,-2.795643049228443e-06,4.901426562331019e-06,-5.104081861116649e-06,-1.264117105037643e-05,-6.473896703164085e-06,-1.2418951135658195e-05,-3.696927111861962e-06,8.027781301241398e-07,-1.6109538667976842e-06,-4.273704378526402e-06,-1.3486707561897122e-05,-6.755858089987258e-06,-7.664730133433627e-06,8.503706188959821e-06,5.030487040030054e-06,-5.757217376637517e-06,-2.063522861201358e-05,1.4672702005005787e-05,-1.115033571715768e-05,-2.4904324559043652e-06,-1.8452856106647195e-05,1.3696957065298692e-05,1.071171802075899e-05,-2.7556687910297365e-06,-2.3646832511731876e-06,1.0661041338518033e-06,-6.268041482241758e-06,-8.24223107032086e-06,1.317802270650642e-05,1.0937176192440766e-06,1.662688566258551e-06,1.639217236236811e-06,1.4345845402321055e-05,-1.584155531309149e-06,-5.711453438652211e-06,-6.412194655098341e-06,-2.3640245814479652e-08,-1.4644887327575824e-06,-8.363769134790052e-06,1.4742066657146188e-05,-1.657650920687695e-05,-5.288748135922453e-06,4.484536060016136e-06,-3.1612709547512026e-06,-2.6634294045052477e-05,1.5517894184766305e-05,7.1126953841219735e-06,3.930635682404911e-06,-7.821848800638308e-06,1.7583712275160396e-05,1.5372215300002467e-05,2.5695635000608213e-06,9.624304050552769e-06,-1.0401377114760608e-05,3.890418798901878e-06,-2.0252261981466216e-05,-3.793505940201329e-06,-1.3788285188246954e-06,2.1702547890136848e-05,-2.766435550189552e-06,-3.291574386463586e-06,2.8250609893934126e-06,-7.781191137406713e-06,-3.0946485455127943e-07,-3.509474763524669e-07,-4.203346052754516e-06,4.651421434386937e-06,1.3143554562700368e-05,-6.834038255957671e-07,1.9663311795848873e-05,7.928298874463978e-06,6.957416424083615e-06,-4.038813825469442e-06,-3.2958089498696763e-06,1.6019698048280932e-05,2.4404774788723927e-06,5.900185613787715e-06,-9.941592867255401e-06,-2.671466228070587e-07,-1.601707922764531e-06,8.737517291090084e-06,5.386892832115941e-06,-4.124532904631019e-06,5.726420808744618e-07,-2.2578811505027903e-06,1.4200752028408975e-05,-6.098315398219846e-06,7.07421028143157e-06,2.1127978946797407e-06,-3.399858242445904e-06,6.182415920379767e-06,-5.912273574219402e-06,-5.3783419294172634e-06,3.3132487083484875e-06,-2.0897210804079936e-06,8.817955038789021e-06,-1.867874442740491e-05,-6.625967614327583e-07,-5.29121240955325e-06,1.884177344999904e-07,1.6147609437948244e-05,-1.034092816728088e-05,3.500287182408662e-06,-7.213645935805886e-06},{-1.7715857096634973e-05,7.553943613821716e-07,6.765631766506434e-06,1.4667701019246201e-05,3.3578869326946716e-07,-5.786710992014841e-06,-1.3064884491227327e-05,-1.649229913055757e-06,6.367761285148091e-06,-2.1078207931541577e-05,-1.0077268749797095e-05,1.1202047030164059e-06,-8.502800014923392e-06,-1.5186516331162175e-06,-1.4012689016591831e-05,8.511677804967096e-06,-8.441451768975586e-06,-5.669669220609831e-06,4.637204980878757e-06,-1.8066592748872195e-05,2.3928168255403216e-06,-1.2400061498370393e-05,-1.3254674389363889e-06,-9.145714057872704e-06,1.497753331260725e-05,-9.36666437090836e-06,-1.175409687617462e-05,1.8443411420703264e-05,-2.082472350950161e-05,5.041411377524238e-06,-7.635565462317206e-07,7.092285706272722e-06,-2.436521882339209e-07,-2.0293392707921378e-05,1.4668416940942596e-05,9.50852187170014e-06,-1.72132629285815e-05,-2.085511169636287e-06,6.242318836162424e-06,1.1084278728284334e-05,-1.7151802271636998e-05,1.4448853157463463e-05,8.148926547117183e-06,2.353969950182482e-06,-1.9225255644040205e-06,-2.622662709895505e-07,-1.2373475508466942e-05,-1.0077495453540313e-05,9.473856299000984e-06,-2.444616631540756e-06,2.0883765302189405e-07,2.5804342576189776e-05,-5.396195051918345e-06,4.33245506823822e-06,1.7717068439120175e-05,-7.590573925948493e-06,-1.4572882184222783e-05,1.5019267949174665e-05,-4.56501339498997e-06,8.447694666754992e-06,-8.127539801035644e-07,-1.2474924438221086e-05,1.4680430440160861e-07,-1.2887855726165267e-05,-6.295071294927896e-06,-5.938663421026449e-06,-3.153519874763662e-06,5.431752077825701e-06,1.3528568325541794e-05,-6.341394409556558e-06,4.575601963877272e-06,-3.8506347556850966e-07,9.601184400526409e-06,-3.167563971405715e-05,3.5325320101348764e-06,8.152358218585622e-06,1.2767557941687231e-07,3.194536686077153e-06,-1.8261283796375228e-06,1.250387851278008e-05,1.5867487354573255e-05,1.6780746330192452e-07,5.992733821945715e-06,9.545624708087075e-06,-1.3604918644641967e-05,-3.644523810572745e-06,-4.539397107665819e-06,-3.0014222726244556e-06,3.376749120109894e-06,-7.380879024078153e-06,-1.1041291775166565e-05,2.630811180491542e-06,-8.829453724588418e-06,1.085173183489168e-05,-5.4839947948460935e-06,-8.629265859181686e-06,9.527766421096852e-06,-1.4586044743110729e-06,7.265957224812404e-06,1.8078179892040373e-07,1.968429996801261e-05,8.884724051326267e-06,-3.939036100659101e-06,2.124974457677649e-05,3.3119848889324186e-06,1.3746256405544115e-05,-1.7008313017347139e-06,-1.7541079510262159e-06,1.1141571863560892e-05,6.612157446520384e-06,-3.836185833201528e-06,2.1726217987838258e-05,-1.9883594956726835e-05,1.5184482231724486e-05,1.6432305326046338e-05,5.920406087078635e-06,-2.1171672999418602e-05,-1.4713535419712708e-05,-5.32246065173606e-06,-1.0435349578691778e-05,5.04293135549528e-06,-2.70074277972192e-06,-4.78055975490947e-06,-1.964533719866573e-05,-2.0921696971234695e-05,1.8412411806522597e-05,1.327685657095012e-05,-5.6317388017487105e-06,1.14599208509857e-05,-4.276092589486911e-06,1.138592425700795e-05,1.7443498799273223e-05,-1.2949341380219011e-05,-1.935720658510924e-05,2.886573910808968e-07,1.1915010639455654e-05,1.3750070552339574e-05,2.177801638016336e-06,1.534528741397776e-07,-7.227643830994544e-06,6.634742283252194e-06,2.699008247437966e-06,-4.734470746253494e-06,2.2918729282743773e-06,1.122553723606209e-05,-8.044501732793565e-07,-2.869890367783057e-06,-6.813277451246658e-06,2.2971362870548785e-05,-3.4696096078502714e-07,8.07600319425441e-06,-1.7556504424033158e-05,2.389684494088096e-06,-2.7414372344455943e-06,-7.254138860295899e-06,-2.4057501573890543e-06,3.347541676581712e-06,-2.209416458596254e-05,-1.1294536566843986e-05,-3.952107460354619e-06,2.1738849130754894e-05,3.0912826300614173e-06,5.603021347637653e-07,2.7199456594912056e-06,6.556916325717358e-06,-1.1697821201121959e-05,1.6558802943720288e-05,1.3655933926852227e-05,-1.0801580004734865e-05,1.2067361687430565e-05,-4.1285676371994584e-06,-1.0191928966309753e-05,8.370853987102239e-07,-6.181202157196233e-06,4.572535876941316e-06,2.9418744048970126e-06,2.3251499016143983e-07,1.0944786572765614e-05,7.661154939196686e-06,-1.7206203678522447e-05,-1.2767957416057297e-06,-1.6889033940859726e-05,-3.95548627033655e-06,-1.1267432903528912e-05,5.472090755597873e-06,7.488914414871551e-06,-1.3373497680136823e-05,-1.733809571429909e-05,8.734848874917244e-06,1.7640407447888702e-05,-3.5965603111643457e-06,6.9820112554229355e-06,-1.2349349115025215e-05,5.040077067835484e-07,-6.4798392814668285e-06,-1.64355780218181e-05,-1.2913161083228299e-05,3.258847852316132e-06,1.0620605136312035e-05,-1.5984300466178252e-05},{-4.498841297755002e-06,1.0661681129660778e-05,-8.302914346307638e-06,5.0657081574235795e-06,1.1188817964562459e-05,7.45739653272219e-07,-1.0697781783563672e-05,1.0423496380217598e-05,1.176104379841407e-05,-1.5103251662671012e-06,6.680844039614199e-06,-2.267169351688935e-05,6.164274036895695e-06,2.764701122742807e-07,7.45756942203833e-06,5.505418578258024e-06,1.3360177491712148e-05,8.656954296867154e-08,-2.3370943305796266e-05,-1.0712722346081081e-05,1.556028850666314e-05,1.0032751085807257e-05,-2.6248800826086173e-06,3.140764331375305e-06,-4.209384573691543e-06,-9.003848656437791e-06,8.51301634554313e-06,-1.6930653089168607e-05,-4.618835447496335e-06,1.2401419193896965e-06,-1.5828262029302176e-06,4.4550592389691043e-07,7.282806280024302e-06,-1.0809190065261998e-06,2.4903988671776113e-05,2.630222236872039e-06,1.1334871995582548e-05,6.86864433195444e-07,7.812238517576675e-06,-1.57240899802597e-06,-7.490373935948559e-06,-5.087715022640891e-05,7.863685479284114e-06,-1.4077663230432726e-05,8.37048335891911e-06,4.723689079022337e-06,-7.888957358055265e-06,-9.276853722235816e-05,-5.902595155944002e-06,-1.4571260883784404e-05,2.390165549211189e-06,5.004339060431737e-07,5.053689086259878e-06,-1.1555609598305542e-05,5.9344770171704786e-06,-8.632946168839729e-07,1.0539020048098659e-05,-5.2649118091837006e-05,-1.0360952023540104e-07,2.2868545391316162e-06,9.070227277811132e-07,-2.8600424772580497e-05,2.112161299649831e-05,2.323007907273331e-05,-1.5508296494852027e-05,-6.95420033238152e-07,5.455812907399624e-06,-2.1415991148876213e-05,-3.0026269865101655e-06,-7.372070965421419e-06,-4.679758295705854e-06,1.823389937471746e-05,-9.054520382636472e-06,9.998400815133599e-06,-1.437810981966e-05,-1.668480952869904e-05,1.370719974231213e-06,1.4567199656613074e-05,1.8316201289948345e-05,-9.915871156202489e-07,1.2160731573686393e-05,-9.091112237452751e-05,1.2469995324130314e-05,6.454440299935806e-06,8.021414499124743e-06,-9.148914116453218e-06,1.2167209738644483e-05,-9.782105956479073e-06,7.580781116289769e-06,-1.1629204828213674e-05,-1.2534617882045876e-05,1.5664321316472352e-05,-2.1546421317011796e-05,-4.333779058053841e-05,-2.0273154242142124e-05,7.869020773381262e-06,-1.2491050596834885e-06,-8.861879726225512e-07,-1.7034938842723124e-05,1.0760697465718596e-05,-1.879998165026099e-06,-1.5591025873917795e-05,-5.428520687644564e-06,1.8917290628199195e-05,-4.662958188998416e-06,3.105221243156783e-06,-1.7936692987638172e-05,-3.5276987259780427e-06,-1.4472501728723305e-05,8.95429228189898e-06,4.2147991405807145e-06,-5.702103059145759e-06,1.6210654967830167e-05,2.488293615217185e-05,-6.890887549401503e-07,-1.2438328166491841e-06,1.4569379536766011e-05,-3.232173683227629e-07,6.788374376896242e-06,-8.344935079999703e-06,5.85898875680789e-06,-9.158586506270553e-06,2.5637714089634576e-06,-7.226872066352573e-05,2.745689804935642e-06,-5.311687448814983e-06,-5.577563108646866e-06,-3.604743519715058e-06,9.667864499106986e-07,9.615010334616027e-06,-2.1952982652825374e-05,1.1244343233681317e-05,4.6284019872636856e-07,-1.107086119748113e-05,-2.5431169341927e-05,7.796583231809884e-06,-4.123566006088463e-06,3.8901998002898595e-06,-9.542922357406653e-06,4.7145941318140915e-06,1.0288239240973382e-05,-8.098589332683122e-06,1.2284016696052548e-05,5.652436655462837e-06,7.248153563171144e-06,-9.02360427503348e-06,5.997025119474622e-06,1.6680935752268636e-06,1.3554406105219558e-05,-1.605783892849261e-05,-1.6137870244878914e-05,1.6670206042626796e-05,-1.1400718489306344e-05,9.033066414503955e-06,-3.140607361709919e-05,-8.112447309844992e-06,-9.89462976820711e-06,-4.24077550227586e-06,-1.2126147236405748e-05,1.064293469408977e-05,8.311235950809035e-07,-3.112282346895406e-05,-1.833602567100275e-05,-1.7899107856714056e-06,5.007661856286436e-06,-3.2999664962944767e-06,-3.7309823748149395e-06,9.762488252566347e-07,-3.0157746649151374e-07,-1.3367462960237411e-05,-4.775338011958473e-08,5.425986694944487e-06,-1.4389213500244789e-05,4.913173630300602e-06,-1.1374968429274357e-06,2.0414388854652465e-05,1.2545145593392727e-05,1.006084523081406e-06,6.460797024988992e-06,1.7447934605469192e-05,-3.6228287299750856e-05,6.5020840237199426e-06,1.0067842210947821e-05,-7.887740127971393e-06,-5.848636007655519e-07,-1.3366048073384605e-05,-1.607927042162907e-05,3.913208876791975e-06,8.714263587607367e-06,-9.528667854447205e-06,1.2012292361657127e-06,-2.279675451066455e-05,1.1446631017494583e-05,-7.89686297050293e-06,-9.031110107879207e-06,1.1216666015053913e-05,1.7223926949875572e-05,-2.0537356109712212e-06,1.5877226767117668e-05,7.4483595336640105e-06},{2.6674414867664744e-05,6.046350178437618e-06,3.228217661757858e-05,2.5014603891360465e-06,7.2521839652801315e-06,1.0879579538996984e-05,-0.00019583693179566383,-2.4230469856100408e-06,-1.6070541454064124e-05,1.913102557524236e-05,3.129691002386448e-05,-1.4284227821550552e-05,-4.972791284642411e-06,-1.0045713339393517e-05,1.1907615161878556e-05,1.9601373190061875e-05,2.185897546858415e-05,6.5777699873403315e-06,3.0156890442751365e-06,-6.567040959785579e-06,1.3428490614139266e-05,9.936278400372475e-07,-4.010317684043516e-06,2.0552706365268756e-05,1.907654362633457e-05,9.948729780685157e-06,-4.953249982716589e-05,3.700158387091303e-05,-2.4595224108621242e-05,1.516231234397918e-05,1.613941811886487e-05,-8.690447617482861e-07,1.7126754845061628e-05,7.966347163955838e-06,2.5058123218163066e-05,2.375789229594789e-05,-3.161710926018443e-05,1.366650197034466e-05,-2.3174745985371144e-05,1.7188817839442923e-05,-1.5835638694576996e-06,-6.810750454386584e-05,3.6752436102834443e-06,-1.7010983876681805e-05,1.6088753847930127e-05,1.6029178796196708e-06,1.5651561360883606e-05,-0.00023046528691833535,6.2902247389238174e-06,-4.2106415326598694e-06,-1.5229505884558713e-05,2.1380870044296078e-05,-3.550833979525512e-05,-2.9471615244993582e-06,-6.767417169832805e-06,-9.271113694702422e-06,-3.727305092124486e-05,-7.321888346431596e-05,-1.6710339490016663e-05,9.620828362781478e-06,-4.970472397702664e-07,-2.0868524390012374e-05,-4.753003474401299e-07,1.7300558950269465e-05,-4.982798317152975e-05,-1.302766135672356e-06,2.1937417447822207e-05,2.2264057172409702e-05,-3.818370678925599e-05,-2.4937728696480088e-05,-5.3461692345118e-06,1.914533435627569e-06,-0.00010669556312281739,2.9644516098577116e-05,1.5568849534216645e-06,2.0110825305700302e-05,5.267456290429806e-06,1.0243497959647092e-05,-1.1864998593862877e-05,2.8169431200615894e-05,5.191286401203026e-06,-0.0002418403492892615,2.6120410207231742e-05,2.343689934151734e-06,1.5292277030587186e-05,3.02285586888553e-07,-3.3525688149689778e-06,7.769825465641295e-06,-1.5931089775057407e-05,-1.3017735425827697e-07,-3.7159978948537133e-06,2.0824405048117e-05,1.3087388270534048e-05,-0.00021094665132603355,-1.3389527832273717e-05,-4.582463423734358e-05,-1.9506581370853908e-07,-0.00010480414604450782,9.132554711288893e-06,2.4467242427649778e-06,2.0046839921655536e-05,-1.696175693476805e-05,1.7241397819231468e-05,-1.0377523270141865e-05,1.5468866401766867e-05,-5.4242157323948906e-06,3.5653166801318707e-06,9.893798718404141e-06,6.488599108416642e-06,2.838526113526162e-05,6.196254089287515e-06,2.6793736733208578e-05,4.803566012727501e-05,1.2517675713136148e-06,-6.20837760172877e-05,-9.497474517448838e-06,2.3347645333275318e-05,8.681295520726045e-06,-0.00012942490646326686,-4.695343389784607e-06,9.585463721041227e-06,2.931891619386105e-06,4.728818266098175e-05,-0.0001336501470497116,-5.372879202365797e-06,8.171587018824663e-06,1.5547910841119995e-05,-8.926284689889092e-06,3.988419747571714e-06,1.4272807831347533e-05,-6.140873359872444e-05,-5.717303792559114e-06,1.2312119905548994e-05,2.410719137747921e-05,-8.257840335793552e-05,-4.435441789709242e-06,-9.611525315223338e-06,1.751832632560948e-05,9.004062382022835e-06,1.539631223084487e-05,3.4091675893825645e-05,2.534793912214686e-06,1.7570589383762772e-05,8.418919342835136e-06,3.0302206407023647e-05,1.390669510167519e-05,-1.8593139930367647e-05,3.7442661315790723e-06,2.8467298042675293e-06,5.938743737791977e-06,1.8854796545814096e-05,-2.4387629122440827e-06,1.0401379228175003e-05,1.8914368284454595e-07,-5.038268947097228e-05,8.81534746993649e-06,-6.174964999524757e-06,-2.3507563705938e-05,1.6066572193549356e-05,1.5612757580296197e-05,-3.980735312822738e-07,-3.628940058996659e-05,1.9495300603769055e-05,2.732468353392467e-05,-7.663806893185888e-06,1.716198139625354e-05,3.180524867190096e-05,3.251758010015855e-05,1.2745915450830627e-05,1.5855303539003225e-06,-6.532081720316286e-06,1.1322538638090205e-05,-2.616121613794137e-05,-9.24757074487299e-06,3.930010562454716e-05,2.235550026431068e-06,2.261789416229266e-05,1.642543239999529e-05,-2.3773184109742863e-05,2.4153952331381466e-05,-8.040244741467654e-05,1.070693990653826e-05,-0.00012451561475199292,-1.4138389983874195e-05,-0.00019268105679853237,1.2717288165104866e-05,4.703131865153767e-06,1.5649200819284316e-05,2.3920083322971696e-05,5.381797364726735e-06,1.5772183574242535e-05,-4.078860885122853e-05,-9.9586141698165e-06,-1.2108545998945988e-05,4.2833948249644235e-06,4.225511845134668e-06,-7.2160409474580394e-06,-1.0078930925720978e-05,-1.588723372465108e-05,2.0262253515789955e-05},{2.9672148065680502e-06,1.103353283356719e-05,1.858021099833256e-05,-8.447512452523953e-06,1.555584410364666e-06,2.9527715418012905e-06,-0.00018800820863259206,-2.4817505315635313e-05,-2.0156342809897593e-05,1.2242171382740776e-06,1.2444470403362121e-05,2.979789785917689e-06,1.3793501954382674e-05,-3.371025815825764e-06,-4.3413086551816115e-06,-4.22701631404051e-06,-5.1358578999881276e-06,7.5950063729341485e-06,1.237892890469365e-05,-6.150677742596591e-06,1.1023962185962956e-05,1.4635311147985833e-05,4.621746623549234e-06,5.445421918618325e-06,3.581309479189213e-06,-5.958858487444371e-06,-6.56056733770226e-05,1.1199269784906494e-05,2.58337992818807e-05,1.774610004157915e-05,2.6321854335686516e-05,1.1481657043622681e-06,4.862946332750133e-06,-1.6647978370597335e-05,2.5349799122277683e-05,3.052014626919377e-05,-3.3629062695254844e-05,1.7165568644651775e-05,-3.7382531836522496e-05,1.1803664260831187e-05,1.1771620513457106e-06,1.82530513191381e-05,8.348037289395278e-06,-6.315636238260724e-06,2.0540815751348307e-05,-4.77338363541237e-07,-4.559861445342787e-06,1.1339290298494264e-05,2.4002117424397583e-05,9.200006305886133e-06,-4.319418786429455e-06,1.476626118023727e-05,-2.087453763348443e-05,1.952040088113815e-06,1.4962141731793316e-05,-5.299099606985321e-06,-4.948253398862714e-05,5.001806121892024e-07,-6.119784350670213e-06,-5.233325933988028e-06,-4.52602829655991e-06,-1.758790618731103e-05,1.1857652546468792e-05,1.3312071771308916e-05,-4.1590680871544895e-05,-6.83983484248415e-06,-3.661523424506595e-06,-1.998460281164267e-06,4.47586586212748e-06,-2.6239798916350146e-05,9.054593303063193e-06,1.8308635011498403e-05,-0.00011526775412002092,1.0540730694611254e-06,2.9902541668952985e-06,8.013966957631613e-06,9.09149673018064e-06,6.599855068442583e-06,-5.320133266201621e-06,3.1853067318768407e-05,1.191206235412759e-05,-5.9158627391914935e-05,1.4004998578595738e-05,7.899606006458546e-06,-5.5037849249337095e-06,5.078048844580424e-06,-1.5488638172753575e-06,6.589419356701038e-06,-5.0574816356979906e-06,6.948507958075731e-07,-2.7084241611529673e-05,-4.72272020163762e-06,4.142631992029954e-07,-0.00017190562826911043,-7.977829972574325e-07,-5.927851427369021e-05,-3.0815830834437824e-05,-0.00010053856487043331,1.501354009936839e-05,7.67615644613541e-06,1.1778686725786e-05,8.023818243757031e-06,-1.6178902377991913e-05,1.0575627151063545e-05,8.587318109307046e-06,2.8885639358486752e-06,-1.3577161072484363e-06,-8.06343997778695e-06,-1.8423563828007384e-05,1.8548942079213928e-05,8.136933229190356e-06,2.392481083620228e-05,-4.811754448948114e-07,1.784501525590309e-05,-1.7159256984706183e-06,-2.00852850916487e-06,1.707808566938909e-05,1.0992112281475557e-05,-9.947803832750104e-05,1.8784674201140349e-06,1.8410329134883076e-05,6.8498140070259765e-06,-3.124635370286379e-06,-5.07661321068296e-06,-7.514787893548688e-06,-7.299364236165631e-06,6.251831514013051e-06,-1.1026335185709657e-08,8.745049056757947e-06,-1.9125348557789023e-05,1.7242778466889768e-05,1.1293556756056406e-05,-1.0911081518726313e-05,8.088175903557733e-06,-2.0643106994935605e-05,1.3084560212096199e-05,1.2826748997747117e-05,-1.2594593253281816e-06,1.6792710556158127e-05,1.7765823973090398e-06,3.198934645499135e-05,-3.745281423514155e-06,1.0469568900954355e-05,-1.482178968770988e-06,2.230711060785906e-05,1.9229063839923445e-05,-3.3101267758178337e-06,1.2225151670976572e-05,-1.877724510471053e-05,-7.832194213344616e-06,-8.047901865768778e-06,-2.5458887705345842e-05,1.5168855635886427e-05,3.160791450423853e-05,-1.658135818640595e-05,-1.5372966267279687e-07,-1.2396762098470035e-06,5.812425602399753e-06,-3.4738194039008414e-06,7.404735156615643e-06,8.842990331926233e-06,6.7752023190549364e-06,9.748537774331482e-06,9.273690709470172e-06,1.2043368292683346e-05,2.002266022802495e-05,-6.680166835141762e-07,1.2043225981376657e-05,7.935810918103304e-07,-9.346636035626794e-07,-4.091277780143136e-05,-3.961250033097062e-07,-3.484289848829635e-06,1.9244791057173343e-05,3.4812619460969834e-06,8.210283605923398e-06,2.3357851016526793e-05,-9.801680953090876e-06,-3.2292706558442404e-06,-1.1648680872980073e-05,1.3636972034801145e-05,1.0169110348236566e-05,-0.00012597236563036222,1.5738772638079924e-05,-0.00017384764976793437,9.58708338769636e-06,4.880850136414693e-06,2.3671900390402235e-05,5.651187094620868e-06,-5.16408345725735e-06,2.205889121098519e-05,8.981972862791256e-07,1.045141091886275e-05,6.591293187818345e-06,8.148250339362942e-06,1.3846225501158862e-05,-2.3456213169733517e-06,1.8503430577086495e-07,-3.148608384216869e-05,2.518974963774262e-06},{1.1075202412055976e-05,2.09273009244231e-06,-6.788783934082048e-06,-5.745789827269893e-06,2.607159102820784e-06,1.3630736718084505e-05,1.2193314894660301e-05,-9.812398921694296e-06,-1.6552187683185987e-06,-1.3063221808221762e-05,6.384537273090659e-07,-9.82288604621914e-06,-4.7207740914572105e-06,-5.8100329029678414e-06,-5.956209262231256e-06,1.0904988962209306e-05,-1.8042353127956771e-06,5.888387408769849e-06,-5.874008730798895e-06,-1.0562811597662993e-05,2.222238334259656e-05,6.043672417540726e-06,-6.5595661843629926e-06,-5.266940812254283e-06,6.1592589078776445e-06,-2.697288258309238e-06,-2.6224683622891465e-05,-1.7487041389905813e-05,-9.908959264850546e-06,2.3675617620994383e-06,-7.90117701288625e-06,-5.030658902451718e-06,3.909567542483363e-06,-9.088410874305134e-07,6.800053784166453e-06,2.5568287186477337e-07,-5.315368967435918e-06,-1.3829436327888494e-05,2.7866682412478337e-07,7.475878250160448e-06,-9.731679032002161e-07,-2.0830346946218847e-05,3.215464010998644e-06,1.3178978782820658e-06,-1.0779069305796797e-06,9.810810396119694e-06,9.234974097238404e-06,5.4422489476125115e-06,-1.3958081873036732e-05,4.3126854359506946e-06,-1.260452799041828e-06,9.490576812450638e-06,-1.4541141825244081e-05,6.0460578293031826e-06,-2.165622190484951e-05,-6.23343589976887e-06,9.51398605630259e-06,1.0353051330511025e-05,-7.744830198935633e-06,-5.280179417568446e-08,-1.0967377905423648e-05,1.7633752136159952e-05,-1.0318481905514578e-05,2.9101840786143235e-06,5.24498281659477e-06,1.2956399408886083e-05,3.1704165059150355e-06,1.2739764965435747e-05,-6.637620454631321e-06,-5.283601449778925e-06,4.208344866204648e-06,-8.642605665378869e-06,6.037082697840546e-06,2.1371001026048074e-06,-1.4740524074324842e-05,-4.932771703325067e-06,-1.4879782598641096e-05,1.8545026162967658e-06,4.568819798860564e-06,8.119034448604713e-06,5.684606089452217e-06,1.2996948006206467e-05,6.374218103501753e-06,1.4671889749165547e-05,-1.885855405344375e-05,-2.2752382077401437e-05,-4.381406532523901e-06,-7.570180652461575e-06,8.698997768340631e-07,1.2122936510334473e-05,-2.723263640518328e-06,-4.3733920085052595e-06,-1.5873270455407888e-05,-1.4544044738147066e-05,9.114325881617838e-06,2.540505896144077e-06,5.8541372981153405e-06,-9.130640804909097e-06,1.397720025802332e-05,-3.0380085365397773e-06,6.315763939523522e-07,2.0899196624521343e-05,3.4085290801809047e-06,1.3136741987840131e-05,-2.356771715804377e-06,-1.3052004616507336e-05,5.911228265466844e-06,-1.4197871834907783e-05,-2.8433547257221597e-06,1.9879323243778702e-05,-2.256931123500532e-06,6.0470043582294254e-06,-6.478460105118641e-06,1.880610450466206e-05,6.547601997126869e-06,1.1403698601840718e-05,-5.427641973449456e-06,8.293696216193885e-06,-2.399776690324721e-07,-1.5607663458955765e-05,1.3464148885011318e-05,-1.1397093717127345e-05,7.4952717714904645e-06,1.7190866339058993e-05,1.1847615226923304e-05,-2.3208530331016158e-05,2.114311765511149e-06,-2.0389610810474805e-05,2.0443074587099765e-05,-7.473084202440798e-06,-1.1553968028135093e-05,-8.117916243230997e-06,-3.888752543694505e-07,5.426828210655315e-06,8.70489269590863e-06,-3.1099102710564663e-06,-6.33956634350208e-06,4.997673807863155e-06,2.156818294505918e-06,3.0895032588952045e-06,-1.2861534219568757e-05,-6.2968229058495935e-06,2.104351592020476e-05,-7.795696160559413e-06,-9.402974933003781e-06,-1.9039265479855918e-06,-1.819046391257222e-07,-9.638809205770794e-06,2.8710621473721417e-06,3.3657463473535053e-06,9.802133037447695e-06,8.230970827724158e-06,-6.698346841931101e-07,1.8096903108656378e-06,1.5809559158442107e-05,-4.748992611176057e-06,4.620816027427123e-06,5.601342216623289e-06,4.415741948385345e-07,6.257594483255868e-06,1.1279116128888906e-06,-2.0473892084590816e-06,-3.156498619857144e-08,-1.7195444264350284e-05,-1.298678808630194e-05,-5.236654116873548e-06,1.0155369655919388e-05,-3.638616196922147e-07,1.882960604316661e-06,-1.7312054677295944e-05,-5.899236706246388e-07,-3.02153230967536e-07,-1.865961547714443e-05,-4.5348975328427405e-06,5.073019204590406e-06,2.9765797199810465e-05,-1.5484047004412206e-05,-1.0706043824228865e-06,-7.632649348904663e-06,1.0870740353442048e-05,8.518754837092046e-06,8.026113183805763e-06,-6.694836529399032e-06,6.536095104353976e-06,2.099311289196001e-06,-9.796832625837193e-06,1.3713003859663712e-05,-1.826918044868139e-05,4.194302555819636e-06,-2.5945414889294734e-07,-1.8176859267145066e-06,8.638343003885512e-06,4.570927920756716e-06,6.276567390327992e-06,9.134251575809958e-06,2.00144273746529e-06,-1.2706148101984601e-05,-1.0246957511275348e-06,1.6088154008966857e-05,-1.1599702981889858e-05},{-1.0748190489698714e-05,-3.08127746487286e-06,-2.369821291000484e-06,4.332540398083419e-06,1.8515188184446013e-06,-1.3946093627265747e-06,-4.003605677900864e-06,8.184302225101221e-06,5.235437049627807e-06,-3.539219783226561e-06,-1.684111749894887e-05,5.107116600683913e-06,-1.0093338032027645e-05,-3.213062904349541e-06,7.661661200643504e-06,-7.04448117319472e-06,-1.5157426979633742e-05,-4.967269249668977e-07,2.5073629528688307e-06,-7.699943124041031e-06,9.174680621922379e-06,-4.2458014542669675e-06,1.7504246232239985e-05,2.1025206501470603e-05,-2.3520191232211224e-05,-2.0119968128062806e-05,-2.576985459795535e-06,5.128977113116866e-06,-4.849352997327249e-06,-1.7303465035110734e-05,5.067254440175626e-06,5.44879160332772e-06,-3.2597112984986403e-06,-3.914691418651076e-07,5.564182544273047e-07,-6.1866102838913e-06,-1.2298799448512728e-05,-3.303916660362129e-06,-1.6262217740329145e-05,-7.12656567635243e-06,-2.4173542465001503e-06,1.6890912779294436e-05,-9.496325371147428e-06,2.4277851059918696e-06,-9.384993519187974e-07,-1.2175849206387494e-05,-8.5359402583487e-06,2.5524425269369893e-06,1.5460417330022277e-06,-4.633450355375316e-06,1.8200232328158415e-06,-6.2298047948616505e-06,3.84316576441042e-06,6.079495345230251e-07,6.907608670259772e-06,-2.6734992052115404e-06,-1.0445546095959298e-05,5.519101850677502e-06,-3.865162667110529e-06,1.70752578330826e-05,7.579184948477575e-06,-1.8713722165031041e-06,1.1773541141504657e-05,9.096010653917138e-06,2.5009725630236987e-06,-7.2526344255039106e-06,8.201149236220519e-06,-9.688613690048018e-06,2.3765510515265553e-06,-8.954867587776578e-06,-1.7620015873202898e-06,-1.7084357602118996e-05,-5.895873137447994e-06,5.760073683042926e-06,-7.546263361475925e-06,5.548358505665189e-06,1.5461317519477007e-06,2.977060505348577e-06,6.558486170462354e-06,-3.4530064837053948e-06,9.818107181355093e-06,-7.151511864422107e-06,-6.996070555835416e-06,3.174348857986609e-08,1.7950683404910717e-06,-1.8432177825637045e-07,6.333047150192874e-06,1.8390385708838748e-05,-5.781118442080227e-06,3.6126777856718457e-06,5.097000828150643e-06,1.1797297665104292e-05,-4.8882157232972895e-06,-2.773237889704249e-06,-1.0790565444870861e-05,-5.183823935672692e-06,4.888766957314966e-06,-9.659430071777634e-06,-5.0899132493157445e-06,8.307759334241213e-06,-7.177697593172223e-06,2.5880659108378486e-06,-7.3655239546229905e-06,6.531807040356026e-06,-1.2877871576496226e-05,3.2360439106209445e-06,-4.299781431024086e-06,1.0950077599102422e-05,6.385217922844478e-06,2.4205496040880058e-06,-1.1892407923307045e-05,-9.204723043577866e-06,1.6191159755282463e-05,7.5225802533117285e-06,-8.91303245409652e-06,6.893690381293967e-06,-1.4025052097367168e-05,9.884939677823024e-06,-7.683182465192326e-06,-1.8775241416933292e-07,2.6201244753570486e-06,-7.482277102747084e-07,1.2972938062099916e-06,2.320613469288065e-06,-1.1075099077031074e-05,3.704306875178472e-06,-1.5474784145332998e-06,4.310929749648121e-06,-1.2585511509893633e-05,-1.0467328858778173e-05,-8.56166777339728e-06,6.971102234710662e-06,-8.599400515353457e-06,-5.184672823507708e-06,-6.2439525379413365e-06,-2.0620760931320615e-06,-8.42499064707889e-06,-6.275006409896786e-06,2.712207191700964e-06,-1.2373865562856618e-05,5.725498040886928e-06,1.2944336768067756e-05,-1.2797609311396866e-05,1.809855554652014e-06,-5.088096232676137e-06,-1.0578451040980645e-05,-5.453831654706931e-06,1.4629193785886553e-05,-1.6919636911882895e-06,-8.665488836592588e-06,7.0419979722902015e-06,-1.6599511536480958e-05,-2.00547049828128e-06,-7.055475977904989e-06,2.5635278198694812e-05,-2.2196888748419404e-06,-6.27370331399203e-06,-7.73662208183024e-06,-2.488464306267791e-05,1.3223734876727349e-05,-8.184088900765818e-06,-1.4243795239807403e-05,1.2524018405528389e-05,-1.0891345709554411e-05,-1.2866872389674116e-06,2.5949301611990133e-06,6.008880398893438e-06,-8.306952648108471e-06,-1.9544862287152364e-06,1.576470477455861e-05,-5.351018747831484e-06,-9.985248279045304e-06,1.5784965607024857e-05,1.0265374985844023e-05,1.176509434910276e-06,1.0803233003942407e-05,-4.2689467273466225e-06,1.1103784540159136e-05,1.376173692496953e-06,-3.34724806767086e-06,-8.810879716232893e-06,-1.9259288363312276e-05,1.4926858789972721e-05,-1.3294066624167455e-06,-4.5229324184140695e-06,-1.4601653022475939e-05,2.8017733361221306e-06,1.279051533441237e-05,-1.4643595126959566e-05,-1.5102204303452611e-05,5.7729548484356216e-06,-4.73976513908773e-06,-5.545671615987576e-07,3.85014363321798e-06,1.388443810274621e-06,4.608237175159667e-06,-2.3634875789896288e-06,-4.248462739207837e-06,-3.6306142585503777e-06,1.126061265011486e-05},{2.3105527938603484e-06,-1.2651878809907034e-05,-7.359722827233072e-06,-9.174493664021825e-06,-3.950893679354564e-06,1.1761807203378922e-06,5.474862792954403e-06,1.1690633161065678e-05,-4.785809831871773e-06,-6.2252849804451426e-06,-1.17276979555374e-06,2.23555254500077e-06,-8.002157842083473e-06,-1.4535943812399749e-05,-7.241728042775817e-06,2.441462805866661e-05,3.4747746634634357e-06,-7.0038932496048725e-06,6.5305845946882986e-06,-2.197827338175957e-06,7.761309260556257e-06,-7.523776507208337e-06,6.259000725432764e-06,1.3167074265568473e-05,-1.2036683294591162e-05,1.6469301097789833e-06,2.7316942284933516e-06,-1.2918144442534254e-06,5.801187396735382e-06,2.2026115123085387e-06,-9.974720291938981e-06,1.7768851845268404e-06,3.2001657208888103e-06,9.939398476458657e-06,9.675961748365225e-06,-1.7340898315765876e-05,-8.519679113416277e-06,-5.484755141400853e-06,-3.3846970931159282e-06,-3.6367980169089558e-06,-7.4643881820012246e-06,-2.6872188994696496e-06,-3.3831799151601656e-06,8.322441496745392e-08,1.52633936252558e-06,3.703168651675346e-06,5.535813515349012e-06,7.610393392520789e-07,-9.339010883002907e-06,1.078018539215919e-05,4.131927791312941e-06,2.102664854345248e-05,-6.786667356791403e-07,9.01777293361439e-07,-2.4792983743911348e-06,1.3760577371871717e-05,-8.520713801585739e-06,-2.1253952046114404e-05,8.955570516266082e-07,1.209555252067335e-05,1.8075091509716843e-05,-3.820802280285484e-06,1.3681318057765565e-05,-1.7462905452784824e-06,-2.6330364493833248e-06,1.2991068632737775e-05,-2.2789976797148245e-06,4.020439585309771e-06,-2.4368581933342246e-06,1.4173017198573311e-05,-8.819637416529037e-06,5.787016653693913e-06,6.462501002828589e-06,-1.9674205094499813e-06,4.290464383518928e-06,-9.59606829549104e-06,4.802364254054213e-06,-1.7908655656817791e-06,6.911214865025482e-06,-1.3793430283074794e-06,9.762520829005807e-06,1.5300694289164774e-05,-8.191363090834486e-06,1.2731844771365884e-05,-2.2813987462769214e-05,6.493371609236685e-06,1.55420567512567e-06,-9.850631331130678e-06,2.326843295936217e-05,-1.867115782781773e-05,-1.1028013896433556e-05,-2.991040453980916e-05,-1.6463116592568873e-05,1.3767770474626215e-05,-1.3532827293730812e-05,-3.32714307359938e-06,1.0234901539558363e-05,3.2425177645591387e-06,-7.152470631119702e-06,-6.326073689252546e-07,-9.24145954044243e-07,8.801772657889446e-06,-1.5036528713150353e-05,1.1369485101757889e-05,1.3345107034011232e-05,-6.495181803242921e-06,8.186783995948367e-06,-8.813143445316484e-06,-1.5320292850549128e-05,-4.814978696460977e-06,-6.758795074182736e-06,1.1813006991168146e-05,6.997956222758341e-07,-1.5860006738346294e-05,-6.409192120638295e-06,1.0909366783417693e-05,-5.349618023477075e-06,3.832362218951336e-06,7.869625864607095e-06,9.724591356737003e-06,-7.825635148887725e-06,2.4605634879893794e-06,-7.3079562537422115e-06,-9.003834680039732e-06,-2.4556774742470904e-06,9.550058065803163e-06,-9.137814373226355e-06,-3.2670890088989865e-06,-4.244444127340755e-06,5.6929161098286685e-06,6.409833524557097e-06,8.999013436638236e-07,-3.176058627290433e-07,1.56674801989558e-05,1.8825986401894034e-05,-6.842360859238676e-06,-1.6651117406209114e-05,2.3243337278473307e-06,8.540016467389165e-06,8.900440669564505e-06,9.024792008983821e-06,-1.2751864218638606e-05,5.704909690917913e-07,-2.509752887202055e-05,-2.9599158932495077e-06,-9.365062848972728e-06,-5.499103842731016e-07,2.753940206739742e-06,9.400888719847936e-07,-5.713149885509401e-06,6.689633896986652e-06,-1.2802304047190293e-07,1.7578483448376648e-05,1.4413084402154098e-05,2.3817308897577706e-06,-7.583368503409226e-06,-6.599704796750806e-06,1.8309642478936877e-05,1.9290106781904105e-06,-5.668958171812958e-06,2.2037703871105877e-05,-4.0767228718866466e-07,-5.613763318896387e-06,-6.0420508588209e-06,1.1248373663260586e-05,-7.369718519368105e-06,8.624077016256806e-07,-3.6773480758638126e-06,-1.0296109579867557e-05,8.606068199969095e-06,2.0735682741749557e-05,9.602651332043403e-06,9.89763786645702e-06,9.147927239117786e-07,-6.206363216343344e-06,1.0872809822853526e-05,4.774932159900764e-07,-1.0063676583851848e-05,1.2555898508340714e-05,-6.248617709830177e-06,1.3846303929166544e-06,7.636921500930252e-06,1.2531486631191356e-05,7.03999564422574e-06,-5.617056288724825e-06,-2.1340715195435924e-05,9.14810654522004e-07,-1.380235191844754e-05,-1.2752374772978646e-05,3.2982430773803546e-07,9.428083255793402e-06,1.0826338274427815e-05,-2.4109709121192722e-06,-1.1340488761449817e-06,9.955305855027962e-06,2.4099520661124366e-06,4.566333709109699e-06,1.1757003108143506e-05,7.879275564907047e-07,-3.601119689537187e-07},{-1.0646887531446104e-05,-1.863893585572416e-05,-1.567373985535427e-05,1.6694959287197278e-05,-1.268866042888423e-06,-8.410760355075752e-06,1.763359638894771e-05,-3.50316135496533e-06,-9.071695730178655e-07,1.0525558870989712e-06,1.5173307702765806e-05,-1.6858175354295642e-05,9.650257016513328e-07,-1.1354660996253163e-05,-3.9341558997976075e-06,5.418216891857764e-06,5.903973819383135e-06,1.525963218038581e-05,-1.8356723432207893e-06,1.536919682234147e-05,5.542791723897696e-06,-1.1991044643757311e-05,2.4148375202461514e-05,-3.0987702195136738e-06,-9.696363354843042e-06,1.5417983071209705e-05,-4.215280826622741e-07,-3.156227291304075e-06,-1.3757257227287737e-05,-9.621503322493296e-06,3.554206073627748e-06,1.380416519144543e-06,-1.6485154679124512e-05,-3.6179959320735e-06,-3.487253540386429e-05,-8.348767079707135e-06,-1.3956549222154494e-05,1.3310306836019625e-05,1.8433828758283453e-06,9.314881519686302e-06,-1.817279605108743e-05,-1.6736928051224706e-06,6.345272242610288e-06,-1.0126791772605519e-05,1.1580903268367168e-05,1.997705913898702e-06,1.1501247562226909e-05,1.4598850715575596e-06,-5.356441575718244e-06,1.2308539840607693e-05,9.8030198816455e-06,-2.185869838307163e-06,-4.55493767637295e-06,-1.5682106371891906e-05,7.2563996341750485e-06,8.317530957387142e-06,2.6301347495004713e-05,-5.5597494580179e-06,1.904793513378989e-05,9.117130903053377e-06,-8.51796597221236e-06,1.1784720065818416e-05,-2.298356213351908e-05,-6.1418690820534654e-06,-1.580585189739441e-05,-9.184797529435364e-06,9.617214919981959e-06,1.0408597107030986e-05,-9.583945618772325e-06,-8.291776364706012e-06,4.553615276544048e-06,-1.1212167849721845e-06,1.6253004102243557e-05,-6.2172011758687366e-06,4.708650609516132e-06,-7.854071428383515e-06,-9.23199482902185e-06,5.730587341922972e-06,-1.937592069565392e-07,-5.877145902500471e-06,6.125898867981947e-06,4.785090572138429e-06,2.6689520690564097e-06,-1.1915686570338583e-05,1.6412681530297575e-05,2.7262623765340216e-06,-5.447457782151563e-06,2.1147830237938736e-06,7.942327877711668e-06,2.3745590620444125e-06,-1.3402332013897938e-05,-1.1495472629192892e-05,1.0240879899210846e-06,-1.1467657723205796e-06,3.0806566596702943e-07,5.682645012028473e-06,-4.513621552100603e-06,-8.95602847902111e-06,4.416153978595107e-06,-9.69631856437806e-06,-4.292831598200959e-07,4.773637099513161e-06,-2.995885863836331e-06,-8.60315795429699e-06,1.1316287073764465e-05,5.606850185700918e-06,4.987928335337771e-06,1.489718465138227e-05,1.369032352641786e-05,-1.3823283613355128e-05,-1.0637810184587657e-05,4.975429695932613e-06,-2.860797754349122e-07,-5.862942236347364e-06,4.291340993792238e-08,-1.1113705229184509e-05,1.3155086205095663e-05,1.1855988383231473e-05,-1.4719137665227153e-05,-4.536546791728044e-06,5.13561462379121e-06,-3.141138817749779e-06,-7.1634081434043645e-06,-9.806234035608515e-06,-3.3181474006399012e-06,-9.23092172147656e-06,3.387066460127042e-06,1.7961865873956343e-05,1.037019877735794e-05,-1.2117611522507794e-05,9.117984373866786e-06,2.2509751017237285e-05,-3.2841442752635507e-06,-6.368692369657943e-06,-6.795875487429416e-06,9.550713253214678e-06,2.4380854239599583e-06,1.2929523950433024e-06,-1.4432097197872292e-05,-8.372389138997227e-06,-5.65586361711781e-06,5.929463344689117e-06,-8.654110725395687e-07,-3.6191979056528396e-06,-1.0934421706955854e-06,5.044354830312719e-07,1.4025104226412391e-05,2.0149169903080756e-06,-8.44604643515596e-06,-7.781789093570727e-06,-1.0650027816138639e-05,-8.427294641586502e-06,-6.275871600270283e-06,-1.8076365640146464e-05,1.8993395043309412e-06,9.002408749126735e-06,1.217694736671951e-05,2.1457369890835296e-06,2.872875675081885e-06,1.8479823650481318e-06,1.4691613629888797e-06,-7.959388632027568e-06,1.2122783323519866e-05,3.667052064124982e-06,1.1494224642537157e-05,-1.1624755573984107e-05,-7.645526657823432e-06,-8.412876717125425e-06,-1.1472972541391839e-05,7.980724105704291e-06,1.516162258357816e-05,-1.3097723873960893e-05,3.2418387759767927e-06,-8.388506449441971e-06,-1.0205759389019047e-05,-7.614063271778819e-06,3.32133058277985e-06,8.286435294208251e-06,4.40453735223509e-06,-2.948414241137879e-06,-8.079859223300314e-06,-2.44237878769153e-05,-1.0407759066740897e-05,4.332997162499946e-07,-4.160743655926352e-07,-1.3448349147029348e-05,-7.941551512570217e-06,2.294529821302179e-06,1.5021690282795625e-05,-1.3052736150204998e-05,-7.809614484551124e-07,2.2850045001642058e-06,-5.6799018701536685e-06,-4.2644415706387967e-07,-3.7023456406226887e-06,1.4261804314054554e-05,-7.033646488474936e-06,1.234777580644613e-05,2.1319871339533715e-06,1.6802716306327153e-05},{-6.472979662142162e-06,2.5427939825632117e-06,-1.3582749592039086e-05,-1.7743939483239365e-06,2.8858083865416645e-06,-9.954815112311703e-06,4.384493227519547e-06,1.3841832726809617e-06,2.823924560266751e-06,1.546206886400465e-05,-4.0622160648430465e-06,-9.418165795335335e-06,2.41769627912878e-06,-4.633667238121955e-06,-1.482194459480334e-07,4.023273395281536e-08,-1.4338324131528837e-05,5.597134390799634e-06,6.674048984125918e-06,4.300009955646088e-08,1.3249960091516071e-05,3.528287526148673e-05,1.7254322198563404e-05,-1.301761982068705e-05,-1.2126890338655907e-05,-1.0305233158785255e-06,8.985339454292733e-06,1.1777624704684362e-05,3.218104864190327e-06,-1.3303297656022092e-05,-4.4439112003222485e-06,-4.438053782026286e-06,-1.622349350777787e-05,-1.8965734979915474e-06,-1.2251304211920003e-05,3.1108883786377876e-06,1.1653151224266788e-06,7.364284259305004e-06,-1.1064298426589182e-05,1.148776467782297e-05,-1.9485799308794973e-06,1.706920955886033e-05,-2.864665862086132e-06,8.848089829147102e-06,-2.192175461791219e-06,1.9831400488769554e-06,-1.2182067792878525e-05,4.264441113224894e-06,-5.171901732188828e-06,1.7368226071452466e-05,-1.3391086334385315e-06,1.3383679799505787e-05,1.2509506372155427e-05,-1.5892471588423846e-05,-8.994242041270636e-06,1.6394961437551147e-05,-3.7591618417293368e-06,-1.0302188797900157e-05,4.49383003649273e-06,-4.352965839932737e-06,-9.778731606775582e-06,-1.1647953831766599e-05,3.423472570378191e-06,-2.0920850161088263e-05,-9.500328862831153e-06,-3.3633167971473345e-06,6.568900131807391e-06,1.1585641069047355e-05,-2.3150098281465825e-07,-8.323811284562297e-06,-1.6123215244461758e-05,4.598735267445636e-06,1.1675017041741366e-05,-6.191634988450564e-06,6.366567502735634e-07,-6.274609338815387e-06,7.519154176532258e-06,1.0284655828594894e-05,9.309842339485217e-06,-8.045628037797027e-06,-2.9153562859848234e-06,-8.07242277325447e-06,-1.7424117383404925e-05,1.4059091330526804e-05,1.7958344186669852e-07,1.4063698341615921e-05,-1.9756434184164935e-05,1.2679156217581065e-05,-9.09746653201312e-07,1.17125677969476e-05,-1.0121601266774042e-05,-5.360596102319292e-06,2.3200700733726278e-05,-9.17495511432055e-06,1.5174764305658114e-06,-1.7536078948625149e-06,-1.1170573474520672e-05,-1.3460439972472973e-05,8.283058497613653e-06,-8.076654562902399e-06,-1.1139510649411412e-05,-1.181429789457327e-06,-1.588847797514645e-05,-6.334611240420313e-06,-4.2357566138509773e-07,1.1347765094950424e-05,-8.976710571274586e-06,-1.6311070202342285e-05,-7.421555073428238e-06,-1.4518531038636628e-05,-7.72859905939843e-06,-1.3042559572338103e-06,-5.547652707747774e-06,2.4064149633941694e-06,1.0626712885460798e-05,1.52870713320166e-05,2.0000320671134756e-06,-1.4275292757548208e-06,-2.388679752204225e-05,8.661820868075541e-06,-3.762579792751184e-06,6.735752624756726e-06,-9.361190529862641e-06,-5.468644878818134e-06,1.1413276899945688e-05,-1.301211991803169e-05,1.4562256731755613e-05,4.51248957789991e-06,-1.3787818821945906e-05,-6.4063627374552845e-06,1.4344967061356006e-06,-7.2608661717549965e-06,1.2405923581205045e-05,1.1293187806841298e-05,3.5181181973243853e-06,1.1749571096066414e-05,-9.177191298273524e-06,-8.925247787763986e-06,-1.8002159212449566e-06,-4.266180215992141e-07,8.477334093302941e-06,-3.1725335061141447e-07,-5.1088142026437245e-06,7.049860491577729e-06,-8.164993849536233e-06,4.588433495356086e-06,-8.332971282650572e-06,8.196112593182562e-06,3.2481460979221386e-06,-2.6163743835444067e-06,3.920077763784405e-06,8.951043891144139e-07,-3.981834067153974e-06,1.612631288236166e-05,-1.1791913623703394e-05,3.214893640706746e-06,-4.226326122594648e-06,-7.36612020035542e-06,9.065296028329158e-06,1.6106305022677191e-06,-9.75802405474513e-06,-1.4633903720607065e-05,-1.4971011675657141e-05,-1.2865440151862021e-05,1.5125583119425077e-05,1.435192537065428e-06,-1.456721416431428e-05,-3.740733832671164e-06,9.028282894334911e-06,-3.802869217285323e-06,-1.2482084025748375e-05,-7.608198188256522e-06,-1.3568390961857536e-05,1.0458945017091492e-05,6.590278128179144e-07,-1.000772258657037e-05,8.722554496606761e-06,2.896031463473579e-07,-2.0353204117355895e-06,1.2487821039588089e-05,-1.1088155134057658e-05,5.912457104484555e-06,-1.640388847512757e-06,2.6190664932701444e-05,6.4688798350631444e-06,1.5535497521993546e-05,2.519678132835771e-06,1.8306280027208244e-06,5.199900460732743e-06,-5.4084956712898894e-06,-8.532836695648968e-06,-5.556380007601476e-06,-5.342711805780323e-06,-4.951246679327236e-06,1.7431489382728108e-05,-4.043841152008794e-06,3.122746850470623e-06,2.393480528509042e-06,-1.2284275799631156e-06,-1.3534495838559647e-05},{-5.6236801784129005e-06,1.095464756841648e-05,-2.578052138735715e-06,-4.801257567784842e-06,1.3208903337464609e-05,-8.500843761705966e-06,3.787575188793101e-06,-1.3665836756748157e-07,-8.702208420392523e-06,4.4699384871412645e-06,2.3653256308587636e-06,-3.694690791534663e-06,-3.2735090480287846e-06,-9.623221036685262e-07,9.175762480367255e-07,-8.336368628394292e-06,1.2199921514266908e-05,5.786726523628816e-06,-4.554952103664425e-06,-3.968013979556038e-07,-6.347758837542992e-06,8.934376933346209e-06,-7.853106365371523e-06,8.617598006836672e-06,9.336702598719691e-06,1.593915816360815e-05,-5.223011130520947e-07,-1.5830501799524404e-05,-5.116148680945276e-06,7.016791221874036e-06,-8.383805067377087e-07,2.7661121884113656e-06,1.642836074071107e-05,-1.915384788483885e-06,-1.0011774749741921e-05,3.472533747001396e-06,9.731445386480855e-06,1.1697952139833514e-06,-1.2559566838052465e-06,6.015278899945826e-06,1.2984396540613381e-05,-9.110264404685364e-07,2.6736128355880236e-06,-2.6794971137032567e-06,5.369437799986568e-07,-8.277768748375238e-06,2.319914137727379e-06,1.0283652179640144e-06,3.101881928191394e-06,1.3980245631128684e-05,-1.7061026930537015e-05,1.0482978054094046e-05,-1.3584098644379245e-06,-3.33423478142595e-06,2.394480265982213e-07,3.5996790946679878e-06,8.846130415843455e-06,-3.556264370153682e-06,-4.37873660234975e-06,-1.1621459283076446e-05,1.928011980756787e-05,2.690952288040223e-06,7.4084424650184326e-06,-5.481656939586919e-06,-1.7776381607367047e-06,1.4324730510972255e-05,1.125851961835353e-05,-1.5834259134191617e-06,1.1516423989695827e-05,-6.5435578596712084e-06,-7.37565774256262e-06,1.49185750339004e-05,-1.2582056503767247e-05,-6.426640655356985e-07,4.4534498944177596e-06,2.776127588431418e-06,-2.035791738997026e-05,1.7806161531088873e-06,2.16080604318923e-06,1.6117753398545673e-05,2.4392610060766555e-05,-4.2214116697123494e-06,1.339929627639657e-05,3.4435137948761218e-06,-9.083867621777108e-06,-1.1002528015208758e-05,-2.399469417681325e-07,-8.109192378036115e-06,-3.97393387150198e-06,-5.552768832247524e-06,3.1496561265588694e-06,9.379460426085253e-06,-8.196877472168804e-06,-6.29728874866016e-07,8.47002887059392e-06,2.1482643754756386e-07,1.2235228605707607e-05,2.1628680407478668e-06,-5.124867245963259e-06,-2.747888289649274e-07,-6.060243975555421e-06,1.853136429158187e-06,1.1295420868610647e-05,1.3981932513210849e-05,-6.180438051508935e-06,6.867744954995029e-06,1.954190108334494e-05,-1.4051310836216299e-05,-6.532946174812641e-06,5.886740220613509e-06,-1.116814637679856e-05,-9.66060195582547e-06,-1.0836882203551985e-05,-3.1768277013803155e-06,-1.4848349994000776e-05,2.8843528474819296e-06,3.968978100494719e-06,-3.898451013634338e-06,2.5667975910066416e-06,1.1832419576068231e-05,7.969038686741779e-06,-9.51228511984562e-06,1.957369577455176e-06,9.000580235951461e-06,-9.112274583091321e-06,-6.320465344687036e-07,-6.289180106983255e-06,8.783084878175386e-06,6.6172435100261695e-06,6.061188043290731e-06,-1.7911523165230256e-06,3.3160650069840434e-07,2.7981059780902205e-05,1.7864970083674532e-06,-7.107807457337471e-06,-7.060539929914906e-06,3.3392916815235673e-06,-8.569395155236727e-06,-9.714451608826617e-06,-1.4477030633536903e-05,-2.3091332496664348e-06,2.1421023436879e-05,-5.01767758582631e-07,1.846404744480065e-05,1.474703507888051e-07,1.0944830866524381e-05,2.3931427837884364e-05,1.4150061412653918e-05,4.141109900368429e-06,-1.7170125878185998e-05,-6.413544218601047e-06,-1.0243741198076409e-05,1.987129640106033e-05,1.4793462847663995e-05,8.67674373633686e-06,4.807991178602874e-06,-1.3758499863995103e-05,-1.039113163287975e-05,-3.962869814315911e-06,7.020656055955613e-07,2.4864013450143246e-05,-8.693311081560122e-06,1.0608731132543365e-05,4.112676698504043e-06,-3.4693583813834072e-06,2.250138508537216e-06,4.881203359558383e-06,-1.8047029200123194e-05,-5.563278493369726e-06,5.088786809604778e-06,4.009330486044196e-06,-3.806489464551605e-06,-2.8324146405107694e-05,4.568131810776619e-06,-9.342430968403384e-06,9.550207194105565e-06,5.01597510600918e-06,-1.740752613102386e-05,3.968309102001151e-06,-6.6818289459763406e-06,1.0163047732472725e-05,-8.329186202358366e-06,-1.854696547628035e-05,7.785917054502683e-06,-1.1826617763456951e-05,9.73985179959025e-06,-4.035336630059419e-06,-7.036708882387742e-06,-9.378035950951679e-06,-1.657918163737785e-05,-1.1713009708520657e-05,-1.6090360324083518e-05,1.4794842466373065e-05,-1.0973591294933382e-05,-7.341125311324089e-06,-7.777166040129878e-06,-1.1341864797123869e-05,2.123447589077003e-05,-7.539393784130621e-06,4.908179100404815e-06},{-1.3322431053709722e-05,1.0458730049879664e-06,-1.2069723789852872e-05,-3.6273713887460177e-06,6.8643397005817576e-06,-5.205710491801057e-06,8.80772766047823e-06,-1.4073613707612445e-06,-4.135155928738594e-07,7.350445301591812e-06,9.81650558025934e-06,9.806861955501665e-06,4.762690996876489e-06,-7.640402256321619e-06,7.690914852615424e-06,1.5081667454298662e-06,5.83651617546843e-06,-2.8359366525201454e-06,-5.378026557170204e-07,-3.874065005453031e-06,-1.6961817564743382e-05,1.5445479300694947e-05,3.4337413754642783e-06,-7.76005784120018e-06,8.802868451713703e-06,-3.0577066550051924e-06,9.168040492994206e-06,1.5934282618123078e-05,3.498234962887005e-06,6.3987384279992905e-06,2.2559231680940974e-05,-1.5077336367956156e-05,-7.646064165191395e-06,3.7709728874424464e-06,-6.053204695787917e-06,-1.455675947287747e-06,1.4935936636651314e-05,3.8473752662536693e-07,7.0713301713911385e-06,-8.336642710672544e-06,-9.540893945600822e-06,-6.741123276291513e-06,-1.203212062148921e-05,4.558870877357397e-06,7.2307649692364016e-06,3.7519349349464366e-07,-2.4028016386299637e-06,1.9698261562079426e-05,-8.50526969651181e-06,2.9902087148588654e-06,5.927871200650018e-07,-2.9181818831857676e-05,-1.3479693384307056e-05,-1.2411654574823584e-05,-1.4976863850899339e-05,2.2126023300845694e-06,2.8602263667007564e-05,-9.979911681238473e-06,-6.348083680015748e-06,7.386690628981122e-06,-3.417754789209873e-06,-2.5044684107598397e-06,1.2101601072277701e-05,-4.101048820427982e-06,-2.6311194806579007e-06,-3.7631798879725067e-06,-3.1206733487825656e-06,3.7747213629391993e-06,3.2436179432339057e-06,-7.864838982784124e-06,1.9383478804176473e-05,7.165989015842359e-06,-1.7755018522803388e-06,8.017193210702384e-06,1.8362229903884763e-05,3.102823274682545e-05,3.226537508111759e-06,-2.1207756021693822e-05,-1.292974038563063e-05,-1.1603082413396114e-06,-6.821146360206461e-06,1.3691001622438903e-05,-2.426049459655733e-07,-2.0454275802930483e-05,-2.526375068658661e-06,1.3074207036686202e-05,-6.947004926664911e-06,-6.242251197428347e-06,-3.2940975569963165e-06,2.2020924373826733e-05,1.271232751605643e-05,-3.1694580552064866e-06,3.041651376130461e-06,-6.270658492101699e-06,5.90448704559668e-06,-4.678162412601369e-06,-9.547551866287342e-06,1.8230728507554917e-05,4.93341101954101e-06,2.3624724925785146e-06,1.527300375531923e-06,1.2876369992622056e-05,4.165240624617725e-06,1.5533339155688734e-05,3.3051396667513396e-08,1.270972859464737e-06,-1.5126977851283733e-05,-9.94495232493482e-06,6.5439834331620635e-06,-6.812380918930356e-06,3.76653887033336e-06,6.982319957049924e-06,6.414642022659837e-06,1.616816856296296e-05,-8.5625886550265e-07,-1.729133791946151e-05,6.748444109579634e-06,2.5070731142219927e-06,-1.0662190427418595e-05,-4.1521356747465605e-06,-4.013549344475791e-06,-6.410294978297149e-06,3.0862076820375082e-06,5.488467409818513e-06,-6.647061456671622e-06,-1.7247197747283667e-06,-1.8381084119915918e-06,-1.2130098269438386e-05,-1.9767886780660793e-05,-1.8200731046928083e-05,-3.840200254113495e-06,-1.082695704516461e-05,-9.799009508114923e-06,9.974047874148408e-06,2.6358835466381155e-06,2.0728336239723295e-05,-6.64438703845858e-06,-6.886114347281803e-06,5.312104561703655e-06,-4.411562058321029e-06,-1.5430245619361418e-05,-2.6770730083688774e-06,-8.281776805386762e-06,-6.796175638575585e-06,-3.6905273588318867e-06,-3.0185349384428397e-06,-1.0483508775495656e-06,2.108854133142231e-06,-1.4161071773110174e-05,1.5781371245905633e-05,1.6565289652135347e-05,4.318848728047847e-08,1.3020993757303129e-05,-8.277889761946306e-06,2.8401263346373065e-06,1.3658498639410875e-06,-1.1703149453608424e-05,-2.9525944330602926e-06,-3.6492861888334853e-06,-8.309711537249793e-06,-8.040009114509197e-06,-6.931068766617452e-06,-1.1708887700659475e-06,1.0260596573574974e-05,-1.2781356012001343e-05,1.1448046215171318e-06,-1.5816171038748376e-05,